686 300
absolution 0.30859375 -0.09472656 -0.07421875 0.05859375 0.056640625 0.20019531 0.21582031 -0.045166016 0.2734375 -0.14746094 -0.095703125 0.110839844 0.047851562 0.43554688 -0.06347656 0.54296875 0.58203125 -0.011230469 0.15527344 -0.22851562 0.33984375 0.37890625 0.013427734 -0.34179688 0.24804688 -0.20996094 -0.484375 0.51953125 -0.11035156 0.16992188 -0.34765625 0.09033203 -0.23242188 0.359375 -0.095703125 -0.16503906 0.22363281 -0.42578125 0.3125 -0.047607422 0.043945312 0.103515625 0.16308594 -0.31054688 0.07080078 -0.0703125 -0.12109375 0.22363281 -0.16308594 0.13671875 0.14453125 0.34179688 -0.057861328 0.083984375 -0.2265625 -0.03881836 -0.17773438 -0.27148438 -0.33984375 -0.075683594 -0.110839844 0.41210938 0.21191406 -0.083496094 -0.068847656 -0.032226562 -0.16796875 0.048095703 6.1035156e-05 0.078125 0.32617188 -0.05053711 0.032958984 0.07470703 0.072265625 -0.48828125 -0.115234375 0.13574219 0.07080078 0.040771484 -0.03540039 0.265625 0.002960205 0.022583008 0.15917969 -0.021972656 0.22558594 0.03149414 0.30273438 -0.2265625 -0.03564453 0.22558594 -0.23144531 -0.067871094 0.22753906 -0.017822266 -0.06298828 0.12695312 0.19042969 -0.03930664 -0.36132812 -0.07324219 0.27734375 -0.123535156 -0.03540039 -0.16503906 0.02368164 0.06640625 0.041015625 -0.056640625 0.048095703 0.17480469 0.37695312 0.1484375 -0.123535156 0.037353516 0.059814453 -0.100097656 0.27539062 0.51171875 0.063964844 0.21386719 -0.16015625 -0.47851562 -0.24023438 -0.20605469 0.20800781 -0.35742188 0.43359375 0.012573242 -0.02746582 0.016113281 -0.07861328 -0.05102539 -0.024169922 -0.140625 0.084472656 -0.007873535 0.546875 0.3984375 -0.032958984 0.0054626465 -0.03173828 0.11425781 -0.07519531 0.13867188 -0.06689453 -0.1953125 -0.13867188 -0.31054688 0.12988281 -0.19921875 -0.20019531 0.11816406 0.051757812 -0.43164062 0.049560547 0.1328125 -0.2734375 -0.19238281 0.20996094 -0.12890625 -0.3515625 -0.00970459 -0.30078125 -0.0037994385 -0.055419922 0.16210938 -0.25390625 0.08203125 0.28515625 -0.0045166016 -0.051757812 -0.34375 -0.16503906 -0.20800781 -0.006286621 -0.18945312 0.21289062 -0.49414062 -0.20703125 -0.024169922 0.100097656 -0.3046875 0.14941406 0.046142578 -0.13867188 -0.19042969 0.100097656 0.028076172 0.18554688 -0.05883789 -0.072265625 0.014770508 -0.23535156 0.009277344 -0.06542969 -0.14550781 -0.23339844 0.078125 0.011108398 0.16992188 -0.056884766 0.061279297 0.30273438 0.053955078 -0.16015625 0.0022583008 -0.20507812 0.1015625 -0.15234375 0.3671875 0.14453125 -0.32421875 -0.0703125 -0.025146484 0.115234375 -0.13085938 0.30078125 -0.26953125 -0.19042969 0.08300781 -0.23242188 -0.037597656 0.10449219 -0.0138549805 0.04663086 0.14257812 0.041259766 0.08251953 -0.08984375 0.056640625 -0.20019531 0.08886719 0.08886719 -0.06933594 -0.014404297 0.15722656 0.068359375 0.37109375 0.36523438 -0.2890625 -0.22460938 0.06738281 0.020019531 -0.24414062 0.0063171387 -0.0029754639 -0.20996094 -0.08105469 0.35351562 0.071777344 0.34765625 0.28320312 -0.15917969 0.03881836 0.23730469 -0.15332031 0.4140625 -0.021118164 -0.20507812 -0.01928711 -0.43359375 0.13085938 0.30078125 0.21582031 0.045898438 0.018310547 -0.29101562 -0.42773438 -0.171875 -0.0119018555 0.31445312 -0.06347656 -0.33789062 -0.107910156 -0.25976562 0.0026397705 0.24316406 0.328125 -0.103515625 -0.09375 0.053222656 0.16601562 -0.114746094 0.1796875 0.20507812 -0.010131836 -0.3671875 -0.34179688 0.36132812 0.06982422 -0.16210938 -0.111328125 0.16503906 0.19628906 0.12792969 -0.13378906 -0.15527344 0.30859375
abundance 0.20214844 0.1328125 -0.12792969 0.07080078 -0.026489258 -0.038330078 -0.09716797 -0.33007812 -0.2578125 0.42578125 -0.26367188 -0.21484375 -0.07324219 -0.03125 -0.3125 0.08105469 -0.18554688 0.19140625 -0.13671875 -0.12597656 0.05517578 -0.14941406 -0.19042969 0.039794922 -0.23144531 -0.16503906 -0.025268555 0.36523438 -0.109375 -0.048095703 -0.031982422 0.1171875 0.11767578 0.12988281 -0.080566406 -0.03930664 0.0032043457 -0.32617188 0.09667969 0.033447266 0.36132812 0.103027344 -0.012390137 0.059326172 -0.060058594 -0.328125 -0.08203125 0.029907227 -0.13476562 -0.17578125 0.04272461 -0.05859375 -0.26367188 -0.012756348 -0.0138549805 -0.10546875 -0.015563965 -0.43359375 -0.05029297 0.05883789 0.03100586 0.0067749023 -0.28125 0.014343262 0.01940918 -0.31640625 -0.24902344 0.056396484 -0.15234375 -0.017700195 0.0070495605 -0.27539062 -0.028320312 -0.19238281 -0.171875 0.02758789 -0.19335938 -0.12011719 0.103515625 0.3515625 -0.09375 -0.06689453 -0.13378906 -0.4453125 -0.18457031 -0.076171875 0.0045776367 0.19433594 0.10107422 0.052246094 0.15429688 0.040771484 0.015319824 0.16601562 0.06982422 0.19726562 -0.060546875 0.37304688 -0.037597656 -0.25195312 0.29492188 -0.017822266 0.044921875 -0.048095703 -0.05419922 -0.111328125 -0.33203125 -0.047851562 -0.12890625 -0.19335938 -0.15722656 0.060058594 0.025878906 0.017089844 -0.02746582 -0.048339844 0.21582031 -0.095703125 0.053222656 0.09033203 -0.12695312 -0.036865234 0.03173828 0.12597656 -0.20800781 0.13378906 -0.08300781 -0.328125 -0.041259766 0.26171875 0.13574219 -0.08935547 -0.033691406 0.12597656 -0.07128906 -0.029174805 -0.059326172 0.061767578 0.12597656 0.08642578 -0.1640625 0.08251953 0.0018844604 0.21191406 0.29296875 0.09863281 0.055664062 0.19824219 -0.083984375 0.10253906 -0.041748047 0.24609375 -0.027832031 -0.09814453 0.068847656 -0.18359375 0.092285156 -0.265625 -0.012512207 -0.061279297 -0.067871094 -0.10253906 0.027832031 -0.07470703 0.2890625 -0.08642578 -0.18847656 0.068847656 0.13085938 -0.080078125 -0.44726562 0.37890625 -0.26367188 0.1640625 -0.110839844 0.13671875 -0.16796875 -0.28710938 0.20898438 -0.12597656 -0.27539062 -0.012878418 0.20117188 -0.29101562 -0.10498047 -0.1875 -0.27148438 -0.21972656 -0.1484375 0.234375 -0.16015625 -0.11376953 -0.060546875 0.07910156 -0.21875 -0.07714844 -0.12988281 -0.20410156 -0.107910156 -0.17480469 0.0034179688 0.119140625 -0.12109375 -0.15625 -0.13378906 0.012634277 0.007293701 0.012512207 -0.10839844 0.23828125 -0.29882812 -0.10839844 -0.12207031 0.07324219 0.18164062 0.19628906 0.30859375 0.002960205 -0.11328125 -0.05883789 0.16308594 -0.11621094 -0.1015625 0.03491211 0.024414062 0.13085938 0.17773438 -0.17089844 -0.12060547 0.21386719 0.0138549805 0.23339844 0.026245117 -0.125 0.20800781 -0.008544922 -0.017944336 -0.24609375 0.07421875 0.03881836 -0.33984375 0.106933594 -0.075683594 -0.24804688 -0.071777344 0.099609375 -0.016113281 -0.21875 -0.01965332 0.10205078 0.16015625 0.044677734 0.08984375 0.20410156 0.11767578 -0.24902344 0.049560547 -0.26367188 -0.234375 0.05517578 -0.0032348633 -0.20898438 -0.050048828 0.22070312 -0.001411438 -0.075683594 -0.13085938 -0.16113281 0.0042419434 -0.095703125 -0.140625 0.095214844 -0.031982422 -0.009887695 0.08642578 0.24804688 -0.029907227 -0.15136719 -0.024047852 -0.03930664 -0.12060547 -0.29492188 0.265625 -0.048828125 -0.26757812 -0.017578125 0.07324219 0.009643555 -0.10546875 0.044677734 0.05053711 -0.24511719 0.08984375 -0.052490234 0.08154297 -0.265625 0.10644531 -0.30273438 -0.18164062 0.06591797
abundant 0.036132812 0.04711914 -0.20605469 0.03930664 -0.13085938 -0.041259766 0.05517578 -0.26953125 -0.029541016 0.38671875 -0.22363281 -0.05444336 -0.055419922 0.05053711 -0.12988281 -0.067871094 -0.09375 0.123535156 -0.14941406 0.040039062 0.03930664 -0.18652344 -0.092285156 0.23828125 -0.25 -0.359375 -0.028930664 0.22460938 -0.087402344 -0.15234375 -0.123535156 0.17089844 -0.018554688 0.111816406 -0.24511719 0.15820312 -0.08300781 -0.29492188 0.12597656 0.12695312 0.3984375 -0.0087890625 0.13867188 -0.040771484 0.10888672 -0.16894531 -0.15527344 0.0625 -0.18457031 -0.19726562 0.049316406 -0.34179688 -0.11376953 0.1484375 -0.025390625 -0.06738281 -0.20898438 -0.46875 0.1015625 -0.09033203 -0.076660156 -0.014831543 -0.32226562 0.005432129 -0.0016326904 -0.20214844 -0.15136719 -0.08984375 -0.25390625 0.055664062 0.18652344 -0.19335938 -0.10986328 -0.06933594 -0.0107421875 0.0859375 -0.29492188 -0.013549805 -0.06347656 0.35546875 -0.06542969 0.080078125 0.037353516 -0.17382812 -0.28125 -0.0625 -0.18652344 0.19238281 -0.020019531 0.039794922 -0.029907227 -0.036865234 0.10888672 0.08691406 -0.12695312 0.125 -0.06591797 0.31835938 0.09082031 -0.30078125 -0.10644531 0.05053711 0.018554688 -0.13671875 -0.087890625 -0.104003906 -0.075683594 -0.14746094 0.111328125 -0.10253906 -0.21777344 -0.036865234 0.10546875 0.008422852 0.14257812 -0.029541016 0.38671875 -0.18945312 -0.022338867 0.044433594 0.107421875 -0.14746094 0.03125 -0.15917969 -0.19628906 0.04296875 -0.013000488 -0.22167969 -0.30273438 0.24121094 0.10595703 0.026123047 0.2421875 0.043945312 -0.12890625 -0.18457031 0.115234375 -0.13378906 -0.007537842 0.20605469 -0.12451172 0.036621094 -0.007873535 0.095703125 -0.045898438 -0.004119873 -0.123046875 0.20507812 0.004119873 0.012390137 0.06298828 -1.9907951e-05 0.040283203 -0.026245117 0.016357422 -0.1796875 0.17675781 -0.019042969 0.0038604736 -0.13574219 0.014465332 -0.014526367 -0.00021076202 -0.15820312 0.044677734 -0.045898438 -0.056884766 0.040771484 0.11621094 -0.21875 -0.40625 0.26171875 -0.059570312 0.16796875 0.052001953 0.14257812 -0.21777344 -0.33789062 -0.07910156 -0.15917969 -0.28710938 -0.017211914 0.1015625 -0.19433594 -0.26171875 -0.037109375 -0.19238281 -0.12402344 -0.17480469 0.33203125 -0.2734375 -0.12597656 0.072265625 0.03955078 -0.28125 -0.09765625 -0.33007812 -0.36523438 -0.140625 -0.23632812 0.100097656 0.27539062 -0.0859375 -0.2734375 -0.1796875 0.06689453 0.22265625 -0.22363281 -0.35546875 0.123535156 -0.46484375 -0.034423828 0.022460938 0.20019531 0.37890625 0.33203125 0.20996094 0.0022583008 0.07080078 0.16894531 0.23535156 -0.032470703 -0.10888672 0.22070312 0.125 0.10107422 0.071777344 0.02758789 -0.061035156 0.203125 -0.06201172 0.15917969 0.16210938 -0.06298828 0.18066406 -0.040039062 -0.14550781 -0.22949219 -0.08935547 -0.080078125 -0.13867188 0.01574707 -0.017700195 -0.22070312 0.030273438 0.08105469 0.16015625 -0.111328125 -0.103027344 0.140625 0.109375 -0.11376953 0.20703125 0.265625 -0.0025482178 -0.122558594 -0.072753906 -0.19628906 -0.2890625 -0.017700195 0.11669922 -0.30273438 -0.057373047 0.14941406 0.07519531 0.057617188 -0.16308594 -0.19335938 0.16503906 -0.16601562 -0.15136719 0.06225586 -0.15136719 0.12597656 0.09277344 0.13378906 -0.12109375 -0.12597656 -0.21289062 0.046142578 -0.16210938 -0.04638672 0.095214844 -0.15332031 -0.2890625 0.032470703 0.13183594 -0.06640625 -0.057861328 0.22851562 -0.015625 -0.16992188 0.09863281 0.068847656 0.08984375 -0.103027344 -0.0007133484 -0.47851562 0.08154297 0.07128906
accolade -0.23242188 0.14453125 -0.09814453 0.26953125 0.48242188 -0.0015869141 0.14257812 -0.37109375 0.24707031 0.390625 0.05419922 0.16796875 0.375 -0.14160156 0.28710938 0.32226562 0.118652344 0.08886719 0.053466797 -0.16992188 0.07519531 0.123046875 -0.18359375 0.008178711 0.22265625 -0.20800781 0.14257812 0.07421875 0.00982666 0.024658203 0.16503906 0.06738281 0.16699219 -0.122558594 0.578125 -0.15136719 0.15820312 -0.09082031 -0.12207031 0.2421875 0.16308594 -0.13378906 -0.24414062 0.5 0.017700195 -0.072265625 -0.05078125 0.015563965 -0.071777344 -0.03100586 -0.01373291 0.27929688 0.25 0.13867188 0.04638672 -0.053955078 0.18945312 -0.11767578 0.14550781 0.09667969 -0.11279297 0.119140625 -0.119140625 -0.5 -0.103515625 0.30664062 -0.18066406 -0.359375 -0.1640625 0.14355469 -0.15332031 -0.34960938 0.25585938 -0.08496094 0.038085938 -0.21875 0.18457031 0.15527344 0.06738281 -0.064453125 0.05493164 -0.328125 0.10058594 0.03100586 -0.12792969 -0.1328125 0.00032424927 -0.13574219 -0.15136719 -0.010681152 0.13183594 0.032226562 -0.1171875 -0.07714844 0.037841797 0.099121094 -0.19335938 0.056884766 0.03125 -0.19433594 -0.1796875 0.26953125 0.17773438 0.16894531 0.021850586 -0.1796875 -0.32421875 -0.09033203 -0.08886719 -0.33007812 0.08984375 0.28125 0.265625 0.45898438 -0.1015625 -0.37695312 -0.20605469 0.15625 0.012329102 -0.16308594 -0.043701172 0.09082031 -0.20703125 -0.17382812 -0.025390625 0.010986328 0.09716797 0.013183594 0.046875 0.021362305 -0.107421875 -0.12011719 0.021972656 0.16015625 0.03515625 0.20410156 -0.100097656 0.390625 -0.024780273 0.24414062 -0.15429688 0.06982422 0.032226562 -0.08642578 -0.17871094 0.036376953 -0.14550781 -0.068359375 0.25976562 -0.31445312 -0.02355957 0.32226562 -0.022216797 0.13476562 0.26757812 -0.24316406 -0.25585938 0.032470703 -0.140625 -0.71484375 -0.25 0.12402344 0.095214844 0.095214844 -0.45703125 -0.42578125 -0.14648438 -0.2734375 -0.51953125 0.43554688 0.115722656 -0.07763672 0.008728027 -0.08300781 -0.18554688 -0.06982422 0.23144531 -0.41210938 0.010864258 -0.23242188 -0.13476562 0.09082031 0.104003906 -0.42578125 0.0045166016 -0.048339844 -0.123046875 0.123046875 -0.125 0.33203125 -0.03515625 -0.12158203 0.19238281 -0.001449585 -0.115234375 0.040039062 0.20019531 0.22265625 0.08251953 -0.11230469 0.05444336 0.111328125 -0.022216797 0.1953125 -0.21191406 0.1796875 -0.053710938 0.078125 0.21582031 -0.18164062 0.3515625 -0.13671875 -0.24902344 -0.075683594 -0.095214844 0.07128906 0.12109375 0.2265625 0.37695312 -0.13476562 0.083984375 0.15332031 -0.33984375 0.19042969 0.05859375 0.1171875 0.017822266 -0.484375 -0.009277344 -0.2578125 -0.10253906 -0.072265625 -0.20605469 -0.15820312 0.34179688 -0.12597656 -0.19238281 -0.0703125 0.171875 0.16894531 -0.26367188 -0.49609375 0.24316406 -0.14941406 0.021606445 0.059570312 0.20605469 -0.15234375 -0.103515625 -0.38671875 -0.07373047 -0.12792969 -0.18457031 0.04345703 -0.025146484 0.546875 -0.17773438 0.109375 -0.42578125 0.08935547 0.080078125 0.328125 -0.29101562 0.16601562 0.37695312 -0.0022277832 -0.1484375 0.21875 -0.012390137 -0.33789062 -0.0703125 -0.28515625 0.15332031 0.15332031 -0.05444336 0.08300781 -0.095703125 0.031982422 -0.203125 0.05053711 -0.064941406 0.030273438 0.234375 0.017211914 -0.27734375 0.31640625 -0.10839844 0.05444336 -0.052001953 0.22167969 -0.048095703 -0.11279297 -0.35546875 -0.27539062 -0.140625 0.053466797 -0.10058594 0.24902344 -0.17089844 0.3359375
accompaniment 0.0062561035 -0.3203125 -0.24414062 -0.01928711 -0.0002784729 0.18066406 0.22851562 -0.09423828 0.012573242 0.2734375 -0.24902344 -0.103515625 0.0625 0.10888672 0.010314941 0.24902344 0.27929688 -0.13769531 0.04736328 -0.56640625 0.29296875 0.38671875 0.14355469 -0.1015625 -0.15820312 -0.3984375 -0.19726562 -0.055908203 -0.51953125 0.21679688 -0.20410156 -0.15625 -0.07128906 0.07128906 0.056152344 -0.08105469 -0.04638672 -0.0234375 0.061523438 -0.095214844 -0.036865234 0.15039062 -0.13867188 -0.07373047 0.24414062 -0.32226562 -0.25195312 0.020019531 0.16308594 0.044189453 -0.12890625 -0.016967773 0.022338867 -0.08203125 0.23144531 -0.044189453 -0.22265625 -0.21875 -0.12890625 -0.19042969 -0.40039062 -0.2265625 0.033935547 -0.26953125 0.07324219 0.075683594 -0.36132812 -0.21679688 0.083984375 0.16113281 0.021240234 0.14746094 0.15429688 -0.08642578 -0.038330078 -0.14160156 -0.13964844 -0.3046875 0.22558594 -0.08886719 0.23242188 0.09375 0.12988281 0.048095703 -0.048828125 0.33203125 -0.12207031 0.12988281 0.04711914 0.06591797 -0.08886719 -0.21484375 -0.0024414062 0.31640625 0.09375 -0.17089844 0.07470703 -0.061767578 -0.3359375 -0.35546875 -0.15332031 0.26953125 -0.07373047 0.22265625 -0.41015625 -0.111816406 0.30273438 0.05883789 -0.21191406 -0.0625 -0.059814453 0.19726562 0.24316406 0.011474609 -0.12792969 -0.15039062 0.078125 0.1875 -0.08105469 0.18652344 0.053466797 -0.16210938 0.09716797 -0.14257812 0.04663086 0.078125 -0.10498047 -0.06982422 0.24609375 0.003829956 -0.23925781 0.10986328 -0.095214844 0.3515625 0.024169922 0.37109375 0.08642578 -0.22070312 0.14257812 0.14648438 0.27148438 -0.13378906 -0.25976562 0.22851562 0.002822876 0.27539062 0.19921875 0.26171875 -0.12402344 0.37109375 0.14257812 0.057617188 0.078125 0.048095703 0.014770508 -0.3828125 -0.14160156 0.0234375 -0.2734375 -0.19824219 -0.20214844 -0.030395508 0.296875 0.20605469 -0.08642578 -0.1796875 -0.0059509277 -0.026733398 0.03857422 -0.17285156 -0.23632812 0.06298828 0.18359375 -0.048095703 0.006652832 0.012817383 -0.119628906 -0.24902344 -0.16015625 0.068359375 -0.012329102 -0.13574219 0.1875 -0.22949219 0.07763672 -0.026733398 0.046142578 -0.39453125 0.0625 0.19628906 -0.25390625 -0.029541016 -0.011352539 -0.40820312 -0.08642578 0.12451172 0.032226562 -0.119628906 -0.03857422 -0.019897461 0.0546875 -0.021484375 -0.33789062 0.004272461 0.23730469 -0.12011719 -0.022583008 0.032470703 0.10839844 -0.021850586 0.012329102 -0.05493164 -0.21289062 -0.029907227 -0.17871094 -0.18066406 0.060791016 0.14160156 -0.23242188 -0.12792969 0.1015625 0.115722656 -0.091796875 -0.07421875 0.21777344 0.21386719 -0.014221191 -0.109375 0.203125 0.09375 -0.12597656 -0.14257812 -0.083496094 0.091308594 0.07714844 -0.16992188 -0.10449219 -0.12597656 0.115722656 -0.12402344 -0.083984375 0.029541016 -0.14550781 0.10498047 0.4609375 -0.06933594 0.12890625 0.03100586 -0.037841797 0.016601562 0.3125 -0.056884766 0.14257812 -0.04711914 -0.027832031 -0.19042969 0.052001953 -0.4609375 -0.002029419 0.012023926 -0.15917969 0.23925781 0.036132812 -0.31054688 -0.21289062 -0.014099121 -0.30273438 0.02758789 -0.34179688 0.09716797 -0.030029297 -0.37109375 -0.03491211 0.23828125 0.11669922 -0.09033203 -0.28125 0.09716797 -0.041259766 0.09423828 0.1015625 -0.25976562 0.013427734 -0.021850586 -0.21777344 0.09472656 0.1328125 -0.103027344 0.080078125 0.34375 -0.118652344 -0.050048828 -0.072265625 -0.042236328 0.28125 0.17871094 0.083984375 -0.3984375 0.16113281 0.25585938
accomplish -0.071777344 0.14648438 -0.13378906 0.0625 -0.072265625 -0.09716797 0.20507812 0.20996094 0.23535156 -0.060546875 -0.12451172 0.103515625 0.103027344 0.23730469 0.18261719 0.18652344 -0.06689453 0.1796875 0.27539062 -0.08642578 -0.04638672 0.25 0.02722168 0.07519531 0.061523438 0.04321289 0.05444336 -0.34179688 -0.21191406 0.12792969 0.07080078 -0.026855469 0.0048217773 0.06640625 0.06640625 -0.068847656 0.09423828 -0.022827148 0.40429688 0.12890625 0.20410156 0.46484375 0.009521484 0.19042969 -0.27929688 -0.23535156 -0.23144531 -0.013244629 0.079589844 0.19726562 -0.08544922 0.06689453 0.0234375 -0.22851562 -0.002090454 0.067871094 -0.026367188 -0.08105469 -0.11621094 -0.046875 0.110839844 0.20410156 0.16015625 0.021972656 0.01928711 0.1796875 0.015075684 0.056152344 0.053466797 0.0625 0.111816406 0.13476562 -0.09033203 -0.12060547 -0.012939453 -0.36328125 0.18066406 -0.09863281 -0.106933594 0.06298828 -0.13964844 -0.07910156 -0.0099487305 0.16015625 -0.016967773 -0.171875 0.12988281 0.024658203 0.1484375 0.24707031 -0.11425781 -0.17578125 -0.006958008 -0.12011719 0.26171875 -0.27734375 0.18359375 0.08642578 -0.29882812 0.10253906 -0.28710938 -0.00051116943 0.038330078 -0.024536133 -0.07763672 -0.078125 -0.14941406 -0.16308594 0.049316406 -0.10058594 0.09863281 -0.13378906 -0.005279541 0.20019531 0.106933594 0.25 0.115234375 -0.061767578 0.20214844 -0.25585938 -0.13964844 0.111816406 0.20800781 0.19238281 0.0039978027 -0.052978516 0.002029419 0.09716797 0.01586914 0.25 -0.06298828 -0.11230469 0.14746094 0.0027160645 0.30859375 0.171875 -0.15917969 0.0703125 -0.119140625 0.16210938 0.06298828 -0.03112793 -0.21777344 0.015319824 0.22753906 -0.041748047 -0.31054688 -0.33203125 0.12695312 -0.15527344 0.020629883 0.27929688 -0.23925781 0.35351562 0.09423828 0.24023438 0.092285156 -0.29882812 -0.203125 -0.041992188 -0.030273438 0.22265625 -0.234375 -0.052490234 -0.04663086 -0.39453125 -0.20117188 -0.0703125 -0.02368164 0.18359375 -0.12060547 -0.17285156 -0.18652344 -0.24023438 0.09277344 0.16015625 0.25585938 0.06933594 -0.15527344 -0.15722656 -0.3046875 -0.06225586 0.123535156 0.27148438 -0.15917969 -0.04638672 0.19628906 -0.095703125 -0.03930664 0.013549805 0.015136719 0.007659912 0.125 -0.020019531 -0.27148438 -0.10498047 0.12792969 -0.03466797 -0.0099487305 -0.27734375 -0.0859375 0.2890625 0.072265625 -0.016601562 -0.19140625 -0.057373047 -0.25 -0.24511719 -0.14648438 -0.02734375 -0.104003906 0.28320312 0.012023926 0.1328125 -0.20800781 0.01965332 0.15429688 0.033691406 -0.16503906 0.044677734 -0.026489258 0.06640625 0.096191406 0.32617188 0.24707031 -0.072753906 0.09375 0.171875 0.13574219 0.19433594 0.106933594 0.107421875 0.19335938 -0.004119873 0.16210938 -0.16601562 -0.107910156 -0.029174805 0.067871094 0.035888672 -0.25 0.013061523 -0.13964844 -0.08691406 -0.06298828 -0.046875 -0.22363281 -0.061767578 -0.079589844 0.0002784729 -0.1875 0.079589844 -0.10253906 0.19824219 0.115722656 -0.061279297 0.03466797 -0.12451172 0.020751953 -0.3046875 0.0052490234 -0.31640625 -0.029418945 -0.13183594 0.22265625 0.22851562 0.23730469 -0.22363281 -0.16503906 0.08886719 -0.0059509277 0.029907227 0.22753906 0.24414062 -0.15234375 -0.03125 -0.21582031 -0.30273438 0.015319824 -0.45117188 0.13378906 0.13769531 -0.032470703 -0.01928711 -0.15039062 0.15429688 -0.140625 -0.140625 0.20898438 0.13183594 -0.1484375 0.07324219 -0.11279297 0.015136719 -0.3828125 -0.059326172 -0.020141602 0.111328125 0.08300781 -0.25585938
accomplished -0.14453125 0.2578125 -0.05517578 -0.00680542 -0.048339844 -0.115722656 0.118652344 0.040039062 0.22070312 0.044921875 0.083496094 -0.010681152 0.18652344 0.04272461 0.29296875 0.28515625 0.10888672 0.12597656 0.30859375 0.026367188 -0.15625 0.3671875 -0.06689453 -0.11328125 -0.0022277832 -0.045410156 0.14648438 -0.22753906 -0.28515625 0.18847656 0.19140625 -0.111328125 0.18066406 -0.05126953 0.23925781 0.041748047 0.052001953 -0.13476562 0.27929688 -0.015319824 0.17089844 0.27539062 0.110839844 0.22558594 -0.05102539 -0.0703125 -0.234375 0.029907227 0.15332031 -0.080566406 -0.09423828 -0.005004883 -0.11767578 -0.14746094 -0.021606445 0.042236328 -0.0063171387 -0.008239746 0.1015625 0.14941406 0.042236328 0.16992188 0.08154297 -0.27539062 -0.024291992 0.10107422 -0.18847656 0.11767578 -0.111816406 -0.06225586 0.14941406 0.01928711 -0.084472656 -0.092285156 -0.140625 -0.14355469 0.17871094 0.0018997192 0.019042969 -0.0052490234 -0.16796875 0.0034332275 0.08886719 0.060546875 0.026855469 -0.20507812 0.19433594 -0.06225586 0.24804688 0.23144531 -0.24414062 -0.17578125 -0.0054626465 -0.09033203 0.13183594 -0.3359375 0.043945312 0.15234375 -0.21386719 -0.25 -0.29882812 0.04272461 -0.21386719 -0.06640625 -0.068847656 -0.017211914 -0.024658203 -0.19628906 0.013244629 -0.25 0.07128906 -0.01586914 -0.032226562 0.234375 0.008728027 0.19628906 -0.07128906 -0.15136719 0.25 -0.3828125 -0.15722656 0.17382812 0.27734375 0.09716797 -0.111816406 -0.014831543 0.008911133 -0.072265625 -0.03881836 0.36132812 -0.15429688 -0.045410156 -0.041259766 0.17480469 0.115722656 0.1015625 -0.23632812 0.106933594 -0.08105469 0.24707031 -0.14550781 0.0005187988 -0.13085938 -0.009277344 0.21875 0.034423828 -0.10986328 -0.079589844 0.08544922 -0.1328125 -0.027954102 0.25390625 -0.17578125 0.27539062 -0.053955078 0.11328125 -0.023803711 -0.22167969 -0.06738281 -0.15039062 -0.033691406 0.39648438 0.026000977 0.049560547 0.032714844 -0.53515625 -0.32226562 -0.14355469 -0.0087890625 0.21777344 -0.119140625 -0.29882812 -0.21777344 -0.26757812 0.15917969 0.091796875 0.106933594 0.06982422 0.08984375 -0.234375 -0.25585938 -0.17285156 0.088378906 0.25 -0.21484375 0.095703125 0.07128906 -0.171875 -0.16601562 0.12060547 -0.0078125 0.08544922 0.19726562 -0.10107422 -0.25390625 0.009399414 0.049072266 0.0625 0.16113281 -0.080078125 0.041503906 0.45898438 -0.018798828 0.018920898 -0.1640625 -0.004119873 -0.265625 -0.23828125 -0.13671875 -0.004486084 -0.11767578 0.21679688 0.0703125 0.107910156 -0.03173828 -0.1171875 -0.041259766 0.12792969 -0.005340576 -0.04345703 -0.037109375 -0.010986328 -0.06738281 0.2109375 0.32617188 -0.16015625 0.08886719 0.03955078 -0.016723633 -0.012512207 0.038330078 -0.021850586 -0.011657715 0.040527344 -0.09765625 -0.076171875 0.028808594 -0.068847656 0.01928711 -0.045898438 -0.13671875 0.047851562 -0.0546875 -0.091796875 -0.18457031 -0.045410156 -0.021240234 -0.17773438 0.02758789 -0.19042969 -0.053710938 -0.025634766 0.016113281 0.3671875 0.13476562 -0.11035156 0.14160156 -0.17089844 -0.06542969 -0.27539062 -0.06982422 -0.23046875 0.08300781 -0.07714844 0.1484375 0.21484375 0.061767578 -0.18359375 -0.084472656 -0.016845703 0.14355469 -0.18945312 -0.05859375 0.16113281 -0.0048217773 0.035888672 -0.08203125 -0.12988281 0.0017700195 -0.26757812 0.1796875 0.203125 -0.13769531 0.08105469 -0.041015625 0.055419922 -0.099609375 -0.014953613 0.16601562 0.080078125 -0.019897461 -0.07421875 -0.07861328 0.0014343262 -0.38671875 0.025146484 0.03515625 -0.0072021484 0.0013961792 -0.052490234
achieve -0.22753906 0.060546875 -0.1171875 0.056640625 0.096191406 -0.03857422 0.25195312 0.017822266 0.18066406 0.083496094 -0.390625 -0.014099121 0.16992188 0.36523438 0.10205078 0.17480469 -0.15527344 0.14941406 0.115722656 0.08984375 -0.07861328 0.16113281 0.025512695 -0.0234375 0.16210938 0.09472656 -0.15917969 -0.36523438 0.20800781 0.009094238 0.07763672 -0.18066406 -0.16992188 0.0625 -0.20800781 -0.036132812 0.024291992 0.03515625 0.30664062 0.06738281 0.17480469 0.27148438 -0.15820312 0.21191406 -0.1953125 -0.28125 -0.1953125 -0.009338379 0.013916016 0.087890625 -0.056884766 0.15136719 -0.080566406 -0.05834961 0.16210938 -0.0011291504 -0.14746094 -0.28710938 -0.19921875 -0.037109375 -0.11035156 0.11279297 -0.021850586 -0.083496094 -0.016357422 0.38867188 0.09277344 0.13671875 0.15136719 0.23730469 -0.22363281 0.18945312 0.0146484375 -0.010986328 0.06933594 -0.28125 0.14453125 -0.0058898926 -0.052246094 0.048583984 -0.055908203 -0.08935547 -0.087890625 0.20019531 0.23925781 -0.004333496 0.05834961 -0.068359375 -0.09863281 0.099121094 0.08203125 -0.28125 -0.088378906 -0.03881836 0.05053711 -0.35546875 0.123535156 0.05859375 0.044677734 0.060546875 -0.10107422 -0.021118164 -0.07373047 0.06689453 -0.106933594 0.0039978027 -0.25 -0.087402344 0.1328125 -0.11376953 0.16601562 -0.034423828 -0.27929688 0.1796875 -0.04638672 0.13671875 -0.020996094 -0.15332031 0.125 -0.17382812 0.19824219 0.15234375 0.17871094 0.0126953125 -0.17089844 0.09277344 0.024414062 -0.072265625 0.12792969 0.21972656 0.13183594 -0.000541687 0.052734375 -0.13867188 0.26953125 0.203125 -0.056396484 0.18847656 -0.016357422 0.203125 0.03881836 -0.12792969 -0.234375 0.12158203 0.14941406 -0.010864258 -0.20605469 -0.38476562 -0.01586914 0.059570312 0.061279297 0.24023438 0.024658203 0.24511719 0.071777344 0.06933594 0.025756836 0.11376953 -0.16113281 -0.15722656 0.0073547363 0.008911133 -0.04711914 0.021728516 0.012756348 -0.18261719 -0.27734375 -0.10107422 -0.05102539 0.1484375 -0.26757812 -0.1796875 -0.18261719 -0.14355469 -0.007537842 -0.04272461 0.37109375 0.011169434 -0.1640625 0.03540039 -0.22363281 -0.15722656 0.16113281 0.203125 -0.3125 -0.22070312 0.091308594 -0.11035156 0.087890625 0.08251953 -0.041748047 -0.11328125 -0.0045776367 -0.080566406 -0.08203125 -0.099121094 0.111328125 -0.04345703 0.00020885468 -0.26953125 0.063964844 0.1875 0.040771484 -0.0703125 -0.1484375 -0.19042969 -0.36914062 -0.11669922 -0.12792969 -0.029907227 -0.048828125 0.21972656 0.008239746 0.29882812 -0.23242188 -0.030029297 0.10498047 -0.046875 -0.05859375 0.15722656 -0.03857422 0.046142578 0.19433594 0.37695312 0.12207031 -0.006866455 0.09033203 0.002822876 0.046142578 0.037597656 0.203125 0.007537842 0.28125 0.03955078 0.17675781 -0.019042969 -0.17382812 0.2109375 0.16796875 0.031982422 -0.22167969 -0.061523438 -0.063964844 0.071777344 0.011230469 -0.09423828 -0.22558594 0.13183594 -0.22265625 0.048339844 -0.12597656 -0.0036773682 -0.053955078 0.18261719 0.123046875 0.067871094 -0.009216309 0.019042969 -0.0703125 0.0075683594 0.07763672 -0.26367188 0.026855469 0.015991211 0.25976562 0.080078125 0.09082031 -0.3203125 -0.103027344 -0.13964844 -0.10839844 0.020263672 0.12597656 0.091796875 -0.23828125 0.015625 -0.24902344 -0.110839844 -0.14648438 -0.2265625 0.0703125 0.19433594 -0.12988281 -0.07373047 -0.09326172 0.11230469 -0.08642578 0.014038086 0.06542969 0.203125 -0.09423828 0.35351562 -0.125 -0.0859375 -0.5078125 -0.15527344 -0.002609253 0.068359375 0.13671875 -0.22265625
achievement -0.15625 0.014892578 0.17675781 0.03173828 0.31054688 -0.119628906 0.13574219 -0.10449219 0.40039062 0.23535156 -0.25585938 -0.057128906 0.25195312 -0.021484375 0.067871094 0.25585938 0.036621094 0.08886719 0.07714844 -0.15917969 -0.12158203 0.049072266 -0.1640625 -0.032226562 0.21875 -0.20605469 -0.08544922 -0.30273438 -0.13964844 0.24804688 -0.057617188 -0.36523438 0.31835938 -0.114746094 0.13574219 -0.0016021729 0.12158203 0.36132812 0.28515625 0.06640625 0.09814453 0.34375 -0.051757812 0.2578125 0.14941406 -0.13085938 -0.15527344 0.17675781 -0.19824219 -0.053710938 -0.16601562 0.09814453 0.13476562 0.029052734 0.34570312 0.06347656 -0.059326172 -0.104003906 -0.10546875 0.07324219 -0.084472656 0.22070312 0.0703125 -0.60546875 -0.057373047 0.17871094 -0.037353516 0.06591797 -0.10986328 -0.023071289 -0.34960938 -0.31835938 -0.16210938 -0.19335938 0.171875 -0.008544922 0.14941406 0.17773438 0.056884766 0.13574219 -0.0050964355 -0.110839844 -0.0032043457 0.13671875 0.17773438 -0.1875 0.048828125 -0.11425781 -0.036132812 0.017333984 0.19433594 -0.103027344 -0.18164062 -0.018066406 0.14453125 -0.123046875 0.024902344 0.36523438 -0.0045166016 -0.10107422 -0.018310547 0.016967773 -0.049804688 0.021850586 0.025634766 -0.033935547 -0.008544922 -0.007873535 0.034179688 -0.13183594 0.029418945 0.15722656 -0.10888672 0.13671875 -0.091308594 -0.05517578 -0.265625 -0.23730469 -0.09423828 -0.171875 -0.037109375 0.25 0.19042969 -0.0703125 -0.13378906 0.08203125 -0.09667969 0.11279297 -0.063964844 0.35546875 0.07519531 -0.044433594 -0.05078125 -0.07373047 -0.099121094 0.25195312 0.07763672 0.037597656 -0.23828125 0.24121094 -0.032958984 -0.24121094 -0.23828125 0.024291992 -0.111328125 -0.038085938 -0.080078125 -0.026489258 0.14550781 -0.04296875 0.010009766 0.27929688 -0.15429688 0.09375 0.04736328 -0.10205078 -0.010437012 -0.22460938 -0.20605469 -0.30859375 -0.084472656 -0.123535156 0.1875 0.3125 -0.057128906 -0.31640625 0.013305664 -0.41015625 -0.041748047 0.5 -0.03515625 -0.13964844 -0.080566406 -0.32617188 0.14355469 0.115234375 -0.0058288574 -0.2265625 0.1015625 0.05029297 -0.33007812 -0.14648438 0.026123047 0.02722168 0.12207031 0.08203125 -0.1640625 0.12597656 0.06347656 0.29101562 -0.09716797 -0.17480469 0.03515625 -0.11767578 -0.19433594 -0.03881836 0.27734375 0.203125 0.1484375 -0.09423828 0.029663086 0.17675781 -0.016967773 -0.17480469 0.114746094 -0.16601562 -0.15234375 0.02758789 -0.10644531 -0.011108398 -0.04711914 0.1171875 -0.24414062 -0.0012817383 -0.1328125 0.119140625 0.15527344 -0.004333496 0.060546875 0.19726562 -0.104003906 -0.10205078 -0.01928711 0.15332031 -0.1796875 0.15917969 0.20800781 -0.079589844 -0.019165039 0.028442383 0.0625 0.15332031 -0.05126953 -0.08300781 0.10595703 -0.12695312 -0.031982422 0.04638672 0.34179688 -0.008239746 0.013977051 -0.24511719 0.06201172 -0.063964844 -0.19921875 -0.13964844 -0.05517578 -0.10498047 -0.10595703 -0.028930664 -0.064941406 -0.15429688 -0.04711914 0.30078125 0.06640625 0.119140625 0.16015625 0.005706787 -0.2265625 0.16503906 0.125 0.09033203 0.03491211 0.084472656 0.15820312 0.08984375 0.17773438 -0.024291992 -0.16601562 -0.16894531 -0.0061035156 -0.17578125 0.13378906 0.13378906 0.018920898 0.049072266 0.15234375 -0.25 -0.28515625 -0.359375 0.09716797 0.011413574 -0.1484375 0.095214844 -0.35351562 0.22070312 -0.12695312 0.091796875 0.05517578 0.03125 -0.20996094 0.03466797 -0.42773438 -0.16992188 -0.2421875 0.053955078 0.087890625 0.29296875 -0.0008125305 -0.11328125
acrobat 0.35742188 -0.17871094 -0.025268555 0.35351562 -0.022705078 0.23925781 0.29101562 0.15429688 -0.100097656 -0.10986328 -0.049560547 -0.5703125 -0.12988281 -0.515625 -0.31835938 0.3984375 -0.036621094 0.1484375 -0.013366699 -0.07080078 0.028076172 -0.045166016 -0.067871094 0.052001953 -0.23242188 -0.28710938 -0.25390625 0.546875 0.031982422 -0.08691406 -0.10498047 -0.060791016 0.19140625 0.029785156 0.37304688 -0.06298828 0.033691406 0.24121094 0.33984375 -0.107421875 -0.38671875 0.203125 0.640625 0.119628906 0.083496094 0.03173828 -0.24511719 -0.12011719 0.014770508 0.0013198853 -0.18457031 -0.068847656 -0.022827148 0.024047852 -0.1796875 -0.06298828 -0.071777344 -0.16601562 -0.39257812 0.14453125 0.48828125 0.107910156 -0.16699219 -0.031982422 -0.16113281 -0.1953125 -0.16308594 0.18554688 -0.10839844 0.0703125 0.12158203 -0.111328125 -0.29101562 -0.11669922 -0.16503906 0.21582031 -0.04638672 -0.18066406 -0.09423828 -0.16113281 -0.07128906 0.359375 0.122558594 -0.09277344 -0.061035156 0.092285156 -0.01550293 -0.08496094 -0.10546875 -0.22460938 -0.328125 0.12890625 -0.49609375 0.06689453 0.13183594 -0.13476562 -0.22558594 -0.17675781 0.078125 -0.1640625 -0.18457031 -0.35742188 -0.016357422 -0.24902344 -0.27734375 0.30273438 0.032958984 -0.3671875 0.03930664 -0.19335938 -0.13867188 0.104003906 -0.07324219 -0.14746094 -0.48242188 -0.13671875 -0.21289062 -0.30078125 0.10107422 -0.022460938 -0.037841797 -0.24023438 0.015075684 -0.05419922 0.0859375 -0.28515625 -0.119628906 0.0053100586 0.15429688 -0.021240234 -0.15332031 0.25976562 -0.087402344 0.18554688 -0.026611328 0.013061523 -0.33398438 -0.45507812 -0.19238281 0.072753906 0.21191406 -0.3984375 -0.5390625 0.5 0.25195312 0.14941406 0.32421875 0.578125 0.011352539 -0.009338379 0.03173828 0.049560547 0.048828125 0.052490234 -0.26171875 -0.008178711 0.17578125 0.38671875 -0.08251953 -0.39453125 0.24511719 0.18652344 0.28710938 -0.048339844 -0.041992188 -0.095703125 0.12890625 0.014038086 -0.41992188 -0.20410156 -0.43554688 -0.28125 -0.33984375 0.12402344 0.080566406 0.43164062 0.34960938 -0.031982422 0.6328125 -0.28125 -0.14160156 -0.09326172 -0.19921875 -0.22363281 0.33398438 0.091796875 0.15722656 -0.3515625 0.14941406 -0.21972656 -0.008178711 0.06591797 -0.06738281 0.27539062 0.17285156 0.044677734 -0.20019531 -0.2109375 0.0049743652 -0.35546875 0.12402344 -0.08544922 -0.087402344 -0.103515625 0.18164062 -0.20703125 -0.12207031 -0.22851562 -0.30078125 0.35546875 -0.38476562 -0.34765625 -0.37304688 -0.17285156 -0.5859375 -0.2578125 -0.20996094 0.107421875 0.13183594 -0.17773438 -0.028320312 -0.16601562 0.10253906 -0.056640625 0.18847656 0.23339844 0.36523438 0.061767578 0.27148438 -0.40039062 0.047851562 -0.1875 -0.07080078 -0.14453125 -0.40234375 0.01361084 0.080566406 -0.19726562 -0.13183594 -0.057617188 -0.515625 0.24414062 -0.025268555 -0.18652344 0.103027344 -0.008483887 -0.68359375 -0.0107421875 0.091308594 -0.07324219 -0.20898438 -0.087402344 0.030639648 0.28710938 -0.08251953 -0.25 -0.30078125 -0.064941406 0.19726562 0.03955078 0.0035552979 0.1796875 0.6640625 -0.46875 0.03857422 0.22070312 0.0027923584 0.20605469 -0.19140625 0.055419922 -0.021972656 -0.076660156 -0.27539062 -0.088378906 0.064941406 -0.067871094 -0.25585938 -0.100097656 -0.22363281 0.33984375 -0.075683594 0.20117188 0.110839844 -0.09667969 0.12792969 -0.3125 0.00340271 0.24316406 0.33984375 0.084472656 -0.05102539 0.13964844 -0.24902344 -0.10107422 0.10986328 0.2421875 0.15722656 0.12792969 -0.29492188 -0.052001953
admirable 0.07861328 0.11816406 -0.11669922 0.12158203 0.083984375 0.12597656 0.30859375 0.16015625 -0.048583984 0.17382812 -0.11035156 -0.265625 0.15917969 -0.016601562 0.016357422 0.31835938 0.25976562 0.16503906 -0.071777344 0.049072266 0.02355957 0.08203125 -0.017578125 -0.06640625 0.06298828 -0.024780273 -0.11816406 0.1484375 -0.026489258 0.056396484 0.05078125 0.0099487305 0.13476562 0.37304688 0.15429688 0.07910156 0.08105469 0.15527344 -0.0050354004 0.12597656 0.34765625 0.056152344 -0.061279297 0.0022735596 -0.111816406 0.072265625 -0.14550781 0.0859375 0.26953125 -0.1015625 0.13085938 0.079589844 -0.13574219 -0.004058838 0.060791016 0.18164062 -0.13085938 -0.14257812 -0.111816406 0.015991211 0.08154297 0.26953125 -0.13964844 -0.33789062 0.045654297 0.014282227 -0.039794922 -0.13476562 -0.18847656 0.14550781 -0.11669922 0.0063171387 -0.009033203 -0.05908203 -0.034423828 -0.16503906 -0.05444336 0.044921875 0.34179688 -0.05419922 -0.21484375 0.038330078 -0.25585938 -0.13183594 -0.10546875 0.11816406 0.0057373047 0.08496094 -0.045410156 0.047607422 0.0024108887 -0.11279297 0.064941406 0.087890625 0.20800781 -0.07080078 -0.09423828 0.15039062 -0.34570312 -0.080078125 -0.15429688 0.16992188 -0.076660156 -0.07763672 -0.09765625 0.028320312 0.106933594 -0.026367188 0.080566406 -0.083496094 -0.06591797 -0.055664062 -0.2734375 0.265625 0.12451172 -0.15039062 0.06689453 -0.18359375 0.125 0.125 -0.08300781 0.10986328 0.17480469 0.14453125 -0.39257812 -0.123535156 -0.16015625 -0.07470703 0.08886719 0.11816406 -0.16894531 -0.33007812 -0.011230469 0.26171875 0.0028076172 0.123046875 -0.21777344 -0.056884766 -0.18554688 0.107421875 -0.07910156 0.022216797 -0.09716797 0.107910156 -0.15625 0.08642578 -0.13671875 0.07128906 0.16308594 -0.14160156 0.076660156 0.06738281 0.083496094 0.34570312 -0.118652344 0.088378906 0.14746094 -0.17578125 0.040283203 -0.09716797 0.080566406 0.12109375 0.15332031 0.021850586 0.27148438 -0.34570312 -0.03149414 -0.08496094 -0.16601562 -0.09423828 0.13183594 -0.12402344 -0.091308594 -0.00061416626 -0.16210938 0.106933594 0.0046691895 -0.12597656 0.016601562 -0.36132812 -0.30859375 -0.20507812 -0.076171875 -0.07128906 -0.10986328 0.13085938 -0.18164062 -0.23242188 -0.28320312 -0.045898438 -0.33203125 0.23925781 0.17480469 -0.068359375 -0.17480469 -0.23535156 0.03857422 -0.072265625 0.045410156 0.16699219 -0.06982422 0.17773438 -0.064453125 0.010620117 0.15820312 0.07861328 -0.42773438 0.05053711 0.011230469 0.016235352 -0.10986328 0.019042969 -0.20507812 0.052978516 -0.26171875 -0.0625 0.16210938 0.07128906 -0.051757812 0.04272461 -0.17675781 0.0625 -0.09033203 0.06933594 0.22070312 0.17675781 0.08251953 -0.18261719 0.16894531 0.13574219 0.053466797 0.09716797 0.17480469 0.15820312 0.21289062 -0.099609375 0.051513672 -0.18554688 0.026489258 -0.059326172 -0.12792969 0.044677734 0.27539062 -0.08300781 -0.0625 0.103027344 0.0048217773 -0.11816406 -0.26171875 -0.20898438 -0.24121094 0.15429688 -0.16308594 0.17773438 0.24023438 -0.36914062 0.087402344 0.053955078 0.0030975342 -0.025634766 0.19628906 0.099609375 0.10986328 0.11621094 0.12109375 0.118652344 -0.104003906 -0.3671875 -0.09667969 -0.08251953 -0.13476562 0.056884766 0.052978516 -0.14550781 -0.01586914 -0.076660156 0.055664062 -0.01171875 -0.022094727 0.091796875 0.19238281 -0.16210938 -0.011962891 -0.052490234 -0.0703125 0.2265625 -0.13085938 -0.0008010864 0.20703125 -0.047607422 0.02709961 -0.10595703 -0.12988281 0.115234375 -0.44140625 -0.05908203 0.13183594 0.012145996 -0.11328125 0.19140625
admiration 0.18164062 0.10107422 0.11767578 0.23828125 0.13867188 -0.12890625 0.013549805 -0.40820312 0.32421875 -0.022705078 -0.11376953 -0.0063476562 0.36523438 0.17578125 -0.0058288574 0.19042969 0.20703125 0.5390625 -0.17285156 0.006011963 -0.04296875 0.10253906 0.080566406 -0.084472656 0.125 -0.34179688 0.043701172 0.02746582 0.017333984 0.08203125 -0.079589844 0.09375 -0.021240234 0.020263672 0.41601562 0.072265625 0.4140625 0.29492188 -0.14648438 0.087890625 0.26953125 -0.15332031 -0.15234375 -0.022094727 -0.125 -0.23730469 -0.025756836 -0.13085938 -0.19335938 0.104003906 -0.087890625 0.072265625 -0.078125 0.08496094 -0.16210938 0.14257812 -0.021850586 0.04736328 -0.018432617 0.06982422 -0.11425781 0.25976562 0.11621094 -0.12695312 -0.17285156 0.16699219 -0.46289062 -0.05078125 -0.25195312 0.010559082 0.012023926 -0.060302734 0.11279297 0.022460938 -0.044677734 -0.20800781 -0.09716797 -0.037841797 0.22167969 0.26367188 -0.1484375 0.1484375 -0.20214844 -0.055664062 -0.064941406 -0.16113281 -0.10107422 0.009460449 -0.13964844 -0.12451172 -0.17773438 0.026123047 -0.17675781 0.22851562 0.0033111572 -0.18652344 -0.29882812 0.010620117 0.10253906 -0.11816406 -0.22558594 -0.050048828 0.033447266 0.053955078 0.33007812 0.19726562 -0.03112793 0.07910156 0.0625 -0.11767578 -0.13671875 0.15917969 -0.39648438 0.23535156 0.11035156 -0.19921875 -0.3046875 -0.23828125 -0.040039062 0.059570312 -0.24511719 -0.08251953 -0.052734375 -0.017089844 -0.21289062 -0.1328125 0.12988281 0.119140625 -0.04711914 0.115234375 -0.29101562 -0.09863281 -0.068847656 0.21191406 0.13183594 0.076171875 -0.09667969 0.20019531 -0.08935547 0.13574219 -0.10253906 0.18457031 -0.359375 -0.014282227 -0.091308594 0.14550781 -0.099121094 0.171875 0.036621094 -0.23144531 0.2578125 0.30664062 0.2109375 0.24023438 -0.07324219 0.049316406 -0.033447266 -0.06689453 -0.008666992 -0.41992188 0.21191406 0.18554688 0.115722656 0.18945312 -0.056152344 -0.37304688 -0.1328125 -0.028808594 -0.13769531 0.27539062 0.31835938 0.17089844 -0.17089844 0.002670288 -0.123046875 -0.12158203 -0.19628906 -0.23339844 0.068359375 -0.51953125 -0.31054688 -0.071777344 0.23730469 -0.15332031 -0.023071289 -0.29492188 0.0546875 -0.42578125 -0.011474609 0.31640625 0.014343262 0.17382812 0.30664062 0.16699219 -0.13671875 0.005004883 0.15820312 0.31054688 -0.100097656 0.064941406 -0.28125 0.15722656 -0.04272461 -0.14453125 0.11621094 -0.06591797 -0.26171875 0.3125 -0.025146484 0.27148438 0.03173828 -0.091308594 0.075683594 -0.111816406 -0.07763672 -0.099609375 -0.21582031 0.31640625 -0.08203125 -0.033447266 -0.036132812 -0.04272461 -0.19140625 -0.04663086 -0.19824219 -0.22753906 -0.006225586 -0.19824219 0.46289062 -0.21191406 -0.036621094 -0.16113281 0.20605469 0.27929688 0.41992188 -0.088378906 0.032226562 -0.09375 0.1875 0.080078125 -0.008300781 -0.21777344 -0.06542969 0.31640625 -0.061523438 0.23046875 0.20117188 -0.1484375 -0.07373047 0.15429688 0.23535156 0.26367188 0.14550781 0.171875 -0.10839844 0.07519531 0.008911133 -0.006378174 -0.30078125 0.053710938 -0.071777344 0.080078125 -0.29296875 0.484375 -0.09375 0.016113281 0.13183594 0.01940918 0.123535156 -0.027954102 -0.075683594 -0.140625 0.10498047 -0.091796875 0.19433594 0.17675781 -0.21582031 0.080078125 -0.20605469 -0.15332031 0.14257812 0.12695312 -0.018310547 0.18261719 0.15429688 -0.071777344 -0.15527344 0.3359375 -0.056640625 0.07128906 -0.26953125 -0.16796875 -0.22460938 -0.27929688 -0.09082031 -0.29101562 0.16015625 -0.028564453 -0.20410156 0.19042969
adorable 0.009338379 0.032958984 -0.32421875 0.16503906 -0.171875 0.008178711 0.34765625 -0.1484375 -0.110839844 0.23925781 -0.1015625 -0.14160156 -0.048095703 -0.064453125 -0.30664062 0.048339844 -0.038085938 0.052001953 -0.3984375 0.234375 -0.04663086 -0.048828125 0.17773438 0.11035156 -0.056884766 -0.06591797 -0.06542969 0.06738281 0.22265625 -0.6484375 -0.122558594 -0.06738281 0.14746094 0.21191406 -0.07519531 -0.029052734 0.265625 -0.022705078 -0.29296875 0.17480469 0.10449219 -0.07519531 0.1640625 0.16796875 0.20800781 -0.12792969 0.03881836 0.23828125 0.001373291 -0.17675781 0.020141602 0.007873535 0.08544922 0.068847656 0.09326172 0.06201172 0.10058594 -0.23925781 -0.07421875 0.021972656 -0.025146484 -0.01953125 -0.07470703 -0.19628906 0.09082031 -0.0007171631 -0.28320312 0.087402344 -0.24707031 0.39453125 0.5078125 0.24121094 -0.39257812 0.24316406 -0.13769531 0.3125 -0.119628906 -0.025512695 0.22167969 0.20507812 -0.22070312 0.05102539 -0.13769531 -0.11767578 -0.19433594 0.088378906 0.053466797 0.30859375 -0.0023345947 -0.021240234 -0.16699219 -0.06640625 -0.24804688 0.18359375 -0.15527344 0.009887695 0.06591797 0.014892578 -0.106933594 -0.11816406 -0.14550781 0.0074768066 0.060546875 -0.04711914 -0.06738281 -0.048095703 0.060546875 -0.08105469 0.0625 -0.0095825195 -0.024902344 -0.19042969 0.012878418 0.140625 0.044433594 -0.16210938 0.064941406 -0.29882812 0.0037231445 -0.38671875 0.09667969 -0.29101562 -0.11376953 -0.27148438 -0.030029297 0.23535156 -0.25390625 0.15527344 0.16210938 0.04272461 -0.23144531 0.044189453 -0.026611328 0.54296875 -0.10546875 0.2421875 -0.010803223 -0.0625 0.034179688 -0.0005493164 0.26953125 0.029907227 0.140625 0.038085938 -0.13378906 0.11328125 -0.022705078 0.21289062 -0.27734375 -0.36328125 0.032226562 -0.091308594 -0.09472656 0.041748047 -0.24316406 -0.18847656 0.067871094 0.033447266 -0.17089844 0.11621094 -0.18359375 0.16113281 0.47460938 0.40039062 -0.091308594 -0.2578125 0.33398438 -0.059326172 -0.18164062 0.32421875 0.15722656 -0.064941406 0.10498047 0.28710938 -0.036865234 0.171875 0.055664062 0.025268555 -0.07910156 0.080566406 -0.20800781 -0.23046875 -0.041992188 -0.06738281 0.016479492 0.2109375 -0.31054688 -0.1875 -0.10888672 0.17773438 -0.109375 -0.0134887695 0.109375 -0.24023438 0.04736328 0.49414062 -0.019042969 -0.359375 -0.07763672 0.03515625 -0.30078125 -0.080566406 -0.095214844 -0.18359375 0.10986328 -0.13183594 -0.076660156 0.009094238 -0.12792969 0.09277344 -0.42578125 0.16308594 -0.025634766 0.038085938 0.016967773 0.21679688 0.15039062 -0.2734375 -0.11621094 -0.075683594 -0.015319824 0.71875 -0.05419922 0.00010442734 -0.042236328 0.15820312 0.08203125 -0.1875 -0.13964844 -0.16503906 -0.018676758 0.026977539 0.00970459 0.02368164 0.421875 0.24511719 0.15917969 -0.3125 0.30664062 0.30078125 -0.16992188 0.3203125 -0.16308594 0.08496094 -0.15625 0.44335938 -0.16308594 -0.0038909912 0.026489258 -0.3359375 -0.23242188 -0.10449219 0.31835938 0.40429688 -0.15722656 -0.18164062 -0.008422852 -0.1328125 -0.3359375 -0.44726562 -0.11279297 0.088378906 0.103515625 -0.083984375 0.125 0.009643555 -0.2578125 -0.118652344 -0.32421875 0.15820312 -0.013427734 0.30078125 -0.057861328 0.359375 0.20898438 -0.16308594 0.064941406 0.2265625 0.11669922 -0.10058594 0.095703125 0.024658203 -0.2421875 0.25390625 0.19726562 0.06689453 -0.29882812 -0.017333984 0.12597656 -0.020996094 -0.07421875 0.111816406 -0.041748047 -0.33398438 -0.036376953 0.11376953 0.20214844 -0.11376953 -0.048583984 0.34375
adoration 0.34960938 0.036376953 0.010681152 0.23632812 0.0078125 -0.0069274902 0.09375 -0.546875 0.19824219 0.001411438 -0.22265625 0.05444336 0.32226562 0.296875 -0.18554688 0.14746094 0.055908203 0.39453125 -0.024658203 0.009460449 0.15234375 -0.051757812 0.005859375 -0.18554688 0.091308594 -0.46875 -0.19628906 0.33984375 0.15625 -0.099121094 -0.010009766 -0.02758789 -0.13867188 0.03149414 -0.0095825195 -0.06982422 0.49804688 -0.00088882446 0.044677734 0.06640625 0.18457031 -0.13671875 0.10253906 -0.19042969 -0.11279297 -0.37695312 0.22558594 0.125 -0.14355469 0.06591797 -0.020874023 0.123046875 -0.26367188 0.11328125 -0.22070312 0.37109375 -0.12060547 0.036621094 -0.20898438 -0.023071289 -0.0390625 0.19726562 0.15625 -0.25390625 0.0052490234 -0.0390625 -0.5703125 -0.032470703 -0.19433594 0.08984375 0.20117188 -0.119628906 0.053222656 0.26367188 -0.045654297 -0.003768921 -0.19824219 -0.05810547 0.3515625 0.19628906 -0.11328125 0.20019531 -0.018554688 -0.13378906 -0.19628906 0.037841797 0.12988281 0.009338379 0.052001953 -0.140625 -0.28320312 -0.02758789 -0.26757812 0.15039062 -0.020263672 0.10253906 0.095703125 -0.040283203 -0.014160156 -0.037109375 -0.11279297 0.14550781 0.17089844 -0.20410156 0.06591797 -0.060546875 -0.14257812 0.07373047 0.014343262 0.041992188 -0.018798828 0.16992188 -0.05493164 0.2421875 0.21289062 0.018066406 -0.22460938 -0.15234375 0.04663086 0.0859375 0.033935547 -0.16796875 0.07324219 -0.296875 -0.015563965 -0.140625 0.22851562 0.084472656 0.0045166016 -0.044433594 -0.30273438 0.03515625 0.14941406 0.018554688 0.09082031 0.14550781 0.06591797 -0.11767578 0.076171875 0.18164062 -0.029907227 0.10986328 -0.15136719 -0.19628906 0.033935547 0.09277344 0.1484375 0.109375 -0.17773438 -0.1796875 0.16308594 0.20800781 0.13183594 0.2421875 -0.13574219 -0.103027344 0.008850098 -0.1171875 0.03881836 -0.34375 -0.04638672 0.048828125 -0.14453125 0.38671875 -0.26171875 -0.15429688 0.030517578 0.123046875 -0.27929688 0.36132812 -0.020019531 -0.019165039 0.10986328 0.12597656 -0.29882812 0.030761719 -0.18652344 -0.26367188 0.087402344 -0.57421875 -0.29492188 0.13378906 0.13867188 -0.075683594 0.08886719 -0.122558594 -0.09667969 -0.4765625 0.15625 0.20800781 0.19726562 -0.0625 0.3125 0.036376953 -0.328125 0.10644531 -0.14746094 0.34179688 -0.1875 0.028686523 0.05493164 0.21484375 -0.011779785 -0.20605469 0.15820312 -0.110839844 -0.22753906 0.1796875 -0.028808594 0.17382812 -0.1484375 0.15722656 0.31640625 -0.203125 -0.17382812 -0.099121094 0.010864258 0.19140625 -0.18359375 -0.15136719 -0.21484375 -0.03930664 -0.04296875 -0.049560547 -0.010925293 -0.0061950684 -0.15136719 -0.15332031 0.40429688 -0.05102539 0.1640625 -0.09277344 -0.059814453 0.056396484 0.40234375 -0.22363281 0.04272461 -0.10644531 0.18261719 0.04248047 -0.04321289 -0.08984375 -0.0069885254 0.06689453 0.020141602 0.15136719 0.21582031 -0.14550781 0.088378906 0.01977539 0.20507812 -0.07128906 0.30664062 0.22949219 -0.34960938 0.13574219 -0.16113281 -0.22460938 -0.38476562 0.20214844 -0.06933594 -0.007873535 -0.26171875 0.39257812 -0.09814453 -0.008300781 0.19824219 0.14746094 0.12451172 -0.122558594 -0.28710938 0.10546875 0.19238281 0.028930664 0.0119018555 0.1484375 -0.37890625 0.15332031 0.07324219 0.01940918 0.080078125 -0.03466797 0.16992188 0.2109375 -0.014221191 -0.15820312 -0.056884766 0.057373047 -0.05859375 0.095703125 -0.021728516 -0.01184082 -0.099121094 -0.46679688 -0.010375977 -0.171875 0.25976562 -0.100097656 -0.22460938 0.14648438
adore 0.1328125 0.0013961792 0.20898438 0.25390625 -0.28710938 0.19140625 0.33203125 -0.41015625 -0.099609375 0.3515625 -0.06933594 -0.032470703 -0.030029297 -0.05078125 -0.13476562 0.31640625 0.049072266 0.24414062 -0.087402344 0.10595703 -0.036621094 -0.068359375 0.3203125 -0.13476562 0.28125 -0.115234375 0.0703125 0.061767578 -0.13378906 -0.28515625 0.15625 -0.016723633 -0.16992188 0.06738281 0.29492188 -0.1484375 0.18359375 -0.055908203 -0.103027344 0.33984375 0.28320312 -0.07519531 0.056396484 0.21875 -0.063964844 -0.33007812 0.053222656 0.06640625 0.007659912 -0.1953125 -0.35742188 0.115722656 -0.07421875 0.056396484 -0.033691406 0.08154297 0.06689453 -0.061279297 -0.06982422 0.010314941 0.20703125 0.18945312 -0.103515625 -0.110839844 0.16210938 -0.11376953 -0.46679688 0.046875 -0.114746094 0.33398438 0.37890625 0.036621094 -0.052978516 0.1484375 -0.084472656 -0.140625 -0.17675781 0.022827148 0.140625 0.375 -0.40039062 0.265625 0.16796875 -0.048339844 -0.22167969 -0.06982422 -0.17285156 0.107910156 0.030883789 -0.19726562 -0.123046875 0.06640625 -0.25195312 -0.02319336 -0.14160156 -0.099121094 0.029418945 -0.07080078 -0.13183594 -0.12109375 -0.27539062 0.12695312 0.23828125 0.049804688 0.09326172 0.014099121 0.14355469 0.049316406 0.14355469 -0.15527344 -0.20605469 0.12695312 0.061279297 0.18164062 0.4296875 -0.051757812 -0.109375 -0.25976562 0.045654297 -0.030395508 0.14550781 -0.0031738281 -0.010864258 0.049072266 0.029052734 -0.36523438 -0.23828125 -0.041503906 -0.122558594 0.10253906 -0.11230469 0.07714844 0.06298828 0.40820312 -0.04736328 0.08935547 -0.0021972656 0.09277344 0.23828125 -0.083496094 0.111816406 0.028686523 -0.072753906 -0.022705078 -0.010681152 0.1875 0.22070312 0.056396484 -0.14160156 -0.12109375 0.08203125 0.15527344 0.07763672 0.10449219 -0.06347656 -0.15722656 -0.2265625 0.12597656 -0.20898438 -0.08984375 0.103515625 0.07324219 -0.04345703 0.41601562 0.1796875 -0.18359375 0.107421875 -0.15527344 -0.28515625 0.22167969 -0.12890625 0.01940918 0.20117188 0.2890625 0.045166016 0.2265625 0.0703125 -0.036865234 -0.14746094 -0.10888672 -0.24316406 -0.16992188 0.13085938 -0.072753906 -0.052734375 -0.2734375 -0.07373047 -0.1015625 -0.10205078 -0.001914978 0.107910156 -0.068847656 0.16796875 -0.09667969 0.21289062 0.18652344 0.1640625 0.010803223 -0.026367188 -0.0062561035 -0.118652344 0.1875 -0.26953125 -0.08642578 0.10839844 -0.14355469 -0.012634277 0.23339844 0.0390625 0.022705078 -0.111816406 0.41601562 0.11669922 -0.12695312 -0.036132812 -0.045898438 0.115722656 -0.063964844 -0.20996094 -0.125 -0.15820312 0.21777344 -0.045898438 0.13867188 0.1015625 0.03881836 -0.14648438 -0.17675781 -0.06347656 -0.00030899048 -0.013671875 0.09033203 0.056152344 0.38085938 0.55078125 0.12695312 0.037597656 0.06933594 0.3671875 -0.11669922 -0.10986328 0.001914978 0.050048828 0.051513672 -0.28515625 0.25195312 0.2421875 -0.024780273 -0.25390625 -0.13183594 -0.0073242188 0.030029297 0.51171875 0.22558594 0.080078125 -0.12451172 -0.2890625 0.18359375 -0.22753906 -0.08691406 0.033935547 -0.079589844 -0.017944336 0.08642578 0.11816406 0.10888672 -0.18847656 -0.091796875 0.265625 0.044677734 -0.048583984 0.41015625 -0.044677734 0.16894531 0.16503906 -0.25585938 -0.17089844 0.0859375 -0.25585938 -0.1328125 0.20507812 0.16308594 -0.088378906 0.109375 0.2109375 -0.016357422 -0.31054688 0.22070312 -0.1328125 0.05444336 0.0546875 0.15820312 -0.060302734 -0.23730469 -0.1796875 -0.33789062 0.14746094 0.010498047 -0.0007095337 0.23339844
advance -0.099609375 -0.025756836 0.000333786 -0.068847656 -0.17382812 0.026123047 -0.25585938 -0.03112793 -0.049072266 -0.084472656 -0.234375 0.005340576 0.33398438 0.026733398 -0.064453125 -0.055664062 0.1875 -0.05883789 0.31054688 -0.12792969 -0.06542969 0.14550781 -0.16113281 -0.036132812 0.1328125 0.16113281 0.041748047 -0.25 -0.15039062 -0.087402344 0.008483887 -0.012451172 -0.20410156 -0.2890625 0.080078125 0.104003906 -0.016601562 -0.06542969 0.19433594 -0.047851562 0.07080078 0.021850586 0.080566406 -0.027832031 0.033935547 -0.18164062 -0.18359375 -0.12988281 -0.088378906 -0.06933594 0.13378906 0.21191406 0.053466797 0.034423828 -0.16503906 0.07763672 -0.038085938 -0.27929688 0.041503906 0.07519531 -0.12792969 -0.11376953 0.087402344 -0.12158203 -0.18847656 -0.16796875 -0.12451172 0.05102539 0.0134887695 0.29492188 -0.17480469 -0.064941406 0.25585938 0.107421875 0.04272461 0.11035156 0.13085938 -0.02355957 -0.11816406 0.2578125 -0.13867188 -0.09326172 -0.18359375 0.13671875 0.11376953 -0.14941406 -0.13183594 0.122558594 -0.083496094 0.32617188 0.122558594 -0.061279297 -0.047851562 -0.2578125 0.16992188 -0.29296875 0.034423828 0.0011520386 -0.3203125 -0.059326172 0.06298828 -0.26171875 0.16992188 -0.15039062 -0.095214844 -0.15917969 -0.21679688 -0.25976562 -0.022583008 0.16503906 0.056884766 -0.12792969 -0.14160156 -0.03466797 0.060546875 0.21972656 0.25390625 0.11328125 0.18066406 0.09765625 0.265625 -0.05859375 0.1875 0.16894531 -0.19238281 0.18359375 0.09277344 0.045654297 -0.006072998 0.091796875 0.056640625 -0.17871094 0.043945312 -0.046875 -0.09326172 -0.10644531 0.044189453 -0.12988281 -0.140625 0.10205078 0.115234375 -0.22363281 -0.265625 0.06982422 -0.011962891 -0.016845703 0.08544922 -0.12890625 -0.12597656 0.072753906 -0.091796875 -0.017578125 -0.051513672 -0.052001953 0.060302734 -0.04663086 -0.043701172 0.06640625 -0.12158203 0.1171875 -0.09033203 0.025756836 -0.1015625 -0.033203125 0.030639648 -0.27734375 0.0065307617 -0.02758789 0.028076172 0.017700195 0.048095703 -0.32421875 0.015014648 -0.15039062 -0.034423828 -0.068359375 0.024902344 0.038085938 0.011230469 0.08203125 -0.28515625 -0.19726562 0.0017700195 -0.076171875 -0.024658203 -0.10839844 0.036621094 0.087890625 -0.0087890625 0.16015625 0.13085938 0.048095703 -0.008972168 -0.01953125 -0.15820312 -0.115234375 0.15136719 0.010192871 -0.18359375 -0.28125 -0.0003299713 0.033935547 0.020263672 0.12890625 -0.084472656 -0.38085938 0.15820312 -0.07519531 -0.004272461 0.0036773682 0.011779785 0.100097656 0.012084961 0.24902344 -0.16015625 0.16796875 0.14941406 0.07714844 -0.033935547 -0.084472656 -0.020263672 -0.091308594 0.22363281 -0.114746094 0.060058594 0.0019683838 0.19238281 0.071777344 0.07519531 0.018066406 0.23730469 -0.024902344 0.079589844 0.057128906 0.01373291 -0.021118164 0.07470703 0.083496094 0.040771484 -0.31445312 0.12207031 0.24804688 0.092285156 -0.003479004 0.07861328 0.05126953 -0.06591797 0.03173828 -0.095214844 0.1171875 0.095214844 0.002243042 -0.14355469 -0.04638672 -0.0703125 0.029907227 0.23046875 -0.05078125 -0.14453125 -0.14941406 -0.041748047 0.045654297 -0.20214844 0.045166016 0.17480469 0.119140625 0.17382812 -0.09765625 -0.03540039 -0.21777344 0.025146484 0.26757812 -0.17578125 0.11328125 0.25976562 -0.092285156 -0.13769531 -0.12109375 0.13574219 0.15429688 0.29101562 -0.125 0.11279297 0.15722656 -0.028930664 0.10546875 -0.040039062 0.029541016 -0.111816406 0.08300781 -0.087402344 -0.20605469 -0.21484375 0.044433594 0.021240234 -0.035888672 -0.21777344 -0.032714844 0.041992188 0.008483887
advent 0.09082031 0.09326172 -0.25 0.071777344 -0.071777344 -0.31054688 -0.33007812 -0.5 -0.016845703 0.33398438 -0.13574219 -0.40625 -0.21386719 -0.115722656 0.05419922 -0.020751953 0.23339844 -0.09326172 0.32226562 -0.107910156 0.005554199 0.075683594 0.20019531 0.064453125 -0.03125 0.26367188 -0.05517578 -0.03466797 0.12792969 -0.05859375 -0.13964844 -0.028442383 0.13964844 -0.049316406 0.12988281 0.20898438 -0.0008163452 -0.31445312 0.30664062 -0.057617188 0.21582031 0.13671875 0.34570312 0.052978516 0.27734375 -0.15332031 -0.28710938 0.29101562 -0.14746094 0.024047852 -0.10888672 -0.3125 -0.296875 -0.52734375 0.15039062 0.44335938 0.13574219 -0.17089844 0.008666992 -0.15917969 -0.21679688 0.034179688 -0.11230469 0.095214844 0.13769531 -0.046875 -0.23144531 0.14941406 -0.13964844 0.18554688 -0.1484375 -0.099121094 0.016723633 0.328125 -0.16601562 -0.13574219 0.061035156 0.063964844 -0.2578125 0.5 0.10449219 0.014770508 0.23632812 -0.056152344 -0.39453125 0.14550781 -0.11816406 -0.08251953 0.032714844 0.17871094 0.06738281 -0.24121094 0.17480469 -0.15039062 0.0625 0.32226562 -0.0019302368 0.048339844 0.25390625 -0.0034179688 0.038085938 0.111816406 -0.043701172 0.16992188 -0.26171875 -0.03149414 -0.29101562 0.23144531 -0.20117188 -0.19238281 0.018920898 0.091796875 -0.05078125 0.02746582 0.13085938 -0.078125 0.12451172 -0.2265625 0.09863281 0.18359375 0.016113281 -0.006958008 -0.17773438 0.16601562 -0.053710938 0.171875 0.005126953 0.13378906 0.088378906 0.4453125 0.33007812 0.123535156 -0.0703125 -0.20605469 -0.12597656 0.26367188 0.17675781 0.02758789 -0.33203125 -0.2578125 0.15332031 -0.10449219 -0.024047852 0.40039062 0.26953125 0.09667969 0.12597656 0.022338867 0.115234375 0.040283203 -0.1328125 -0.18847656 -0.40429688 -0.30664062 -0.045898438 -0.16503906 -0.24121094 -0.006439209 -0.016479492 -0.359375 -0.140625 -0.12402344 -0.30664062 -0.296875 -0.13867188 0.020996094 -0.08642578 -0.13964844 -0.11816406 -0.030151367 0.059326172 -0.15527344 -0.024047852 -0.20019531 -0.021362305 0.08154297 -0.23925781 -0.44335938 0.12597656 0.34375 0.08105469 0.007232666 0.1640625 -0.53125 0.14257812 0.064941406 -0.06738281 -0.22363281 0.007873535 0.40234375 -0.07421875 0.27539062 0.018798828 -0.07080078 0.026977539 0.049072266 -0.14648438 0.23242188 0.11621094 0.021240234 0.014282227 0.11816406 0.13183594 -0.05444336 0.13378906 0.04272461 0.08203125 -0.13183594 -0.18945312 0.19042969 -0.13964844 0.029296875 -0.095214844 0.09082031 -0.03564453 0.016357422 0.16210938 -0.103515625 -0.061767578 -0.053466797 -0.068359375 0.06591797 0.030883789 0.29296875 -0.16796875 -0.15136719 0.13378906 -0.27539062 -0.14257812 -0.026977539 0.030151367 0.21289062 0.2578125 0.0077819824 -0.02734375 0.080566406 -0.04663086 -0.23828125 0.12011719 -0.10644531 -0.10839844 -0.22363281 -0.12158203 -0.16015625 -0.26367188 0.08984375 -0.111816406 0.16308594 0.13183594 0.14550781 0.22363281 0.030761719 0.03857422 -0.03857422 -0.05834961 0.079589844 -0.14355469 -0.099609375 0.0007286072 -0.064941406 -0.10058594 -0.13378906 0.076171875 -0.0037384033 -0.027954102 -0.04345703 0.17382812 -0.20800781 -0.037841797 0.3046875 0.17382812 0.1171875 0.015258789 -0.0625 0.07421875 -0.30273438 0.017700195 0.022705078 -0.06201172 -0.13964844 -0.15136719 0.22460938 0.25585938 0.016723633 0.044921875 0.22265625 0.19140625 0.14941406 -0.19628906 0.24609375 -0.25390625 -0.17675781 -0.13183594 -0.06347656 0.17871094 -0.34375 -0.049072266 -0.20703125 -0.15527344 0.06201172
advocacy 0.04296875 -0.052001953 -0.11816406 0.19238281 -0.08886719 -0.106933594 0.024902344 0.06982422 0.123535156 -0.078125 0.041259766 0.19042969 -0.061767578 0.050048828 -0.079589844 -0.067871094 0.17773438 0.18457031 -0.171875 -0.06640625 0.21386719 0.33007812 -0.13769531 0.060302734 -0.39453125 -0.020751953 -0.07519531 0.013122559 -0.25390625 -0.2890625 0.16601562 0.018554688 -0.26367188 -0.023071289 0.20996094 0.07080078 -0.13964844 0.39453125 0.15917969 -0.06542969 -0.17285156 0.2734375 -0.203125 0.17089844 -0.40039062 -0.23339844 -0.075683594 0.29492188 0.03881836 -0.029296875 0.15136719 0.083984375 -0.21972656 0.390625 0.0021820068 0.25585938 -0.38476562 -0.21679688 -0.21875 -0.076171875 -0.22460938 0.088378906 -0.18652344 0.08935547 0.06933594 -0.072753906 0.15332031 0.15429688 0.19628906 0.1015625 -0.203125 0.25 0.19335938 0.19433594 -0.23144531 -0.05810547 0.09326172 -0.111328125 0.24707031 0.27539062 0.12597656 0.007751465 -0.12597656 -0.059814453 -0.14160156 -0.04345703 -0.10205078 -0.12792969 0.13867188 -0.045410156 0.33398438 -0.12792969 -0.1015625 -0.20996094 -0.055908203 -0.09033203 -0.014709473 -0.016845703 0.1171875 -0.1640625 0.26367188 0.16113281 -0.13964844 -0.13183594 0.21191406 -0.025268555 -0.04272461 -0.3515625 0.14550781 -0.19042969 -0.15136719 -0.15722656 -0.20019531 0.123046875 -0.17773438 -0.036865234 -0.096191406 0.21777344 0.23339844 0.11767578 -0.04321289 0.08203125 -0.075683594 0.23339844 -0.11328125 0.0048217773 -0.007293701 0.41015625 0.061279297 0.17382812 0.001335144 -0.19824219 -0.28125 -0.1015625 -0.18261719 -0.07910156 0.140625 -0.18261719 -0.13183594 -0.07373047 0.13574219 -0.01953125 -0.21484375 0.084472656 -0.06542969 -0.171875 0.07373047 -0.04638672 0.056640625 -0.17773438 0.22949219 -0.13574219 -0.234375 0.06640625 0.38867188 -0.08105469 0.12792969 0.009887695 -0.080078125 -0.15039062 -0.1015625 -0.1640625 0.028320312 0.16796875 -0.049072266 -0.19628906 0.060302734 -0.29882812 0.06738281 -0.13378906 0.17675781 -0.061767578 -0.033935547 -0.024658203 0.08984375 0.05078125 0.042236328 -0.092285156 0.20605469 0.18652344 -0.20117188 -0.28125 0.059570312 0.2109375 -0.119628906 -0.13671875 -0.20996094 -0.19140625 -0.34375 0.15332031 -0.017944336 -0.21972656 0.13476562 -0.04638672 -0.25976562 0.12207031 -0.21484375 -0.2890625 0.26171875 0.33203125 -0.20996094 -0.072265625 0.083496094 -0.12597656 -0.06542969 -0.052734375 -0.10546875 0.111816406 0.16796875 -0.15234375 -0.06738281 -0.26757812 -0.03540039 0.03149414 0.091796875 -0.04345703 -0.23046875 0.36523438 0.02758789 -0.20605469 -0.3203125 -0.13964844 0.15039062 0.08691406 -0.103027344 0.12988281 0.52734375 0.13085938 0.17773438 0.09814453 -0.10253906 0.046875 -0.16210938 0.0005378723 -0.22460938 -0.011962891 0.12792969 -0.078125 0.20996094 -0.20703125 -0.06298828 -0.13769531 -0.11621094 0.1015625 -0.1796875 0.19140625 -0.125 -0.06933594 -0.024536133 -0.13085938 0.13671875 -0.064453125 -0.09375 -0.24316406 0.26953125 -0.1640625 -0.12695312 -0.25 -0.20703125 -0.016601562 -0.53125 -0.029663086 0.14355469 0.15917969 -0.234375 0.14550781 -0.15527344 -0.07470703 -0.20703125 0.33007812 0.014160156 -0.011352539 0.18261719 0.13085938 -0.06982422 -0.25 -0.20800781 0.084472656 0.041992188 -0.095703125 0.030639648 -0.25195312 0.10839844 0.27539062 -0.43359375 0.028686523 -0.15722656 0.109375 0.16601562 0.04321289 0.17675781 -0.21875 -0.15625 0.012268066 0.12890625 -0.22949219 0.30273438 0.111816406 0.1875 0.22363281
aesthetics 0.16503906 0.17773438 0.171875 -0.048339844 -0.15820312 0.18652344 0.328125 -0.20507812 0.036865234 0.16113281 -0.3671875 -0.27734375 0.18652344 0.012878418 0.19140625 -0.018066406 0.19628906 0.10839844 0.017456055 -0.00039672852 -0.12695312 -0.011291504 -0.328125 0.09033203 -0.31445312 -0.11621094 0.0045776367 0.079589844 -0.14355469 -0.36914062 -0.0025024414 0.106933594 -0.044189453 0.04296875 0.21679688 -0.22363281 0.33203125 0.028564453 0.20800781 -0.12158203 -0.076660156 0.08105469 -0.059814453 0.23730469 -0.18945312 -0.11035156 0.106933594 0.100097656 0.28320312 -0.05883789 -0.083984375 0.20507812 -0.029541016 -0.25 0.33398438 0.296875 -0.14941406 0.052978516 0.19824219 -0.12988281 0.20410156 -0.0032043457 -0.009033203 -0.328125 -0.0058898926 -0.076171875 -0.16796875 0.27734375 -0.037841797 0.20214844 0.09326172 -0.07714844 0.043701172 -0.13378906 -0.33203125 -0.2578125 -0.09423828 -0.106933594 -0.038330078 0.2734375 -0.11669922 -0.008911133 -0.10449219 0.20703125 -0.06738281 0.011230469 0.03930664 0.3359375 0.019165039 0.028808594 0.109375 -0.12695312 -0.17382812 0.119628906 -0.15039062 0.018920898 -0.37304688 -0.18066406 -0.23730469 0.2109375 0.11669922 0.29882812 0.034179688 -0.064941406 0.34570312 0.04321289 -0.041992188 -0.037109375 -0.24316406 -0.26367188 -0.20605469 0.24707031 0.16210938 0.12158203 0.20507812 -0.33007812 -0.052490234 -0.359375 -0.15527344 0.1328125 -0.21289062 0.11279297 -0.23144531 0.16601562 0.09423828 0.203125 -0.29296875 0.10498047 0.09326172 0.019042969 -0.10546875 -0.18847656 -0.25976562 -0.05517578 0.055664062 0.31640625 -0.048095703 -0.0065307617 0.13671875 -0.16503906 0.12695312 -0.05029297 -0.16992188 0.20605469 -0.03515625 -0.09423828 0.10888672 0.37109375 -0.23339844 0.15429688 -0.29492188 0.08691406 -0.061523438 -0.033203125 -0.29882812 0.08642578 -0.18164062 -0.15039062 -0.10839844 -0.076171875 -0.24414062 -0.29882812 -0.25390625 0.4140625 -0.23046875 0.107910156 -0.0024414062 -0.18066406 0.051757812 -0.040283203 -0.15136719 -0.04296875 -0.171875 0.14453125 -0.011413574 -0.029541016 0.28515625 -0.1796875 -0.27539062 0.036865234 -0.20214844 0.13378906 0.052490234 -0.21777344 0.045166016 -0.20996094 0.080078125 -0.265625 0.06347656 -0.05859375 -0.13085938 0.046142578 0.22851562 0.05810547 0.02734375 -0.08154297 0.044677734 0.26757812 -0.05053711 0.28320312 -0.080566406 0.19335938 -0.16601562 0.048095703 -0.067871094 0.091796875 0.10644531 -0.35742188 -0.23046875 -0.03491211 -0.26367188 -0.16992188 -0.10058594 0.006591797 -0.1484375 -0.17675781 -0.14550781 0.203125 -0.083984375 0.060546875 -0.088378906 0.06347656 -0.21386719 0.107910156 -0.16308594 -0.14746094 -0.06689453 -0.041748047 -0.12792969 0.21289062 -0.16015625 0.13476562 -0.22558594 0.053222656 0.107910156 -0.079589844 0.25976562 0.09033203 0.107910156 -0.12792969 0.25585938 -0.12890625 -0.004699707 -0.061279297 -0.0703125 -0.052001953 -0.21875 -0.000667572 -0.27539062 -0.023803711 -0.024291992 0.29296875 -0.00093460083 0.0859375 0.24414062 -0.27929688 0.01586914 0.13867188 0.01373291 0.36523438 0.076171875 -0.1328125 -0.33789062 -0.22167969 0.18554688 0.3125 -0.19726562 -0.45703125 -0.05834961 0.004272461 -0.032226562 -0.12695312 -0.110839844 -0.043945312 -0.14355469 -0.19335938 0.03173828 -0.17089844 -0.578125 0.36132812 0.099121094 0.111816406 0.1953125 -0.13769531 -0.05517578 0.19921875 -0.008239746 -0.060058594 0.008056641 0.14160156 -0.484375 0.049316406 -0.12695312 0.15527344 0.110839844 0.18945312 0.18261719 -0.23632812 0.19433594 -0.119628906
affection 0.24511719 0.03149414 0.078125 0.20019531 -0.29296875 0.022338867 -0.0034637451 -0.31835938 0.0625 0.052978516 -0.13867188 -0.025634766 0.20214844 0.19042969 -0.22070312 0.10205078 0.109375 0.5546875 -0.20898438 -0.025512695 0.11230469 -0.19433594 0.20703125 -0.034179688 0.20214844 -0.30664062 -0.10888672 0.30273438 0.111328125 0.09082031 -0.21191406 0.038330078 -0.05126953 0.00046539307 0.19628906 0.0017318726 0.45507812 0.33007812 -0.06591797 0.171875 0.21484375 0.056396484 0.020507812 -0.17578125 -0.11669922 -0.16503906 0.22753906 0.19335938 -0.2734375 -0.099609375 -0.14160156 0.14257812 -0.18066406 -0.05834961 -0.19921875 0.17578125 -0.08203125 0.1015625 -0.18261719 -0.008361816 -0.09326172 0.36914062 -0.078125 -0.15234375 -0.48242188 0.10839844 -0.42382812 -0.107910156 -0.25585938 0.026123047 0.13671875 -0.11816406 -0.15136719 0.10986328 -0.05810547 -0.05883789 -0.14550781 -0.06933594 0.35742188 0.30273438 -0.15917969 0.16992188 0.030151367 -0.10253906 -0.100097656 -0.068847656 0.009765625 0.04321289 -0.12597656 0.023803711 -0.23730469 -0.004760742 -0.36328125 0.17871094 0.11376953 -0.1484375 0.17285156 0.013183594 0.09863281 -0.01965332 -0.20507812 0.104003906 0.06298828 0.06982422 0.41796875 -0.14160156 -0.020141602 0.04663086 0.032714844 0.0703125 -0.20410156 0.12402344 0.041992188 0.23730469 0.2109375 -0.06982422 -0.1484375 -0.26171875 0.08105469 0.13964844 -0.14648438 -0.008056641 0.13183594 -0.036376953 -0.30078125 0.07421875 0.15917969 -0.023071289 0.076660156 -0.118652344 -0.41796875 -0.071777344 0.068847656 0.23144531 0.12207031 -0.018798828 -0.05493164 -0.044189453 1.001358e-05 0.16796875 -0.15234375 0.23632812 -0.24023438 -0.06542969 -0.11621094 0.13671875 -0.24023438 0.33203125 -0.18945312 -0.17382812 0.30273438 0.30273438 0.23144531 -0.053955078 -0.22851562 -0.20117188 0.011169434 -0.12988281 0.020629883 -0.37890625 0.10205078 0.24707031 0.02355957 0.42382812 0.026977539 -0.0625 -0.1015625 0.056152344 -0.28320312 0.19335938 0.1171875 -0.15429688 -0.024902344 0.04736328 -0.017700195 0.20605469 -0.17871094 -0.16601562 0.051757812 -0.36914062 -0.22167969 -0.018554688 -0.025024414 -0.055664062 -0.0023498535 -0.27929688 -0.12792969 -0.4609375 0.2109375 0.045898438 -0.007232666 0.14550781 0.09765625 0.068847656 -0.20996094 0.111328125 0.038085938 0.17578125 -0.19042969 0.059814453 -0.30664062 0.03466797 -0.25 -0.01953125 0.21582031 -0.19824219 -0.055419922 0.15527344 0.16503906 0.043945312 -0.21386719 0.05883789 0.14941406 -0.042236328 -0.19335938 -0.047607422 0.19433594 0.27734375 0.07519531 0.060058594 -0.076171875 0.017211914 -0.018310547 0.16113281 -0.37695312 -0.09033203 -0.016235352 -0.28710938 0.29492188 -0.104003906 -0.19824219 0.12597656 -0.18457031 0.31640625 0.3984375 -0.053955078 -0.13671875 -0.22558594 0.32226562 0.059570312 0.08496094 -0.22851562 0.13964844 0.31445312 0.03515625 0.28320312 0.23242188 -0.17871094 0.36328125 0.19824219 0.08642578 0.22949219 0.15917969 0.040039062 -0.24511719 -0.03466797 -0.15820312 -0.04345703 -0.49414062 0.26171875 -0.19824219 -0.12988281 -0.22070312 0.3671875 -0.1328125 -0.06591797 0.15625 -0.0390625 0.29296875 0.11669922 -0.056152344 0.061279297 0.040039062 0.21289062 0.17089844 -0.22851562 -0.37695312 0.25 -0.16503906 -0.18652344 0.27929688 0.0010147095 0.12109375 0.21777344 0.071777344 -0.30078125 -0.18847656 0.375 0.020751953 0.09375 -0.21191406 -0.03515625 -0.16894531 -0.6484375 0.18066406 -0.012451172 -0.048339844 -0.119628906 -0.28125 0.16503906
affluence 0.30859375 0.024902344 -0.27539062 0.3359375 -0.16503906 -0.20800781 0.0010299683 -0.44726562 0.16015625 0.17675781 -0.171875 -0.00042915344 0.119140625 0.18945312 -0.26757812 -0.015075684 0.09716797 0.29882812 -0.125 -0.12890625 -0.022216797 -0.33398438 0.10205078 0.20800781 -0.072265625 -0.10058594 -0.037353516 0.31835938 0.020874023 0.114746094 -0.28320312 -0.08496094 0.13183594 -0.030761719 0.103027344 -0.13476562 0.2890625 -0.16015625 -0.03881836 0.049316406 0.1328125 0.359375 -0.010498047 -0.07714844 0.15625 -0.025878906 0.15527344 0.56640625 -0.13378906 -0.14453125 0.09423828 0.13085938 -0.19628906 -0.27929688 -0.009216309 0.0126953125 -0.5 -0.095214844 0.234375 -0.16210938 -0.06201172 0.28710938 -0.34375 -0.060546875 0.056396484 -0.068847656 -0.28515625 0.421875 0.049804688 0.096191406 0.20117188 -0.1015625 -0.076171875 -0.09082031 -0.024414062 -0.1328125 -0.21972656 0.13476562 -0.023071289 0.24316406 -0.19238281 0.100097656 -0.24804688 -0.040771484 -0.30078125 0.31445312 -0.28320312 0.15136719 0.15332031 -0.33203125 0.021118164 -0.34765625 -0.27539062 -0.05493164 -0.0703125 0.21386719 0.18847656 0.05078125 0.12158203 -0.13671875 0.20996094 0.009338379 0.1328125 0.30273438 0.106933594 -0.26171875 -0.13671875 0.13671875 -0.1875 -0.36328125 -0.19824219 -0.01928711 0.022094727 -0.17773438 -0.026855469 0.04736328 0.04345703 -0.27734375 -0.08935547 0.025390625 -0.09667969 0.13769531 -0.08300781 -0.010314941 -0.19824219 0.48828125 -0.0859375 -0.18945312 0.2578125 0.2578125 0.15917969 0.083984375 0.12792969 0.049804688 0.119628906 0.057861328 0.22949219 0.26757812 -0.018188477 0.19140625 -0.18847656 -0.27148438 -0.14355469 0.22363281 0.27539062 0.23730469 0.23632812 0.29101562 0.14648438 -0.10546875 0.23242188 0.05419922 0.19042969 -0.11230469 -0.20019531 0.012023926 -0.32421875 -0.375 0.118652344 -0.4375 -0.27734375 -0.34960938 -0.19140625 0.036621094 -0.05078125 -0.080078125 -0.07421875 -0.13769531 -0.100097656 0.359375 -0.26171875 -0.018066406 -0.11230469 0.15039062 -0.09082031 0.18261719 -0.079589844 -0.17675781 -0.07519531 -0.21582031 0.041503906 -0.07373047 0.059570312 -0.20019531 -0.033935547 -0.020263672 -0.0026855469 0.063964844 0.008422852 -0.0020446777 0.24707031 0.0025482178 -0.1875 0.15332031 -0.24902344 -0.0018386841 -0.09326172 0.17675781 0.07128906 -0.140625 -0.015014648 0.111328125 0.01586914 -0.22753906 -0.171875 0.096191406 -0.072265625 -0.24609375 0.05859375 0.19238281 -0.27148438 0.050048828 0.08642578 0.010864258 0.06225586 0.359375 -0.29492188 0.41210938 0.041748047 0.21875 0.08251953 -0.19433594 0.115722656 -0.16210938 -0.09326172 -0.052734375 0.26171875 -0.21875 -0.07910156 0.30273438 -0.037353516 0.09375 0.036865234 -0.11669922 0.421875 -0.28320312 -0.068847656 0.22070312 0.27148438 -0.29492188 0.12597656 -0.54296875 0.0035705566 0.18847656 -0.13964844 0.06542969 0.1171875 -0.20703125 0.04272461 0.04736328 0.27734375 -0.0126953125 0.15722656 0.32617188 -0.25 -0.10595703 0.037841797 -0.14355469 -0.008605957 0.12597656 -0.109375 -0.24609375 0.05834961 0.20410156 0.0859375 0.07714844 -0.123535156 -0.34570312 0.1953125 -0.23046875 -0.47265625 0.10644531 -0.15136719 -0.08496094 -0.17675781 0.0034484863 -0.004180908 -0.123046875 -0.19726562 0.13378906 0.07861328 -0.41015625 -0.050048828 -0.13183594 -0.36328125 0.30273438 0.06298828 0.39453125 -0.076171875 0.11669922 -0.078125 -0.13378906 0.013916016 -0.12988281 0.018066406 -0.27929688 0.07080078 -0.27148438 0.13574219 -0.16992188
alive 0.051757812 0.018432617 0.1484375 -0.036376953 -0.18652344 0.13378906 0.028564453 -0.15234375 0.16894531 0.14453125 0.0044555664 -0.13476562 -0.36132812 0.080078125 0.047851562 -0.2421875 0.1953125 -0.064453125 0.075683594 0.16015625 0.16699219 0.08251953 0.03125 -0.27539062 0.006225586 -0.10595703 -0.27929688 -0.33398438 0.30664062 -0.48046875 0.2109375 0.06982422 -0.04638672 -0.11816406 -0.056396484 0.20703125 0.103515625 -0.025756836 0.032226562 0.34570312 0.34960938 0.01928711 -0.048339844 0.021118164 0.16503906 0.010681152 0.083984375 -0.08935547 0.07910156 0.060791016 -0.091796875 0.056640625 0.1796875 0.01953125 -0.14355469 -0.13867188 0.19921875 -0.06225586 0.34179688 -0.100097656 0.3515625 0.14746094 -0.16503906 -0.009338379 -0.09716797 0.078125 0.17675781 0.052978516 0.041503906 0.18554688 -0.25390625 -0.21386719 0.008850098 0.22949219 -0.13574219 -0.1171875 0.23339844 -0.18652344 0.25976562 0.30273438 0.052246094 -0.115722656 0.21777344 0.12597656 -0.21679688 -0.007537842 -0.0068359375 0.100097656 -0.23242188 0.22558594 -0.171875 -0.22460938 0.26171875 -0.19238281 -0.14160156 0.083496094 0.3671875 0.03149414 -0.18847656 -0.115234375 -0.546875 -0.07470703 0.40234375 -0.14160156 -0.07373047 -0.38085938 -0.119140625 -0.31054688 -0.14941406 -0.044433594 -0.033203125 0.18359375 -0.16503906 0.16992188 -0.05517578 0.13867188 -0.043701172 0.087402344 0.103027344 0.23632812 -0.19042969 0.05078125 0.32617188 0.115722656 0.056884766 -0.20996094 0.0234375 0.0005378723 -0.17089844 -0.111816406 0.06689453 -0.171875 -0.10205078 -0.28320312 -0.26953125 0.26757812 0.16113281 -0.14648438 0.0027313232 0.2734375 0.203125 -0.19335938 0.041748047 0.023925781 0.09814453 0.064453125 -0.3359375 -0.06689453 0.03173828 -0.13964844 0.061523438 0.14355469 -0.34765625 0.22363281 0.13476562 0.20507812 0.014343262 -0.20507812 0.056396484 0.087402344 -0.08642578 0.15039062 -0.11376953 -0.03857422 0.064453125 -0.29296875 -0.16210938 0.21386719 -0.049560547 -0.06738281 -0.15917969 0.1953125 -0.07519531 -0.30859375 -0.16015625 0.064941406 -0.068847656 0.12988281 0.017333984 0.10107422 -0.0046691895 -0.110839844 0.31640625 -0.15722656 -0.17773438 0.18359375 0.11816406 -0.099121094 0.05053711 0.10205078 -0.042236328 0.20214844 0.020629883 -0.14941406 0.0022583008 0.01586914 -0.068847656 -0.14355469 -0.5078125 0.14453125 0.016357422 0.008911133 -0.15820312 -0.28320312 0.055419922 -0.15722656 -0.10986328 0.099609375 0.100097656 -0.15722656 -0.28320312 0.27734375 -0.06689453 0.042236328 -0.06738281 0.2265625 -0.00982666 -0.095214844 -0.20703125 0.12597656 0.203125 0.20410156 0.12890625 0.12060547 -0.020141602 0.011474609 0.12451172 0.09326172 -0.28125 0.19628906 0.0023498535 -0.22949219 -0.053710938 0.14941406 0.061767578 -0.103027344 -0.032958984 -0.03173828 0.09277344 0.015197754 -0.03564453 -0.13574219 -0.27929688 0.17871094 -0.002609253 0.24902344 0.09423828 0.019165039 0.12792969 -0.061523438 -0.14941406 0.31445312 0.04736328 0.12207031 0.06298828 0.0049438477 0.02746582 -0.21582031 -0.09277344 -0.20410156 0.049560547 0.15429688 -0.0044555664 0.109375 0.059814453 0.25195312 0.020019531 -0.27148438 0.19921875 -0.17773438 0.09814453 -0.25195312 0.21484375 0.076660156 0.20703125 -0.26953125 -0.040771484 -0.016723633 -0.107910156 0.12890625 0.14648438 0.03857422 -0.015197754 -0.18945312 -0.052001953 -0.091796875 0.029418945 0.31835938 0.18359375 0.024536133 -0.23144531 -0.14355469 -0.28320312 -0.06591797 -0.034423828 -0.018676758 -0.31445312 -0.020019531 0.028808594 0.038085938
allure 0.38867188 0.15820312 -0.083496094 -0.07080078 0.055664062 0.22851562 0.10253906 -0.36523438 -0.20507812 0.26171875 -0.23046875 -0.29296875 0.018310547 -0.16699219 0.0546875 0.18261719 0.092285156 0.14257812 0.27734375 -0.24511719 -0.026123047 -0.12695312 -0.13671875 0.46289062 0.040283203 -0.15917969 -0.002670288 0.49414062 -0.16894531 0.02746582 0.16992188 -0.028930664 0.17773438 0.091308594 0.24804688 -0.014160156 0.15234375 -0.061035156 -0.0021514893 0.110839844 0.26171875 -0.09423828 0.111816406 -0.030883789 -0.056396484 -0.24511719 0.01550293 0.2578125 0.33203125 0.14941406 -0.17871094 0.2421875 0.1015625 -0.18457031 -0.036376953 0.10888672 0.11376953 -0.16796875 0.03857422 0.0027770996 0.20117188 -0.0703125 0.087402344 0.17871094 -0.19238281 -0.21386719 -0.38671875 0.33007812 0.010253906 0.017456055 0.20214844 0.19335938 0.06298828 0.18652344 0.055908203 0.115234375 -0.0390625 0.17285156 0.16992188 0.21386719 -0.041015625 -0.10595703 -0.15917969 -0.052001953 -0.4921875 0.059326172 -0.17285156 0.087890625 -0.010070801 -0.25390625 -0.265625 -0.07373047 -0.2265625 0.11328125 0.0029754639 0.15820312 0.033691406 0.10839844 -0.030761719 -0.16015625 -0.24023438 0.27539062 0.025878906 0.20019531 0.03540039 -0.28320312 -0.087890625 -0.022583008 -0.025390625 -0.21972656 0.07324219 0.29101562 0.07080078 0.052246094 0.25390625 -0.16992188 -0.046875 -0.029785156 -0.045654297 0.21289062 0.028564453 0.1328125 0.092285156 0.23046875 0.056640625 0.088378906 0.15722656 0.4609375 0.049560547 0.19921875 0.007873535 -0.01953125 0.16992188 -0.1875 -0.10498047 0.03125 -0.109375 -0.04736328 -0.072753906 0.016967773 0.32617188 -0.4140625 -0.057861328 0.17089844 0.42382812 0.09765625 0.14453125 0.18359375 -0.23339844 -0.21679688 -0.18359375 0.076171875 0.119140625 -0.036376953 -0.22363281 -0.030273438 -0.14746094 -0.15820312 -0.265625 -0.19628906 0.08496094 0.02746582 -0.08154297 -0.00023841858 -0.06201172 0.13671875 0.13867188 -0.07080078 -0.014526367 0.24121094 0.059326172 0.25585938 -0.31445312 -0.07128906 -0.15429688 0.10986328 -0.14941406 -0.18066406 -0.017700195 -0.16601562 0.010803223 -0.13867188 0.06201172 -0.36328125 -0.20410156 -0.26953125 0.018432617 -0.104003906 0.17773438 -0.08154297 -0.18554688 -0.064941406 -0.05908203 0.25585938 -0.50390625 0.23046875 -0.12890625 0.24804688 0.10058594 -0.15820312 0.234375 0.3046875 -0.2265625 -0.33398438 0.063964844 -0.03149414 0.029052734 -0.111328125 -0.25 0.33984375 -0.14453125 0.20019531 0.050048828 -0.006439209 -0.111328125 0.01977539 0.055419922 0.22167969 -0.018188477 -0.049560547 -0.09863281 0.119140625 -0.103027344 0.1953125 -0.19433594 0.06347656 -0.07714844 -0.3984375 0.15039062 0.25 -0.16503906 0.10888672 0.0625 0.20898438 0.17773438 -0.08105469 -0.107421875 -0.08691406 0.015991211 -0.009460449 -0.008178711 -0.21386719 0.026977539 -0.110839844 0.25390625 0.3203125 0.19726562 -0.34960938 0.07910156 0.12109375 -0.07763672 0.075683594 0.10888672 -0.018798828 -0.039794922 0.07519531 0.12792969 -0.10107422 -0.09033203 0.16992188 0.02355957 -0.23339844 -0.26953125 0.33398438 -0.18652344 0.079589844 -0.09814453 -0.4609375 0.11328125 -0.33007812 -0.03491211 0.16308594 0.07080078 -0.0064086914 0.002090454 -0.0703125 -0.19921875 -0.19433594 -0.3671875 0.119628906 -0.07763672 -0.16503906 0.061767578 -0.28125 -0.23828125 -0.16601562 -0.063964844 0.171875 0.0067749023 -0.044921875 -0.33203125 -0.026977539 0.033935547 -0.18945312 -0.036865234 0.012573242 0.16015625 -0.140625 -0.003250122 0.0138549805
aloha -0.061279297 -0.203125 0.05493164 0.23925781 -0.41015625 -0.32226562 -0.21582031 -0.099121094 -0.14453125 0.02722168 0.07470703 -0.08496094 0.119140625 0.25 0.14355469 0.23730469 -0.08203125 0.33398438 0.115234375 0.14550781 -0.32421875 0.20507812 0.17089844 -0.25976562 -0.12109375 0.047607422 -0.20507812 -0.21386719 0.234375 0.04321289 -0.00077056885 -0.125 -0.3515625 -0.13476562 0.09863281 0.14941406 0.2265625 -0.022338867 -0.28320312 0.24511719 -0.052490234 -0.080566406 -0.26171875 0.31054688 -0.31835938 -0.114746094 -0.06542969 0.21777344 0.24316406 0.0061035156 0.052490234 0.34765625 0.21972656 -0.078125 -0.028198242 0.3359375 -0.39257812 0.36132812 0.1328125 -0.5390625 -0.1640625 0.20703125 -0.33398438 0.38476562 0.23828125 0.0042419434 -0.18359375 0.035888672 -0.27148438 0.39648438 0.3984375 -0.20410156 -0.21484375 0.13183594 -0.09033203 -0.20800781 -0.00090408325 -0.052246094 0.47265625 0.091308594 -0.048095703 -0.39453125 -0.46679688 -0.26171875 -0.02368164 0.21484375 -0.62109375 0.38476562 0.20800781 0.14550781 0.12597656 0.22558594 0.08154297 0.017578125 0.0859375 -0.08154297 -0.22265625 0.3203125 0.515625 -0.44335938 -0.23828125 0.28320312 0.42578125 0.2109375 -0.095703125 0.5703125 0.43554688 -0.049560547 -0.041748047 0.088378906 -0.4765625 0.010681152 0.09716797 0.18359375 0.48828125 0.22949219 0.1640625 -0.47265625 -0.41015625 -0.2734375 -0.12207031 0.006713867 0.13476562 0.26757812 0.51953125 0.05908203 0.1953125 0.10888672 0.24414062 0.056640625 -0.104003906 -0.23535156 -0.03466797 0.38476562 -0.15136719 0.14257812 -0.32421875 0.12402344 0.064941406 -0.056152344 -0.023925781 -0.34960938 -0.07421875 -0.20507812 -0.14160156 0.026000977 -0.05810547 -0.3125 -0.19726562 -0.10546875 0.03491211 0.3203125 0.20117188 0.18847656 -0.08203125 -0.140625 0.29101562 -0.24414062 0.003829956 -0.25390625 -0.24023438 0.091796875 0.1484375 0.024047852 0.421875 -0.36523438 -0.07519531 0.13085938 -0.20996094 0.16113281 0.2734375 0.30078125 -0.125 0.16503906 -0.020019531 0.38671875 0.23925781 -0.08935547 0.02331543 -0.16503906 -0.30664062 0.12695312 -0.114746094 -0.011474609 0.13671875 0.08251953 -0.29882812 -0.13183594 0.23535156 0.27929688 0.041503906 0.390625 0.21875 0.111328125 0.10839844 0.001953125 0.265625 0.13378906 -0.33203125 -0.17773438 -0.13867188 -0.16210938 0.0024261475 0.10986328 -0.453125 -0.22070312 -0.19140625 -0.107910156 -0.31640625 -0.06933594 -0.10595703 -0.0703125 -0.19042969 0.21972656 0.203125 -0.07519531 0.23535156 0.21679688 0.00982666 -0.25 -0.067871094 0.06689453 -0.10595703 -0.03491211 -0.30664062 -0.057373047 0.110839844 0.23632812 0.033203125 -0.18359375 -0.671875 -0.21289062 -0.28320312 -0.06201172 0.3515625 0.18945312 0.14355469 0.030761719 0.2734375 0.5078125 0.34570312 -0.26757812 -0.21679688 -0.16308594 0.23339844 -0.009765625 -0.26953125 -0.24707031 0.21972656 -0.19140625 -0.037353516 0.3125 0.30273438 0.14648438 -0.15332031 -0.55859375 0.14160156 -0.032714844 -0.21191406 -0.25976562 0.14550781 -0.1875 -0.38867188 -0.25976562 -0.17382812 -0.59375 0.41015625 -0.17480469 -0.08496094 -0.359375 -0.31835938 0.40234375 0.035888672 0.33007812 0.36914062 0.0058898926 -0.5625 0.2265625 -0.044921875 -0.115234375 -0.18554688 -0.014892578 0.18261719 -0.015258789 0.3828125 -0.26953125 0.046875 0.4375 -0.010253906 -0.023803711 0.18554688 -0.5078125 -0.24121094 -0.25585938 0.265625 0.23046875 -0.13964844 -0.21484375 -0.13183594 0.10595703
amazingly 0.111328125 -0.16015625 -0.24707031 0.018188477 0.020141602 -0.0020599365 0.0703125 -0.12451172 0.050048828 0.057128906 -0.04272461 -0.22265625 -0.20507812 -0.25390625 0.107421875 0.2890625 0.05908203 0.32421875 -0.16210938 0.03515625 0.118652344 0.15722656 0.3125 -0.20898438 0.0703125 -0.18359375 -0.07714844 0.24707031 -0.107421875 -0.19433594 -0.078125 0.14648438 0.06689453 0.25195312 0.17480469 0.15136719 0.04663086 -0.25390625 -0.084472656 0.20117188 0.38867188 0.06933594 0.10986328 0.14257812 0.078125 -0.012268066 0.041748047 0.040771484 0.080566406 0.017822266 0.14355469 -0.20996094 -0.025634766 0.14355469 0.122558594 0.19628906 -0.017456055 -0.095214844 0.045166016 0.057128906 -0.01940918 0.122558594 -0.24707031 -0.28710938 -0.12597656 0.041748047 -0.0859375 0.16503906 -0.14648438 0.14550781 -0.009155273 0.13671875 0.1796875 -0.07128906 -0.036132812 0.03881836 -0.03112793 -0.018188477 0.015136719 0.04272461 0.15332031 -0.049804688 0.0625 -0.17382812 -0.15820312 -0.15039062 -0.28710938 0.11767578 -0.017333984 -0.19042969 -0.23535156 0.057617188 -0.20605469 0.1953125 -0.25 -0.104003906 -0.2890625 0.09423828 -0.01928711 -0.007019043 -0.045654297 0.034423828 0.016357422 -0.0008506775 -0.08691406 -0.0034637451 0.009094238 -0.088378906 -0.09814453 0.045166016 -0.072265625 0.09472656 -0.1875 -0.03930664 0.17773438 0.022583008 -0.06347656 -0.18066406 0.037841797 0.15136719 -0.19335938 0.10546875 0.25976562 -0.0703125 -0.03466797 0.15722656 -0.13085938 -0.1484375 0.1015625 0.1484375 -0.034179688 -0.046875 -0.07080078 -0.033935547 -0.22070312 0.17089844 0.01373291 -0.18066406 -0.076171875 0.111816406 0.040527344 0.0047302246 -0.041015625 0.03930664 0.0010986328 0.22070312 -0.057861328 -0.18945312 -0.15527344 0.0390625 -0.115722656 0.064941406 -0.123046875 0.15917969 0.03564453 -0.119628906 0.029541016 0.08935547 -0.12597656 0.06542969 -0.068359375 0.21484375 0.27539062 0.023071289 0.029418945 -0.25 -0.06201172 -0.16308594 -0.31640625 -0.04711914 -0.110839844 0.10986328 -0.064941406 0.005340576 -0.14550781 -0.13378906 -0.18359375 -0.16113281 0.17285156 0.040771484 -0.0024108887 -0.17675781 0.20507812 -0.039794922 -0.018676758 0.123046875 -0.22363281 -0.12109375 -0.140625 -0.115234375 -0.13574219 -0.087890625 0.23242188 -0.17382812 -0.09277344 -0.040527344 -0.14257812 -0.12011719 0.014892578 -0.10595703 0.044677734 0.14648438 -0.12109375 -0.04345703 0.16113281 -0.11816406 -0.30273438 -0.06347656 -0.083496094 0.12695312 -0.11816406 0.19238281 -0.06689453 0.0015945435 -0.18164062 0.095703125 0.099121094 0.17480469 -0.08496094 0.03125 -0.08496094 0.34375 -0.16699219 -0.038085938 0.16503906 0.19726562 0.08886719 -0.37695312 0.05883789 -0.20996094 0.08300781 -0.08544922 0.09082031 -0.08984375 0.08496094 0.0703125 -0.059326172 -0.06225586 0.18164062 0.037597656 -0.014526367 0.23925781 -0.12890625 -0.091796875 0.00026893616 0.13671875 -0.14648438 0.14941406 -0.19042969 -0.010437012 -0.080566406 -0.020263672 0.09472656 0.25390625 0.19824219 -0.16796875 -0.10546875 -0.16699219 -0.0012741089 -0.22167969 0.099609375 0.02331543 -0.009643555 0.10644531 -0.1171875 0.12695312 -0.031982422 -0.26171875 -0.04638672 0.091796875 -0.03564453 0.008544922 0.07421875 0.045166016 -0.029418945 -0.004211426 -0.020263672 0.032714844 0.0012893677 0.22753906 0.31835938 0.045898438 -0.08642578 0.014953613 -0.020751953 -0.022949219 -0.21777344 -0.25976562 0.20703125 0.22949219 0.012145996 -0.09277344 0.030883789 0.1328125 -0.1484375 0.021972656 -0.0019226074 -0.16601562 0.059570312 0.15722656
ambition 0.016723633 0.037597656 0.10107422 0.025878906 0.078125 -0.091308594 0.23144531 -0.21875 0.059814453 0.19042969 -0.11035156 -0.11035156 0.12451172 -0.30664062 -0.119140625 0.23730469 0.06225586 0.24121094 0.18359375 -0.28515625 -0.25 -0.23828125 0.046142578 0.22851562 0.109375 0.024902344 0.119140625 -0.091308594 0.096191406 0.1875 0.14941406 0.2265625 -0.032714844 -0.10253906 0.15429688 0.19140625 0.12451172 0.19628906 -0.0012054443 0.014282227 0.30859375 -0.12792969 -0.359375 0.10107422 -0.02734375 -0.13085938 -0.109375 0.1953125 -0.100097656 0.013183594 -0.18847656 0.10449219 0.010070801 0.10839844 0.2421875 -0.19433594 -0.1640625 -0.41992188 -0.24707031 0.0071105957 0.33203125 0.21484375 0.0034942627 0.0037384033 -0.17578125 0.06542969 0.10986328 0.30664062 0.038085938 0.0026397705 -0.16503906 -0.27734375 -0.08642578 0.296875 -0.21484375 -0.03955078 0.06933594 0.095703125 -0.02709961 -0.038085938 0.19433594 0.16699219 -0.016113281 0.046142578 0.092285156 0.03955078 0.04638672 -0.0031738281 0.13769531 -0.00793457 0.008544922 -0.44726562 -0.31054688 -0.12060547 0.103027344 -0.328125 -0.0061035156 -0.09765625 0.008056641 -0.05859375 -0.10058594 0.19726562 -0.09472656 0.109375 0.18847656 0.064941406 0.1640625 0.03491211 0.040283203 0.10205078 -0.10546875 -0.037109375 -0.21582031 0.17382812 -0.04296875 0.021728516 -0.010925293 -0.16699219 0.11230469 0.20214844 -0.087890625 -0.13867188 0.020751953 0.13378906 -0.33984375 -0.02746582 -0.099609375 -0.020019531 -0.15429688 0.10058594 -0.17675781 -0.04248047 0.08642578 -0.072265625 -0.111328125 0.22265625 -0.22949219 0.125 -0.055664062 0.16699219 -0.053466797 -0.37890625 -0.080078125 0.051757812 0.22949219 0.09667969 -0.26367188 0.08496094 0.037597656 -0.23242188 -0.03540039 0.32421875 0.33789062 0.125 -0.020263672 0.12792969 0.0045166016 -0.29492188 -0.23925781 -0.42773438 0.13769531 -0.17773438 -0.06298828 0.23339844 0.123046875 -0.31054688 0.32226562 -0.16113281 -0.21875 0.08203125 -0.037841797 0.0032348633 -0.13964844 -0.28320312 -0.2265625 -0.20507812 0.009094238 -0.47265625 0.060791016 -0.4375 -0.265625 -0.03125 -0.028198242 -0.080566406 0.0107421875 -0.055908203 -0.14550781 -0.075683594 0.15234375 0.03857422 -0.032226562 -0.07763672 0.18066406 0.41210938 -0.06738281 0.12597656 0.020141602 0.25195312 0.14550781 -0.18847656 0.03515625 0.14355469 -0.011169434 -0.23730469 0.20019531 -0.13964844 -0.09326172 -0.12060547 0.05444336 0.0075683594 -0.11425781 0.091308594 -0.030151367 0.21386719 -0.17285156 -0.03881836 -0.045898438 0.0060424805 -0.05102539 0.28125 -0.41601562 -0.027832031 0.21679688 0.12011719 -0.08496094 -0.027954102 0.13769531 -0.106933594 0.28515625 0.049560547 -0.140625 -0.05053711 0.11328125 0.040527344 -0.0043640137 0.021240234 -0.06738281 0.22851562 -0.080566406 0.092285156 0.06982422 -0.25390625 0.03112793 0.20898438 0.23828125 0.16992188 0.09863281 -0.15917969 0.15722656 0.037109375 0.072753906 0.0703125 -0.025146484 0.42773438 -0.06347656 0.12792969 0.00039100647 -0.083984375 -0.36523438 0.019897461 0.05078125 -0.07128906 -0.09082031 0.2890625 -0.14160156 0.17285156 -0.09082031 -0.24414062 -0.080078125 0.020385742 -0.11621094 -0.10595703 0.3515625 0.24121094 -0.3203125 -0.033935547 0.053466797 -0.103027344 -0.107910156 0.2734375 0.27929688 -0.06347656 -0.125 0.018310547 -0.041259766 0.15917969 -0.15332031 0.1875 -0.010864258 0.09472656 -0.3046875 0.045166016 -0.39648438 -0.3125 -0.37304688 -0.24316406 0.25585938 0.008972168 -0.28125 -0.18359375
amen 0.21289062 0.037109375 0.21972656 0.37695312 -0.12988281 -0.11376953 -0.088378906 0.2734375 0.032958984 0.40429688 -0.25 -0.0018386841 -0.359375 0.4765625 -0.19238281 0.2890625 0.26171875 0.15429688 0.4921875 -0.12060547 0.234375 0.25585938 0.43554688 -0.31445312 0.2109375 -0.38867188 -0.22167969 -0.07763672 0.21875 -0.068359375 0.122558594 -0.03955078 -0.25976562 -0.18847656 0.008300781 -0.35351562 0.265625 0.16308594 0.24121094 0.13085938 0.06298828 0.17480469 0.40820312 -0.051757812 0.008361816 -0.1484375 -0.110839844 0.103515625 -0.18164062 0.09765625 -0.11621094 -0.15332031 -0.25976562 0.47070312 0.23925781 -0.091308594 -0.3671875 -0.0859375 0.17285156 -0.10205078 -0.034423828 0.17578125 -0.30664062 0.11328125 0.35351562 -0.28515625 -0.34570312 -0.10888672 -0.43359375 0.0703125 0.13378906 -0.21386719 -0.18359375 0.29492188 0.028686523 -0.25195312 -0.21484375 0.07373047 0.28515625 0.13769531 -0.14941406 -0.08251953 -0.063964844 0.07470703 -0.1875 0.32226562 0.22949219 0.18359375 0.12890625 -0.08544922 -0.24316406 -0.0015106201 0.057861328 0.03125 -0.07128906 0.049316406 -0.20605469 0.012084961 -0.051757812 -0.390625 -0.47070312 0.36914062 0.37109375 0.15820312 -0.41015625 -0.17382812 -0.049560547 0.33398438 -0.0119018555 0.09375 -0.53125 -0.16699219 0.025390625 0.0070495605 0.34765625 -0.017578125 0.025146484 0.17773438 0.16113281 -0.12597656 0.002822876 -0.13183594 -0.25390625 -0.11035156 0.018310547 -0.375 0.0009651184 -0.13769531 0.2421875 0.21484375 -0.23632812 0.15332031 0.037353516 -0.057373047 0.22949219 0.0546875 0.18457031 0.33789062 0.31640625 0.27148438 0.30078125 -0.24414062 -0.30078125 -0.12792969 0.14453125 -0.12890625 0.06591797 -0.21289062 0.49804688 -0.1484375 0.29882812 -0.30664062 0.013183594 -0.010559082 0.14160156 -0.123535156 0.30078125 0.3203125 0.23828125 -0.026733398 -0.08544922 -0.029418945 0.13574219 -0.24707031 -0.059570312 -0.21191406 -0.15039062 -0.23632812 -0.08105469 -0.10205078 -0.123046875 -0.24804688 -0.16308594 -0.123535156 -0.057861328 0.13964844 0.12402344 -0.06738281 -0.046875 -0.37109375 -0.32421875 -0.15039062 0.42773438 0.3046875 -0.22753906 -0.12207031 -0.17285156 -0.15234375 -0.060546875 0.28515625 0.30273438 0.2265625 0.18847656 -0.0079956055 -0.08154297 0.16113281 -0.28320312 -0.39648438 -0.07763672 0.203125 -0.033935547 -0.033935547 -0.23632812 -0.20507812 -0.087890625 -0.23535156 -0.06689453 -0.075683594 0.011230469 0.09033203 0.104003906 -0.025756836 -0.24121094 -0.6875 -0.19042969 0.068359375 0.06347656 0.028930664 0.019897461 -0.22949219 -0.20507812 0.38671875 0.060546875 0.015197754 0.18945312 -0.111328125 0.15820312 0.025146484 0.029541016 -0.12597656 0.19238281 0.036132812 -0.5625 -0.11669922 0.18164062 0.10498047 0.08691406 0.125 0.21386719 -0.051757812 -0.13085938 -0.013244629 -0.3125 -0.109375 0.019042969 0.07421875 0.15429688 0.19335938 -0.11230469 -0.040527344 0.067871094 0.45117188 0.3828125 0.051513672 -0.092285156 -0.21191406 0.022705078 -0.26757812 0.25976562 -0.095214844 -0.025878906 0.07324219 0.092285156 0.044677734 -0.30078125 -0.060791016 -0.13964844 0.087402344 -0.2890625 -0.17089844 -0.09375 0.25585938 -0.022949219 0.29296875 0.3359375 -0.17871094 -0.55859375 -0.11279297 0.36328125 0.0045166016 0.06982422 -0.16308594 -0.0390625 0.11767578 -0.12060547 -0.01550293 0.43359375 0.014099121 -0.16210938 0.28710938 0.39257812 -0.33984375 0.07910156 -0.24316406 0.03149414 -0.265625 -0.21875 -0.3671875 -0.28515625 0.119140625
amicable -0.12158203 0.06738281 -0.35742188 -0.071777344 -0.0043640137 0.21582031 0.49023438 -0.103515625 0.125 0.26757812 -0.03881836 0.06689453 0.109375 0.3671875 -0.21191406 0.49609375 0.5 0.21679688 0.2734375 0.053710938 0.23925781 0.25976562 0.28710938 -0.08691406 0.028930664 0.068359375 -0.22753906 0.080566406 -0.0045166016 -0.38476562 0.1328125 -0.24316406 -0.013366699 0.046142578 0.15527344 0.16796875 0.1796875 -0.27734375 0.140625 0.047851562 0.20507812 0.08496094 -0.29492188 -0.16601562 -0.36914062 -0.14355469 -0.064941406 -0.05053711 -0.09326172 0.15429688 0.26953125 -0.035888672 -0.020629883 -0.14941406 -0.00061798096 0.28125 -0.29296875 0.008728027 -0.008056641 -0.26367188 -0.13671875 0.1328125 -0.34960938 0.072753906 -0.18554688 0.17675781 -0.103515625 -0.10644531 -0.01977539 0.17480469 -0.14746094 -0.10546875 0.091796875 0.28515625 -0.31835938 0.16699219 0.041992188 0.018554688 -0.19238281 0.09716797 -0.19433594 -0.12695312 0.087402344 0.32226562 0.15136719 -0.09863281 0.13574219 -0.07910156 0.0625 0.25390625 -0.033203125 -0.13183594 -0.08984375 0.11376953 -0.123535156 -0.07128906 -0.16699219 -0.140625 0.09472656 -0.375 -0.09863281 0.18066406 -0.15820312 -0.041015625 0.34960938 -0.104003906 0.31640625 0.08691406 0.17089844 0.119628906 -0.49609375 0.036621094 0.25 -0.4609375 0.14550781 0.05834961 0.41796875 -0.30273438 0.24707031 0.12890625 -0.053955078 -0.08154297 0.20800781 -0.171875 -0.5 -0.30078125 -0.3125 -0.096191406 0.1484375 0.008422852 -0.029296875 -0.118652344 -0.064453125 0.5234375 -0.15136719 0.13671875 -0.38085938 -0.015014648 0.08886719 -0.06591797 -0.044189453 0.32226562 -0.24316406 -0.08642578 -0.12109375 0.140625 -0.53125 0.08886719 0.32226562 -0.037597656 0.12695312 0.27148438 -0.23144531 -0.11669922 -0.23730469 0.123046875 0.2578125 -0.13085938 0.099609375 0.20214844 -0.49609375 0.26757812 0.39257812 0.111816406 0.36523438 -0.23046875 -0.37890625 0.024902344 -0.056640625 0.31445312 0.14941406 -0.36914062 0.28515625 0.053955078 0.23242188 0.080566406 0.2734375 0.26953125 -0.140625 -0.115234375 -0.20605469 -0.12890625 0.080566406 0.16015625 0.07421875 0.037109375 -0.03955078 0.24902344 0.16894531 -0.03881836 -0.20800781 0.07080078 -0.025146484 -0.12060547 0.10888672 -0.013549805 -0.2734375 0.25390625 -0.22949219 -0.027709961 0.23046875 0.234375 0.011108398 0.22265625 0.26171875 -0.53515625 -0.1640625 0.06542969 0.051513672 0.17578125 0.21777344 -0.18359375 0.2265625 -0.0087890625 0.25390625 -0.27734375 -0.013183594 0.22851562 0.2109375 0.31054688 0.13183594 0.2109375 0.12792969 0.57421875 -0.080078125 -0.15039062 0.30273438 -0.043701172 0.05444336 0.3203125 0.03930664 0.19335938 -0.014892578 -0.296875 0.4765625 -0.034423828 -0.15820312 -0.16503906 0.17578125 0.421875 0.07128906 -0.10498047 0.14941406 -0.07763672 0.0067443848 0.13183594 -0.22949219 0.06347656 0.42773438 -0.18359375 -0.045898438 0.265625 0.023071289 0.17578125 0.41015625 -0.265625 -0.07080078 0.011413574 -0.18652344 0.083496094 0.21875 -0.2890625 0.29492188 0.43554688 0.28515625 0.12402344 -0.35351562 0.026123047 -0.107421875 -0.001159668 0.44140625 0.014343262 0.14941406 0.068359375 0.13574219 0.19726562 0.13574219 0.20996094 0.049804688 -0.16894531 0.020751953 -0.033447266 -0.33789062 0.16699219 0.59765625 -0.17480469 0.018676758 0.06933594 0.12207031 -0.12207031 -0.009338379 0.0703125 -0.075683594 -0.041503906 -0.19238281 0.28710938 -0.033447266 0.015075684 -0.17578125 -0.1796875
