1186 300
abandon 0.007659912 0.07861328 0.109375 0.33984375 -0.20898438 0.044677734 -0.036621094 -0.041992188 0.19238281 0.13964844 -0.15429688 -0.030273438 -0.11376953 0.21679688 -0.140625 0.038330078 0.13964844 -0.11621094 -0.080566406 -0.104003906 0.07080078 0.015258789 0.106933594 0.27148438 0.19335938 0.14257812 -0.014831543 0.19433594 0.16699219 -0.30859375 0.30664062 0.1640625 -0.35742188 -0.005706787 -0.13769531 0.020385742 0.13183594 0.087402344 0.07470703 -0.032714844 0.3203125 0.09716797 0.17285156 -0.06738281 -0.18164062 0.0052490234 -0.15917969 -0.017456055 0.06738281 0.115722656 -0.009155273 0.19921875 0.05810547 -0.1875 -0.038330078 -0.15039062 -0.19824219 -0.35351562 -0.049072266 -0.14746094 0.063964844 0.0134887695 0.1328125 0.10595703 0.0007019043 -0.31054688 0.011291504 0.14648438 -0.28710938 0.171875 0.071777344 0.07324219 0.123535156 0.296875 -0.16992188 -0.1328125 0.067871094 0.061523438 0.09472656 0.030761719 0.03881836 0.018310547 0.0004234314 -0.083984375 0.17773438 0.21289062 0.17675781 0.020141602 0.043701172 -0.05419922 -0.025512695 -0.19921875 0.05078125 -0.09277344 0.2265625 0.016845703 -0.06347656 0.09472656 -0.068847656 0.011413574 0.10107422 0.0078125 -0.039794922 0.28710938 -0.106933594 -0.125 0.14160156 -0.19433594 -0.0060424805 0.16992188 -0.08984375 0.032470703 0.095703125 0.099609375 0.33398438 -0.099121094 0.15527344 -0.091308594 -0.039794922 0.07128906 0.017333984 -0.07763672 -0.071777344 0.24316406 0.017089844 -0.09863281 0.08300781 -0.15820312 -0.08935547 -0.06738281 -0.13964844 -0.12158203 0.08642578 -0.05053711 -0.119628906 0.22753906 -0.09375 -0.13085938 -0.115722656 -0.008483887 -0.08154297 -0.27734375 -0.21191406 0.21777344 0.018432617 0.203125 -0.109375 -0.21386719 -0.20996094 -0.092285156 0.28125 -0.15722656 0.10644531 -0.18164062 0.034423828 -0.10546875 0.015014648 -0.13085938 0.05126953 0.016235352 0.0703125 0.021728516 -0.03125 -0.16210938 0.052978516 -0.045654297 0.19921875 -0.11816406 0.053222656 -0.051513672 -0.012573242 0.076171875 -0.14746094 -0.03881836 0.17480469 -0.12890625 0.15332031 0.02319336 -0.4140625 -0.05029297 -0.24511719 -0.19726562 0.030639648 -0.08496094 0.055664062 -0.020507812 -0.11279297 -0.049560547 -0.041748047 0.13964844 0.11279297 -0.008117676 0.0703125 0.21191406 0.052490234 -0.076171875 0.17871094 0.22753906 -0.11035156 0.12597656 0.032714844 -0.17871094 -0.04272461 -0.15039062 -0.107421875 0.19921875 -0.020751953 0.16210938 0.17773438 -0.27734375 0.026000977 0.3046875 0.26953125 0.22753906 -0.07470703 -0.03149414 -0.005004883 -0.3046875 -0.103515625 0.033935547 0.016845703 0.015563965 -0.025512695 0.037597656 0.14355469 -0.26171875 0.19433594 -0.0859375 0.14257812 0.0154418945 0.07470703 0.01184082 0.05102539 -0.029174805 0.16308594 0.030395508 -0.0056152344 -0.34179688 0.052001953 0.0032043457 -0.37890625 -0.016723633 -0.21777344 -0.02319336 0.20996094 -0.032226562 -0.02368164 -0.028808594 -0.008178711 0.09033203 0.12988281 0.12207031 0.009155273 -0.041015625 -0.07861328 -0.026855469 0.13867188 -0.07324219 0.06933594 0.33007812 0.028808594 0.11035156 0.024780273 0.43945312 0.005645752 -0.14746094 -0.15332031 -0.13183594 -0.033203125 -0.014343262 0.012207031 0.11767578 0.25 -0.25976562 0.16601562 -0.18945312 -0.31835938 -0.08154297 0.017333984 -0.12792969 0.21875 0.049804688 0.0056152344 -0.076171875 0.052001953 0.11376953 -0.119628906 0.11669922 -0.051757812 -0.25 -0.033203125 0.35546875 -0.20507812 0.080566406 -0.13769531 -0.08935547 0.19921875 0.14160156 0.107910156 0.25976562
abandoned 0.17480469 0.17871094 0.09082031 -0.0138549805 -0.1328125 -0.15332031 -0.041992188 -0.012451172 0.10205078 0.17773438 0.22167969 -0.05029297 0.05126953 0.099121094 -0.14355469 -0.16015625 0.060546875 0.08251953 -0.080078125 0.12597656 0.068359375 -0.111816406 -0.009460449 0.095703125 0.14648438 0.16308594 -0.10058594 0.13085938 0.15332031 -0.37890625 0.28125 -0.025390625 -0.19628906 0.007171631 -0.10888672 0.00491333 0.037109375 -0.15527344 -0.037109375 -0.024047852 0.029785156 0.014831543 0.16894531 -0.07910156 -0.10253906 -0.119140625 -0.122558594 0.048339844 -0.011108398 0.024047852 -0.036376953 0.06201172 -0.0703125 -0.06298828 -0.038085938 -0.06542969 -0.08544922 -0.2890625 0.15722656 -0.140625 0.076660156 0.19433594 0.06689453 -0.16210938 -0.33789062 -0.24804688 0.07763672 -0.021484375 -0.21875 0.03857422 0.075683594 0.076660156 -0.13867188 0.23144531 -0.24511719 0.10644531 0.31054688 0.09033203 0.125 0.053466797 0.24023438 -0.06298828 0.051513672 -0.12109375 0.063964844 0.13574219 0.38671875 -0.035888672 0.03173828 -0.10253906 -0.14648438 -0.15136719 0.036865234 0.059814453 0.025390625 0.24511719 -0.09277344 -0.06689453 -0.107421875 -0.028930664 0.16894531 0.13085938 0.071777344 0.20800781 -0.020996094 -0.16992188 0.060791016 -0.111816406 -0.0703125 0.08251953 0.061035156 0.23828125 0.11035156 -0.030151367 0.28515625 0.052978516 0.19140625 -0.09814453 0.11669922 0.2265625 -0.03149414 -0.103027344 -0.038330078 -0.07080078 -0.119140625 -0.1015625 0.115722656 -0.18066406 0.06982422 -0.09423828 -0.024169922 -0.21972656 0.00340271 0.075683594 -0.3359375 0.110839844 -0.28125 -0.13671875 -0.17578125 0.13085938 -0.09277344 0.0087890625 0.11328125 0.30273438 0.06640625 0.063964844 -0.33398438 -0.01965332 -0.21972656 -0.061767578 0.18652344 -0.1640625 -0.11035156 -0.06982422 0.08203125 0.15234375 -0.05883789 -0.061035156 0.019042969 0.099121094 0.017700195 0.09277344 -0.20507812 -0.0051879883 0.025268555 0.041992188 0.18945312 -0.10107422 0.057128906 -0.1796875 -0.14355469 0.33203125 -0.29882812 -0.088378906 0.07470703 0.01928711 0.125 -0.07470703 -0.100097656 0.038085938 -0.059326172 -0.018310547 -0.11035156 0.060546875 0.06738281 -0.08886719 -0.028442383 0.140625 0.05126953 0.13769531 -0.12988281 -0.096191406 0.08886719 0.20996094 -0.019165039 0.2265625 0.08496094 0.045898438 0.13183594 0.29101562 0.076660156 -0.12695312 -0.25195312 -0.39648438 0.03125 0.01940918 -0.045410156 0.21972656 0.25195312 -0.15820312 0.03515625 0.15429688 0.09716797 0.15527344 -0.020263672 0.035888672 0.048339844 -0.119140625 -0.084472656 -0.061279297 -0.17480469 0.14257812 0.12060547 0.0017089844 0.15917969 -0.3046875 -0.056396484 -0.06738281 -0.12451172 -0.13085938 0.110839844 -0.12158203 0.12060547 0.07421875 0.1484375 -0.055908203 0.29296875 -0.22167969 0.2109375 0.029052734 -0.19628906 -0.08642578 -0.016357422 -0.03955078 0.015991211 0.080566406 0.16503906 -0.08154297 0.012023926 -0.17285156 0.09716797 0.10986328 0.03149414 0.1484375 0.099609375 -0.046142578 0.15234375 -0.25 0.057128906 0.048828125 -0.115234375 -0.064453125 0.18945312 0.29882812 0.13476562 -0.13183594 -0.25195312 -0.25390625 -0.099121094 0.03173828 0.076171875 0.022705078 -0.06542969 -0.17675781 -0.16015625 -0.17675781 -0.15429688 -0.08935547 0.15039062 -0.032226562 0.12792969 -0.100097656 0.07763672 0.05419922 -0.04663086 -0.06298828 -0.16503906 0.19726562 -0.020141602 -0.17578125 -0.29492188 0.103515625 -0.34765625 0.110839844 -0.059570312 -0.01574707 -0.00680542 0.075683594 -0.111816406 -0.0625
abandonment 0.014404297 0.08984375 0.13574219 -0.07421875 -0.18457031 0.068847656 0.019165039 -0.13476562 0.23339844 0.08935547 -0.06640625 -0.06933594 -0.10449219 0.30859375 -0.09033203 0.05810547 0.064941406 -0.16308594 -0.21875 -0.07910156 0.115234375 -0.28515625 -0.06933594 0.04272461 -0.015014648 0.20117188 -0.053955078 0.20214844 0.19238281 -0.17089844 0.107421875 -0.12988281 -0.29296875 -0.017456055 -0.16308594 0.140625 0.119628906 0.056640625 0.06640625 -0.1953125 0.118652344 0.13378906 0.09716797 -0.19042969 -0.15136719 -0.26953125 0.05908203 0.17578125 -0.072265625 -0.1484375 0.032714844 0.171875 -0.41992188 0.033447266 0.20214844 0.068847656 -0.32421875 -0.13085938 0.075683594 0.0029144287 -0.09716797 -0.006439209 -0.049316406 -0.15722656 -0.10986328 -0.27539062 -0.032470703 0.13769531 -0.20996094 0.021118164 0.16015625 0.05908203 -0.1640625 0.095214844 0.038330078 -0.3046875 0.16601562 0.26757812 0.055908203 0.28515625 0.19335938 -0.10498047 0.115234375 -0.04272461 0.28320312 -0.114746094 0.30664062 0.092285156 -0.0023651123 -0.022827148 0.048828125 0.067871094 -0.087890625 0.032470703 0.092285156 0.092285156 0.14453125 -0.13867188 -0.19140625 0.13085938 0.22753906 0.11425781 -0.016723633 0.06347656 0.024414062 -0.10449219 0.20605469 -0.012390137 -0.27929688 0.09667969 -0.067871094 0.039794922 0.071777344 0.23242188 0.033447266 0.31054688 0.09423828 -0.0005607605 0.022705078 0.32421875 -0.013549805 0.0703125 -0.059326172 0.061035156 -0.11621094 -0.11425781 -0.020019531 0.0005950928 0.1484375 0.009765625 -0.23144531 -0.030517578 -0.18066406 -0.026611328 -0.21582031 -0.05834961 -0.022216797 -0.20996094 -0.21582031 0.011230469 -0.056396484 -0.16601562 -0.14550781 0.390625 0.08154297 0.21289062 -0.4140625 0.05029297 -0.35742188 0.17089844 0.45507812 -0.26171875 0.3984375 -0.05053711 -0.09375 -0.05517578 -0.076171875 -0.10839844 0.22949219 -0.024780273 0.29882812 0.20800781 -0.140625 0.08544922 0.026000977 0.06591797 0.13769531 0.06982422 -0.09716797 0.10253906 -0.072265625 0.043945312 -0.08105469 -0.22460938 -0.16601562 0.11035156 0.068359375 0.010498047 0.057861328 0.13671875 -0.30859375 0.040527344 -0.064941406 -0.2421875 0.12695312 0.25390625 -0.08300781 0.039794922 0.13378906 0.36132812 -0.00793457 -0.12890625 0.1484375 -0.0011901855 -0.0099487305 0.02368164 -0.052246094 0.07128906 0.06738281 0.07470703 0.041992188 -0.051757812 -0.14257812 -0.36132812 -0.037597656 0.19726562 -0.22949219 0.11230469 0.49804688 0.22949219 -0.025756836 0.16601562 0.2109375 0.18261719 -0.12011719 0.019165039 -0.053466797 -0.47460938 -0.1328125 -0.18164062 0.051513672 0.103515625 0.36328125 -0.028198242 -0.028808594 -0.31054688 0.28515625 -0.1953125 0.19921875 0.11621094 0.0390625 0.0028533936 0.035888672 -0.028320312 0.032958984 -0.08496094 0.23925781 -0.21582031 0.30664062 0.022827148 -0.17675781 -0.11328125 -0.016479492 -0.20800781 -0.30859375 0.16796875 0.14648438 -0.0012054443 -0.06640625 0.12988281 0.013122559 0.119140625 -0.09423828 -0.080566406 -0.17871094 -0.15722656 0.1328125 -0.15429688 -0.06640625 -0.025390625 0.1015625 0.12792969 0.20507812 0.36523438 -0.15527344 -0.034179688 -0.016601562 -0.15136719 -0.20703125 0.0390625 -0.32421875 -0.047607422 -0.07910156 -0.09326172 0.103515625 -0.015075684 -0.0703125 0.22558594 0.09765625 -0.06201172 0.27148438 -0.1328125 0.075683594 0.22363281 0.016235352 0.07373047 0.171875 0.029907227 -0.31640625 0.080566406 -0.25 0.114746094 -0.16308594 0.1171875 -0.01928711 0.040771484 0.060302734 0.071777344 -0.037353516 0.119140625
abduction 0.09326172 0.15136719 0.09765625 -0.22851562 -0.08691406 0.01586914 0.10107422 -0.32617188 0.21777344 0.28320312 0.2734375 -0.103027344 -0.092285156 0.35351562 -0.21484375 0.034179688 0.18359375 0.025268555 0.11328125 0.059570312 0.061523438 -0.06298828 0.041503906 0.17675781 -0.099121094 -0.2890625 0.14355469 -0.41015625 0.26757812 -0.24121094 0.12792969 -0.12060547 -0.0019836426 0.023925781 -0.30273438 -0.15429688 0.40820312 -0.029296875 0.11425781 0.15332031 0.10205078 0.11767578 -0.07763672 0.09033203 -0.08886719 0.044189453 -0.020996094 0.14453125 0.18066406 -0.016723633 0.031982422 0.111816406 -0.010131836 0.34570312 -0.22460938 -0.22558594 -0.12597656 -0.014038086 0.114746094 -0.013183594 0.05493164 0.28710938 -0.059814453 -0.10546875 -0.22363281 -0.19921875 -0.28515625 -0.20898438 0.072753906 0.0016174316 0.03515625 0.14746094 -0.16894531 -0.01373291 -0.125 0.09765625 0.09277344 -0.09765625 0.3203125 -0.103515625 0.375 -0.08642578 0.19140625 0.34960938 -0.24902344 -0.43164062 0.21191406 -0.40820312 0.3125 0.03125 0.078125 -0.46875 -0.31445312 0.14648438 -0.13769531 0.07324219 0.30664062 0.029541016 0.068847656 0.5546875 -0.10498047 -0.15039062 0.12597656 -0.115234375 0.55859375 -0.013183594 -0.12597656 -0.29882812 -0.08496094 0.26171875 0.16503906 -0.07128906 -0.037841797 0.38671875 -0.38476562 -0.24902344 0.20410156 0.0134887695 0.017211914 0.23242188 -0.09082031 0.50390625 0.013000488 0.19628906 0.041259766 -0.122558594 -0.19824219 -0.0859375 0.20703125 0.35546875 -0.0021209717 -0.057617188 0.041015625 -0.033447266 -0.0043029785 0.2109375 0.41992188 0.12597656 -0.3046875 0.21191406 0.2109375 0.16210938 -0.24316406 0.09082031 -0.24316406 0.27539062 -0.43945312 0.3359375 0.14355469 -0.22070312 0.85546875 -0.118652344 0.1640625 0.041992188 -0.0073547363 -0.22851562 0.07324219 0.031982422 0.35351562 -0.26367188 0.17382812 0.16796875 0.30078125 -0.10888672 -0.328125 0.390625 0.23144531 -0.26171875 0.1875 0.3046875 0.45703125 0.17773438 -0.19433594 -0.23339844 0.07763672 0.095214844 0.29882812 0.09863281 0.08886719 -0.083984375 -0.021118164 -0.2109375 -0.19042969 -0.37109375 0.40820312 -0.14746094 -0.22363281 -0.12402344 0.004333496 0.052246094 -0.26171875 0.032470703 0.080566406 -0.3046875 0.20507812 0.07373047 -0.01953125 -0.061523438 0.18652344 0.15234375 0.106933594 -0.17089844 -0.09814453 -0.03955078 0.02722168 -0.010253906 0.10595703 -0.26171875 0.359375 -0.100097656 -0.030761719 0.05029297 0.37304688 0.05859375 -0.091796875 -0.017211914 -0.07714844 -0.21679688 -0.4765625 -0.13964844 -0.0099487305 -0.14941406 0.66796875 0.1484375 -0.171875 0.14648438 -0.072753906 -0.051513672 -0.15332031 -0.015258789 0.22460938 -0.421875 -0.03564453 0.21289062 0.022094727 -0.25390625 0.16894531 -0.25 0.35546875 0.080078125 -0.15234375 0.10058594 -0.2265625 -0.18652344 -0.24414062 0.40234375 -0.15429688 -0.30664062 -0.16992188 0.024047852 0.075683594 0.0030822754 0.0115356445 -0.091796875 0.23632812 0.014709473 0.22460938 -0.14355469 0.2890625 -0.34765625 -0.09765625 -0.21289062 -0.171875 0.296875 -0.10839844 0.34960938 -0.2734375 0.043945312 -0.375 -0.3828125 -0.020263672 0.11425781 -0.1875 -0.028442383 0.23339844 0.13671875 0.25976562 0.07324219 0.028808594 -0.017700195 -0.27929688 -0.15332031 -0.10107422 0.4375 0.0390625 -0.27148438 -0.31640625 -0.10546875 -0.35351562 0.34960938 -0.23828125 0.07324219 -0.16601562 0.14550781 0.22753906 0.028686523 -0.40429688 -0.21582031 -0.071777344 -0.068359375
abortion 0.03173828 0.09716797 0.2734375 0.36328125 -0.30664062 -0.20214844 0.12792969 0.123046875 0.106933594 -0.14550781 0.1953125 -0.1640625 -0.030517578 0.28710938 0.15722656 0.16113281 0.11816406 0.421875 -0.040039062 -0.17773438 0.44726562 0.027954102 0.14648438 0.099121094 0.05029297 0.076660156 -0.07519531 -0.123046875 -0.06982422 -0.17675781 0.28125 -0.13476562 -0.09033203 0.0050964355 -0.012878418 0.171875 -0.091796875 0.28320312 0.064453125 0.0001296997 0.15722656 0.055664062 0.107421875 -0.36914062 -0.4296875 0.041503906 0.30664062 0.2265625 0.09326172 0.16601562 0.09667969 -0.41015625 -0.48046875 0.16601562 -0.08691406 -0.2578125 -0.17285156 -0.10253906 -0.296875 0.125 0.06542969 -0.22363281 -0.068359375 -0.123046875 0.15332031 0.092285156 -0.15917969 0.07128906 0.10644531 0.25390625 -0.15332031 0.08691406 0.33789062 0.2734375 -0.09277344 -0.1171875 0.0058898926 -0.084472656 -0.014465332 0.06347656 0.040771484 0.06591797 -0.14355469 0.018676758 0.041992188 -0.18554688 0.13183594 0.5 0.16503906 0.21679688 -0.26367188 0.111816406 -0.087402344 0.09082031 -0.091796875 0.012329102 0.20996094 0.00592041 0.18164062 0.037597656 0.033203125 0.034179688 0.25 -0.17871094 0.34570312 0.026733398 -0.19238281 -0.35742188 -0.296875 -0.076660156 0.05102539 -0.23828125 -0.0703125 0.092285156 -0.16992188 -0.13574219 0.14257812 -0.21484375 0.20703125 0.31835938 -0.17871094 -0.09472656 0.028930664 0.021362305 -0.19824219 -0.48828125 -0.22460938 0.091308594 0.026367188 0.15527344 0.21289062 -0.30273438 -0.40820312 -0.1796875 0.084472656 -0.30078125 -0.06298828 -0.27734375 0.23242188 -0.015991211 0.18261719 -0.12792969 -0.092285156 0.3671875 0.10986328 -0.06347656 0.018310547 0.095214844 -0.12451172 -0.3125 0.70703125 -0.28710938 0.22070312 -0.54296875 0.34570312 -0.008178711 -0.38867188 -0.23730469 0.09033203 -0.13769531 -0.296875 -0.28515625 0.10644531 0.38085938 -0.28125 -0.48242188 -0.3828125 -0.06591797 -0.4609375 -0.49609375 -0.09423828 0.15039062 0.125 -0.5859375 -0.075683594 -0.14453125 -0.034179688 0.54296875 0.06982422 -0.30859375 -0.6328125 0.01965332 0.234375 -0.087402344 0.087890625 -0.19628906 -0.1484375 0.12451172 -0.37890625 0.076660156 0.26367188 0.047851562 0.060791016 0.045898438 0.10205078 0.0546875 -0.13769531 0.080078125 0.24316406 0.22070312 -0.20410156 0.111816406 -0.20214844 -0.39257812 0.31640625 -0.1875 0.36328125 -0.54296875 0.107421875 -0.39648438 -0.38085938 0.21386719 -0.023803711 -0.26953125 -0.20898438 -0.28515625 -0.041748047 0.13964844 0.27929688 -0.6015625 -0.10449219 0.110839844 0.25195312 -0.20214844 0.19042969 -0.28710938 0.265625 0.10449219 -0.060791016 0.056152344 0.26367188 -0.048828125 -0.29101562 -0.00579834 0.11425781 -0.110839844 0.36523438 -0.15722656 -0.053466797 -0.12158203 0.28515625 -0.265625 -0.016845703 -0.13378906 -0.48632812 -0.10058594 0.041748047 0.45117188 -0.22851562 -0.03881836 -0.4609375 -0.12890625 0.057861328 -0.140625 0.62890625 0.22460938 0.29101562 0.1015625 0.17089844 0.10644531 -0.050048828 0.16210938 -0.096191406 -0.115722656 -0.25585938 0.34765625 -0.24511719 -0.22265625 -0.36328125 -0.10644531 -0.22070312 0.026000977 -0.11328125 -0.009399414 -0.072265625 -0.1875 -0.15527344 -0.18847656 0.10595703 0.23535156 -0.2578125 -0.18847656 0.080566406 0.15625 -0.52734375 -0.30859375 -0.027709961 -0.43945312 -0.375 0.38867188 0.38671875 -0.46484375 0.014160156 0.030029297 -0.03564453 0.45703125 0.53125 0.15429688 0.06542969 0.19921875
abortive 0.087402344 0.32617188 -0.24902344 -0.14257812 -0.076660156 -0.24121094 0.03564453 0.0045776367 0.13671875 -0.09667969 -0.20507812 -0.100097656 0.061279297 0.12597656 -0.14355469 0.20214844 0.13085938 0.018676758 0.30664062 -0.037597656 0.021362305 0.2578125 0.06298828 0.14453125 0.07910156 0.0703125 -0.109375 0.15429688 -0.083984375 0.023803711 0.34960938 -0.16308594 -0.28710938 0.10107422 -0.25585938 0.17871094 -0.15429688 -0.16308594 -0.13476562 -0.20898438 0.09472656 -0.09082031 0.05859375 -0.12158203 -0.064453125 -0.14550781 -0.05517578 0.00491333 0.18066406 -0.100097656 0.052734375 -0.16210938 0.029541016 0.14941406 -0.23925781 -0.10449219 0.024169922 -0.28710938 0.24804688 -0.21972656 -0.005126953 -0.02355957 -0.045166016 0.08691406 -0.20800781 -0.26757812 -0.048583984 0.08203125 -0.06225586 0.096191406 0.056640625 -0.0054626465 -0.09423828 0.37304688 -0.19921875 -0.0067749023 -0.05834961 0.18457031 -0.23925781 0.11767578 -0.022338867 -0.14648438 0.041259766 -0.17382812 0.0013504028 0.08642578 0.0056762695 -0.0079956055 0.059814453 0.0625 0.041748047 -0.16796875 -0.09082031 -0.15039062 0.016723633 0.29492188 0.07910156 -0.22070312 0.18164062 0.5234375 0.21582031 0.17578125 0.25 0.14160156 0.041259766 0.18066406 0.00048828125 -0.029785156 0.13378906 0.076660156 -0.21582031 0.16796875 -0.036865234 -0.10644531 0.13476562 0.08251953 0.29101562 0.03515625 0.32226562 0.28125 0.20898438 0.23925781 -0.11376953 -0.15332031 -0.064941406 -0.11035156 0.11816406 -0.09472656 0.12011719 0.36328125 -0.125 0.1796875 -0.27734375 0.26757812 0.07519531 0.14550781 -0.05126953 -0.072265625 -0.41796875 0.27734375 -0.026000977 0.015991211 -0.017822266 0.092285156 -0.021240234 -0.034179688 -0.34570312 0.24316406 0.038085938 -0.16699219 0.22949219 0.10058594 0.0025024414 0.07519531 0.20996094 -0.20605469 -0.068847656 0.04638672 0.24121094 -0.0546875 -0.12890625 0.10205078 -0.0071411133 -0.12597656 0.24121094 -0.15820312 0.20410156 -0.0043945312 -0.13867188 -0.030517578 0.041259766 0.06738281 -0.09716797 -0.63671875 -0.0040893555 -0.19140625 0.012573242 0.083984375 0.24023438 0.011779785 0.115722656 0.15527344 -0.25976562 0.061279297 0.07519531 0.04272461 -0.07080078 0.27929688 0.16113281 -0.11621094 -0.17871094 0.14746094 -0.017333984 0.125 0.11669922 0.013366699 0.29492188 -0.003112793 -0.11230469 0.23046875 -0.028686523 0.04711914 -0.016357422 0.07080078 0.34960938 -0.10205078 -0.07910156 -0.19140625 -0.07128906 -0.17675781 -0.24707031 -0.03100586 -0.08496094 0.004180908 -0.15429688 -0.3203125 -0.040039062 -0.032714844 0.24804688 0.045898438 0.020751953 -0.021972656 0.19140625 0.359375 0.29101562 0.064453125 0.012451172 -0.140625 0.15625 -0.095703125 0.484375 -0.17382812 -0.09423828 0.14550781 0.08105469 -0.23632812 0.13183594 0.012451172 -0.04248047 -0.23828125 -0.19335938 0.107421875 0.052490234 -0.03540039 0.19726562 0.009521484 -0.007232666 0.13964844 -0.0006713867 -0.13378906 -0.067871094 0.049316406 0.008422852 0.14941406 0.24707031 0.16992188 0.2890625 -0.036865234 0.30664062 -0.23242188 0.096191406 0.017333984 0.36132812 0.022583008 0.044189453 -0.11230469 -0.28515625 -0.3359375 -0.14941406 0.20214844 -0.14746094 0.13183594 0.16992188 0.06347656 0.002960205 -0.0030975342 0.16308594 0.22167969 0.20605469 0.22460938 -0.01977539 -0.05029297 -0.04711914 -0.004638672 -0.13574219 0.0625 -0.12011719 0.11279297 -0.26757812 -0.24902344 -0.25195312 -0.2578125 -0.28125 0.024658203 -0.16308594 0.16308594 -0.005493164 -0.056152344 -0.16699219 0.1328125
abscess 0.13867188 0.25585938 0.015380859 -0.5390625 -0.43164062 0.11376953 -0.100097656 -0.123046875 -0.057861328 -0.072265625 0.0069274902 -0.55078125 0.29296875 -0.24414062 0.040039062 0.51171875 0.12597656 0.38085938 -0.02368164 0.1875 0.111328125 -0.18359375 0.56640625 0.15527344 -0.67578125 -0.17871094 -0.32617188 0.18164062 -0.21777344 -0.48242188 -0.49609375 -0.057861328 0.46289062 0.109375 -0.3828125 0.35742188 0.41992188 0.15625 0.15429688 0.05053711 0.0034484863 0.06689453 0.18457031 0.23242188 0.58203125 -0.31054688 0.13574219 -0.26757812 -0.16210938 0.1484375 -0.02758789 -0.17578125 -0.36914062 -0.084472656 -0.03125 0.16015625 -0.055419922 0.29492188 -0.012756348 -0.06201172 -0.31445312 0.07373047 0.35546875 -0.13769531 -0.17089844 0.30859375 0.06640625 0.103515625 0.375 -0.07519531 -0.20214844 -0.16699219 0.31835938 0.057373047 -0.13867188 -0.079589844 0.17089844 -0.609375 0.20605469 0.19238281 -0.033935547 -0.107421875 -0.13378906 0.022705078 0.006591797 -0.0703125 0.3125 0.44140625 0.70703125 -0.37109375 -0.20605469 0.08496094 0.171875 0.32226562 -0.022705078 -0.010620117 0.31835938 0.119140625 0.16210938 -0.076660156 0.23925781 0.087890625 0.36132812 -0.53515625 0.16308594 -0.22460938 -0.15332031 0.40039062 -0.17675781 -0.375 -0.029052734 -0.59765625 0.55078125 -0.28125 -0.1796875 -0.41992188 -0.09472656 -0.09814453 0.05102539 -0.06738281 -0.07714844 -0.33007812 0.020996094 0.053466797 -0.22265625 -0.20703125 0.18066406 -0.040527344 0.17675781 0.34765625 -0.40039062 0.17871094 -0.5625 0.22558594 -0.203125 0.107910156 -0.092285156 0.18847656 -0.2890625 0.57421875 -0.40039062 0.27148438 -0.171875 -0.02758789 0.30078125 -0.37109375 -0.453125 0.076171875 -0.296875 0.027709961 0.35742188 -0.12988281 0.12451172 0.71484375 0.53125 -0.09472656 -0.087402344 -0.58203125 0.26171875 -0.06347656 0.24804688 0.022216797 0.16308594 -0.41601562 0.15820312 -0.35546875 -0.0005760193 -0.4296875 -0.10644531 -0.029541016 -0.15917969 0.4296875 -0.43554688 0.19433594 -0.28320312 0.09472656 0.07421875 0.1484375 -0.035888672 0.3671875 0.010314941 -0.14941406 0.12597656 0.13964844 -0.096191406 0.19628906 -0.2109375 -0.0703125 0.17089844 0.38476562 -0.26757812 -0.31445312 0.031982422 0.1875 0.14550781 0.0031280518 -0.22460938 0.123535156 0.3203125 -0.00982666 0.119140625 -0.27734375 -0.15527344 0.328125 0.41210938 -0.41015625 -0.1640625 -0.29296875 0.4765625 -0.28125 0.05859375 -0.15527344 -0.15234375 -0.011962891 -0.15722656 0.0079956055 0.03857422 -0.29296875 0.33007812 -0.09277344 -0.43945312 0.2578125 0.03125 0.38867188 -0.09716797 0.14453125 0.0134887695 0.07421875 0.24414062 0.03930664 0.23632812 -0.16796875 -0.13085938 -0.45703125 -0.23925781 -0.10449219 -0.06347656 -0.063964844 0.29101562 -0.048095703 -0.1015625 -0.16796875 -0.045166016 0.04638672 0.34765625 0.07861328 0.1640625 0.26367188 0.17382812 -0.07421875 0.140625 -0.390625 0.25 0.044677734 0.24609375 0.040771484 -0.36328125 0.20117188 -0.13085938 -0.1640625 -0.008483887 0.35546875 -0.05834961 0.38671875 0.032714844 0.103515625 0.15917969 -0.59765625 0.1328125 -0.1953125 0.28125 0.2578125 -0.27734375 -0.17773438 0.35546875 -0.14941406 0.24609375 0.14941406 -0.037841797 0.02368164 0.111816406 -0.24804688 0.056884766 0.36132812 -0.48632812 -0.028564453 0.10888672 0.37695312 0.052490234 0.20410156 0.67578125 0.12695312 -0.1328125 0.059814453 0.10644531 0.15527344 -0.25195312 -0.09033203 0.14648438 0.3203125
absence 0.06738281 0.122558594 -0.3203125 -0.23144531 -0.08691406 0.0625 0.024902344 -0.40234375 0.072265625 0.22167969 0.234375 -0.036376953 0.021972656 0.19335938 -0.11669922 0.11376953 0.20800781 0.020629883 -0.100097656 0.072265625 -0.21191406 -0.02746582 -0.07861328 -0.03515625 -0.16015625 -0.19042969 -0.100097656 -0.052490234 -0.140625 0.37695312 -0.18554688 -0.1171875 0.008239746 0.28515625 -0.024291992 0.10205078 -0.1015625 0.13574219 -0.03564453 -0.05126953 0.21289062 0.014160156 0.104003906 -0.14746094 -0.07519531 -0.15136719 -0.09472656 -0.008728027 0.050048828 -0.0099487305 -0.21289062 -0.049804688 -0.18945312 0.15332031 0.16015625 -0.032470703 -0.110839844 -0.01965332 0.06689453 -0.14550781 -0.083496094 0.060791016 0.050048828 -0.07519531 -0.09716797 -0.059814453 -0.21679688 0.10546875 -0.16210938 -0.029785156 -0.064941406 -0.028564453 -0.07080078 0.050048828 -0.11376953 0.042236328 -0.018066406 0.03930664 0.006958008 0.17578125 0.10644531 -0.064941406 -0.068359375 -0.171875 0.07910156 -0.13867188 0.0021972656 -0.044189453 -0.040771484 -0.051757812 0.140625 -0.16894531 0.056884766 0.1171875 0.17480469 -0.14257812 0.14550781 0.234375 -0.059814453 -0.114746094 -0.025512695 0.118652344 0.032470703 0.10449219 -0.19726562 -0.07421875 -0.016723633 0.015319824 -0.10205078 0.13671875 -0.19042969 0.06982422 -0.046875 0.07421875 0.057373047 -0.32617188 0.036621094 -0.061767578 0.15625 0.20898438 -0.20703125 -0.19140625 0.11230469 0.080566406 -0.03125 -0.110839844 0.07763672 -0.10839844 -0.088378906 0.033691406 -0.031982422 0.17480469 -0.0859375 0.043945312 -0.25 -0.18847656 0.080078125 0.088378906 -0.18554688 -0.02722168 0.18261719 -0.078125 0.091308594 0.057373047 0.08154297 -0.13476562 -0.15332031 -0.23730469 -0.14355469 0.20996094 0.08300781 0.011047363 0.067871094 0.13378906 0.16308594 0.04736328 0.09472656 -0.1953125 0.111328125 -0.07470703 -0.06689453 0.17382812 0.1328125 -0.15332031 -0.07763672 -0.048095703 0.12988281 -0.047607422 -0.111328125 -0.048828125 -0.095214844 -0.0032806396 -0.14160156 -0.096191406 0.0016174316 0.13574219 0.125 -0.47460938 -0.0020599365 0.08886719 -0.036865234 0.12011719 0.390625 -0.055664062 0.20117188 0.044189453 -0.03881836 0.04638672 0.17578125 0.2578125 -0.20410156 -0.110839844 0.03466797 0.068847656 0.13183594 -0.0703125 0.08642578 -0.05834961 0.07714844 0.0014190674 -0.1328125 0.23046875 -0.14453125 0.0066833496 0.25976562 -0.2109375 0.01586914 0.09814453 0.19335938 -0.052246094 -0.100097656 -0.06738281 -0.028076172 0.063964844 -0.13085938 -0.035888672 -0.13769531 -0.15332031 -0.26367188 -0.23535156 -0.051513672 -0.203125 -0.18261719 0.15917969 -0.049804688 -0.15820312 0.22070312 -0.083496094 0.29492188 0.3203125 0.19042969 0.18652344 0.008972168 0.023071289 0.12109375 0.047851562 0.23144531 -0.18164062 -0.15527344 -0.15527344 -0.3125 -0.14453125 0.24414062 -0.37890625 0.009521484 0.37109375 -0.1328125 -0.03173828 0.12109375 0.05908203 0.12109375 -0.06738281 0.018676758 -0.11035156 -0.10205078 -0.16601562 0.37890625 0.14746094 -0.12207031 0.31054688 0.20117188 -0.10546875 -0.023803711 0.21386719 0.0008239746 0.018920898 0.07373047 -0.044677734 -0.083984375 0.012268066 -0.036376953 -0.10205078 -0.078125 -0.26171875 0.21582031 0.0703125 -0.12402344 -0.115722656 0.1640625 0.08886719 0.11816406 -0.15917969 -0.020019531 0.05444336 -0.12890625 0.064453125 -0.004852295 -0.14648438 -0.13183594 0.015014648 -0.13867188 -0.13964844 0.24023438 -0.10839844 -0.15429688 0.11376953 -0.21191406 -0.049316406 -0.06542969 -0.014526367
absent 0.21875 0.022216797 -0.11035156 -0.07763672 -0.46679688 0.055908203 0.16015625 -0.20410156 0.15722656 0.14941406 0.25390625 0.05126953 -0.084472656 0.1875 -0.25 0.25195312 0.30664062 -0.029663086 -0.115234375 0.061035156 -0.11621094 -0.10546875 -0.20019531 -0.13867188 -0.10839844 -0.10546875 0.11425781 0.072265625 0.12988281 0.20800781 0.028808594 -0.17480469 0.053466797 0.20117188 0.038085938 -0.15136719 0.030639648 0.012207031 -0.2421875 -0.045654297 0.15136719 0.18847656 0.13769531 -0.2578125 0.031982422 -0.06689453 -0.099609375 -0.13183594 0.0002861023 0.07373047 -0.33984375 -0.18457031 -0.22167969 0.21289062 -0.015625 0.060791016 0.0051574707 -0.05078125 0.14160156 -0.11767578 -0.11425781 0.012084961 -0.020385742 -0.41992188 -0.075683594 -0.115722656 -0.24511719 0.16601562 -0.34179688 0.055664062 -0.084472656 -0.2421875 0.032470703 0.359375 -0.018310547 0.048339844 -0.032470703 -0.03466797 0.0859375 0.15722656 0.002609253 -0.14257812 -0.047607422 -0.0024261475 0.17578125 -0.2265625 0.018920898 0.037841797 -0.0625 0.033447266 -0.07861328 -0.35742188 0.17285156 0.033203125 0.06591797 -0.23925781 0.21289062 0.23144531 -0.33398438 -0.03881836 -0.052734375 0.016723633 0.024780273 0.0025177002 -0.25585938 -0.21972656 0.02746582 -0.20117188 0.11425781 0.049804688 -0.09082031 0.13085938 -0.04638672 -0.13769531 0.049316406 -0.20507812 0.12890625 -0.16992188 0.20605469 0.084472656 -0.014465332 -0.15332031 0.34570312 -0.08691406 0.04345703 -0.05493164 -0.103027344 -0.17871094 -0.11621094 -0.028686523 -0.10498047 -0.028808594 0.055908203 0.18066406 -0.3203125 -0.22460938 -0.08642578 0.14746094 0.009033203 -0.01940918 0.18652344 -0.056884766 0.140625 -0.016235352 -0.071777344 -0.020874023 -0.31835938 -0.14648438 -0.08691406 0.15039062 0.05883789 0.10253906 0.007751465 0.21679688 0.16113281 0.111816406 -0.10986328 -0.16796875 0.15625 0.009521484 -0.03173828 0.067871094 0.07910156 0.043701172 -0.04638672 -0.07763672 0.053466797 0.111328125 -0.10986328 0.026000977 -0.24121094 0.18457031 -0.22070312 -0.12597656 0.07421875 0.10986328 -0.09667969 -0.33398438 -0.13378906 -0.030273438 0.040527344 0.12451172 0.21972656 0.20703125 0.33007812 0.14355469 -0.15722656 0.053955078 0.015625 0.16210938 -0.087402344 0.041992188 -0.055908203 -0.01361084 0.080078125 0.00592041 0.125 -0.063964844 -0.026000977 0.20410156 -0.027709961 0.12890625 -0.16894531 -0.14160156 0.18261719 -0.080078125 -0.10205078 -0.0019836426 0.0048828125 -0.27148438 0.060791016 0.15820312 -0.12402344 -0.13769531 -0.044433594 -0.09375 -0.048095703 -0.234375 -0.18066406 -0.072265625 -0.14160156 0.07080078 -0.07910156 0.1484375 0.092285156 -0.061279297 0.18359375 0.19726562 0.046142578 0.123046875 0.08984375 0.1328125 0.19628906 0.16699219 0.13964844 0.11767578 0.28710938 -0.34960938 0.12792969 0.05834961 -0.033203125 -0.12988281 0.296875 -0.14257812 0.140625 0.30664062 -0.10107422 -0.15332031 0.17871094 0.015563965 -0.012512207 0.053222656 0.032470703 -0.08984375 -0.25195312 -0.17089844 0.22851562 -0.1484375 -0.122558594 0.328125 0.20996094 -0.11621094 -0.025268555 -0.024414062 0.059570312 -0.10839844 -0.037109375 0.1640625 -0.06542969 -0.10644531 -0.11767578 -0.014099121 -0.123046875 -0.35546875 0.13867188 -0.27929688 -0.1484375 0.060302734 0.13085938 -0.0099487305 0.016113281 -0.24902344 -0.10888672 0.00048446655 -0.030761719 0.049560547 -0.03955078 0.015319824 0.12011719 0.040771484 -0.020629883 -0.13574219 0.20410156 0.07128906 -0.04638672 0.030639648 -0.24804688 0.034179688 0.23828125 0.15234375
absentee 0.15722656 0.019042969 -0.33007812 -0.17675781 -0.15625 0.103027344 0.19824219 0.099121094 0.115722656 0.09277344 0.13476562 0.32226562 -0.018188477 0.25195312 -0.20410156 0.15625 0.36328125 0.092285156 -0.021240234 0.24804688 -0.23828125 -0.27148438 0.16308594 0.125 -0.328125 -0.3046875 0.011779785 0.061035156 0.07128906 0.375 0.23242188 0.16503906 -0.03564453 -0.02722168 0.27734375 -0.08642578 0.21484375 0.017822266 -0.25 0.07373047 0.234375 0.14746094 -0.12109375 -0.26367188 -0.011962891 -0.09375 -0.19433594 0.05102539 -0.06225586 -0.078125 -0.17773438 0.125 -0.23925781 -0.11669922 -0.16015625 -0.14550781 0.06298828 0.17675781 -0.36132812 0.053466797 0.04711914 0.10253906 -0.091796875 -0.19824219 -0.2890625 -0.045654297 -0.25390625 -0.01977539 -0.31054688 0.34179688 0.07714844 0.08691406 0.13183594 0.13183594 0.060791016 0.328125 -0.23828125 -0.061035156 0.09082031 0.119628906 0.03515625 -0.45117188 -0.12792969 -0.056884766 0.52734375 0.05078125 -0.20214844 0.08642578 0.28515625 -0.09814453 0.12451172 0.421875 0.095703125 0.029296875 0.25195312 0.02746582 0.22167969 0.1328125 -0.080566406 -0.068847656 -0.0154418945 -0.20703125 0.265625 0.21289062 0.020629883 -0.22949219 0.07714844 -0.234375 0.15429688 -0.06591797 0.2734375 -0.051757812 -0.17675781 -0.111816406 -0.32421875 -0.04272461 0.03149414 -0.09472656 0.24023438 0.05029297 -0.24707031 0.5703125 0.03540039 0.30273438 0.075683594 -0.08984375 -0.35351562 -0.04711914 0.095214844 0.37109375 0.122558594 -0.12695312 0.2421875 0.021240234 -0.2421875 -0.37695312 -0.23828125 0.33007812 0.026733398 0.3515625 0.032470703 -0.14257812 0.032958984 0.2734375 0.010803223 -0.20117188 -0.55078125 -0.22949219 -0.12060547 0.106933594 0.24316406 0.08300781 0.36914062 0.123046875 0.26953125 0.013366699 0.06591797 -0.11035156 0.296875 -0.3671875 -0.2890625 0.22949219 0.15429688 0.15722656 0.2265625 -0.12988281 0.19140625 0.020019531 -0.10107422 0.31640625 -0.31640625 0.1953125 -0.26171875 -0.16015625 0.20898438 0.09765625 0.091796875 -0.08642578 -0.2578125 0.06591797 -0.2578125 -0.079589844 0.030029297 0.11230469 0.4609375 0.31054688 -0.38476562 0.19921875 0.10546875 0.36132812 -0.20214844 0.41796875 -0.38476562 0.08544922 0.23339844 0.083984375 0.29882812 0.21875 -0.25195312 -0.16601562 0.106933594 0.265625 0.024536133 -0.057373047 0.009216309 -0.3046875 -0.13769531 -0.15625 0.26757812 -0.04736328 -0.056396484 0.24804688 -0.12402344 -0.4296875 -0.38671875 -0.20214844 -0.14941406 -0.2890625 -0.51953125 -0.140625 0.08935547 0.22949219 0.055419922 -0.0034179688 0.028320312 0.023925781 0.140625 0.13574219 0.13574219 -0.29296875 0.41015625 -0.10986328 0.017211914 -0.1953125 0.045654297 0.44921875 0.34375 -0.33007812 -0.22363281 0.01586914 0.296875 -0.51171875 0.30664062 -0.18066406 -0.013366699 0.115234375 -0.009399414 0.32617188 0.04711914 0.08642578 -0.3125 -0.24804688 0.2578125 0.071777344 -0.34570312 -0.23339844 0.004760742 -0.06982422 -0.17675781 0.14746094 0.20996094 -0.19433594 0.0390625 -0.2734375 0.005004883 -0.28710938 0.034179688 0.15820312 -0.31640625 -0.123046875 -0.36914062 0.43164062 -0.19042969 -0.34570312 -0.17285156 -0.3046875 0.25195312 0.34765625 0.14550781 0.125 0.27539062 0.01940918 -0.041992188 0.087890625 -0.3359375 -0.31640625 0.16015625 0.20996094 0.14941406 0.30273438 -0.002319336 -0.095214844 -0.13769531 -0.12695312 0.24609375 0.051513672 -0.15039062 -0.25195312 -0.029174805 -0.15820312
abuse -0.11035156 -0.00048828125 -0.008178711 -0.02734375 -0.13574219 -0.07714844 0.05444336 -0.16992188 0.06933594 0.19433594 0.019165039 -0.16894531 -0.13769531 0.47265625 0.016357422 -0.018188477 0.084472656 0.0138549805 -0.048828125 -0.118652344 0.20507812 -0.17675781 0.4140625 0.00092315674 -0.095703125 -0.27734375 0.12109375 0.16113281 0.09472656 -0.040527344 -0.091796875 -0.20410156 -0.27148438 -0.029174805 -0.12451172 -0.16113281 0.021240234 0.07714844 -0.0625 0.44140625 -0.003540039 -0.0023956299 -0.13671875 -0.107910156 -0.15039062 -0.16601562 0.111328125 0.33203125 -0.23925781 -0.08935547 0.18945312 -0.03515625 -0.16894531 0.29882812 -0.026977539 -0.076171875 -0.22460938 -0.20410156 -0.22265625 -0.0043029785 -0.33007812 0.26953125 0.27734375 -0.052246094 0.107910156 0.007232666 -0.017333984 0.115722656 0.05908203 0.27929688 -0.040283203 0.06347656 -0.14941406 0.26367188 0.3046875 -0.107421875 0.16503906 0.12109375 0.30859375 0.11425781 0.083496094 -0.07324219 0.079589844 0.059814453 0.051757812 -0.19628906 0.059570312 0.24121094 0.06347656 -0.09814453 0.13671875 0.007659912 -0.15820312 0.15625 0.06591797 0.17285156 0.328125 -0.16503906 0.05419922 -0.114746094 0.052734375 0.11669922 0.18164062 0.008300781 0.1171875 -0.14453125 0.008972168 0.19238281 -0.068359375 -0.072753906 0.017211914 0.26953125 -0.106933594 -0.11767578 -0.27539062 0.10205078 -0.0035858154 -0.007232666 0.103027344 0.27148438 -0.33398438 0.1796875 0.20703125 -0.01953125 -0.12402344 -0.38476562 -0.23339844 0.06542969 0.24511719 -0.19140625 -0.32226562 -0.265625 -0.24804688 -0.084472656 0.03466797 -0.23144531 0.15234375 -0.17382812 -0.046875 0.018676758 0.12890625 0.11376953 -0.47070312 0.027832031 -0.011352539 -0.04736328 -0.14648438 0.05102539 0.00025367737 -0.18359375 0.60546875 -0.11328125 0.24609375 -0.048339844 0.003250122 0.16308594 -0.17382812 -0.1953125 0.24902344 -0.33984375 0.20117188 0.26953125 -0.21582031 -0.22363281 -0.19238281 0.265625 -0.10058594 -0.19726562 0.100097656 0.046875 -0.13769531 0.13476562 -0.02746582 -0.0052490234 -0.0045166016 0.009521484 0.100097656 -0.08984375 0.114746094 0.27148438 -0.03173828 0.052001953 -0.34375 -0.0703125 0.010375977 -0.012084961 -0.1953125 0.041503906 -0.16699219 0.21972656 0.25976562 -0.3046875 0.099121094 -0.39257812 -0.11376953 0.1484375 0.052734375 -0.27148438 -0.12988281 -0.24121094 0.06298828 0.0023651123 0.12988281 -0.15234375 0.026245117 0.30859375 0.19042969 0.09375 0.123535156 0.18652344 -0.056884766 0.076660156 0.029296875 -0.091308594 0.02734375 0.025634766 0.084472656 0.091308594 -0.45703125 -0.33203125 -0.29101562 -0.02746582 0.12890625 0.10986328 0.06542969 -0.12207031 0.28710938 -0.15136719 0.16894531 0.08691406 -0.390625 -0.059326172 -0.10498047 -0.04296875 -0.19140625 -0.32226562 0.09277344 -0.083496094 0.25390625 -0.27734375 0.17285156 -0.37109375 0.23828125 -0.17871094 -0.140625 0.14160156 -0.20996094 -0.056396484 0.1796875 -0.18945312 0.14941406 -0.11035156 0.140625 -0.123046875 -0.08300781 0.24707031 0.20605469 -0.080566406 -0.036621094 -0.18066406 -0.1328125 -0.06542969 0.014160156 0.17675781 -0.19921875 -0.06689453 -0.059326172 0.33398438 -0.16308594 -0.080566406 0.07324219 0.17871094 0.07128906 0.19042969 -0.057861328 0.09423828 0.099121094 -0.044433594 -0.3359375 0.08544922 0.115722656 -0.08203125 0.20605469 0.44921875 -0.111816406 -0.10205078 -0.10644531 -0.13085938 0.10449219 0.15820312 0.21972656 0.119140625 0.03540039 0.23730469 -0.32421875 0.18261719 -0.16503906 -0.24414062 -0.11230469 0.088378906
abysmal 0.091308594 0.16015625 0.13671875 -0.122558594 -0.025634766 0.15429688 -0.032470703 -0.111328125 0.28515625 0.24023438 -0.15917969 0.08691406 0.11669922 -0.0625 -0.049316406 0.2578125 0.3671875 -0.13964844 -0.17871094 -0.025390625 0.0625 0.27148438 -0.103515625 -0.19140625 0.31445312 -0.01977539 0.02319336 0.12597656 0.010375977 -0.024780273 -0.11425781 -0.16308594 -0.05102539 0.013793945 -0.061279297 0.40039062 -0.009643555 -0.125 0.007293701 0.10888672 0.27148438 -0.16308594 0.1328125 -0.044677734 0.09667969 -0.10253906 0.06982422 0.13085938 -0.03149414 -0.0625 0.12060547 0.25 0.038085938 0.0859375 -0.014892578 -0.10595703 -0.1484375 -0.07324219 0.16015625 -0.13378906 -0.051757812 0.49414062 -0.27539062 -0.45117188 0.16210938 -0.24804688 -0.14355469 0.14453125 -0.16894531 -0.04711914 -0.091796875 -0.17089844 -0.07080078 0.140625 -0.03125 -0.022460938 0.024047852 -0.07324219 0.13183594 0.056152344 -0.16308594 0.05053711 -0.26953125 -0.04736328 0.036865234 0.057373047 -0.12451172 -0.072265625 -0.22851562 0.18261719 0.03515625 0.042236328 -0.19335938 -0.056640625 0.096191406 0.05517578 0.29492188 0.28320312 0.12695312 0.104003906 0.20117188 0.12890625 -0.20800781 -0.19335938 0.09375 -0.079589844 0.03515625 -0.038330078 -0.05517578 -0.11279297 0.24316406 -0.036865234 -0.33398438 0.015380859 0.16210938 -0.01586914 0.28125 -0.25390625 0.049072266 0.06982422 -0.265625 -0.061767578 0.171875 -0.104003906 -0.18164062 -0.060791016 -0.068847656 -0.16113281 0.095703125 0.021240234 -0.20410156 -0.024414062 -0.06689453 0.115722656 -0.09423828 0.025756836 -0.0033569336 -0.067871094 -0.43554688 -0.15917969 -0.12597656 0.36523438 0.21386719 0.42382812 -0.05419922 -0.2890625 -0.06347656 0.0040283203 0.030029297 0.19140625 0.2109375 0.072265625 -0.08154297 0.3984375 -0.12890625 -0.13769531 -0.16992188 0.06542969 0.08886719 -0.059326172 -0.079589844 -0.025512695 0.2890625 -0.14941406 0.032470703 -0.18457031 -0.047851562 -0.421875 0.20703125 -0.14648438 0.003036499 -0.115722656 -0.05053711 0.24609375 0.18066406 0.08105469 0.15722656 -0.46875 0.08886719 -0.08935547 -0.125 -0.16894531 0.07763672 0.1796875 -0.12597656 0.19238281 -0.3359375 0.0703125 -0.1796875 0.091308594 -0.18261719 -0.17089844 0.0056762695 0.14550781 -0.23925781 0.08300781 0.1796875 -0.06591797 -0.17578125 0.26953125 -0.28320312 0.421875 0.029785156 -0.30664062 0.421875 0.0119018555 -0.17382812 -0.032470703 -0.23925781 0.16699219 -0.100097656 0.03515625 0.072753906 -0.053222656 -0.28515625 0.096191406 0.41796875 0.021240234 0.07128906 -0.11425781 -0.28125 0.076171875 -0.24511719 0.16503906 0.17089844 -0.01574707 0.15917969 -0.030639648 0.009277344 -0.0016479492 0.0058288574 -0.07421875 0.15429688 0.17285156 -0.06640625 0.13378906 0.13867188 -0.021240234 0.19433594 0.024291992 0.016845703 0.083984375 0.084472656 -0.36328125 -0.1796875 0.024414062 0.123046875 -0.08154297 -0.29882812 -0.16015625 -0.19433594 -0.012512207 0.13574219 0.13378906 0.068847656 -0.39257812 0.3515625 0.1953125 0.1484375 -0.16113281 -0.118652344 0.27734375 0.42382812 0.20117188 0.12695312 -0.096191406 -0.234375 -0.28125 -0.05834961 -0.203125 -0.012145996 0.13671875 -0.05493164 -0.26171875 -0.25195312 0.014404297 0.18457031 -0.14746094 0.08496094 0.009094238 0.15722656 -0.26757812 0.0046691895 0.15527344 -0.31054688 -0.09423828 0.12695312 0.07910156 0.02746582 -0.15527344 -0.0018081665 0.10449219 -0.13671875 0.21875 -0.20410156 -0.19042969 -0.20019531 -0.11621094 -0.11816406 0.122558594
abyss 0.022583008 -0.1640625 -0.026000977 -0.061523438 -0.15136719 0.12597656 0.033447266 -0.60546875 0.22558594 0.13183594 -0.13476562 0.04345703 0.099121094 0.11376953 -0.038330078 0.18457031 0.21972656 -0.12597656 0.06640625 -0.07910156 0.4921875 -0.0073242188 0.11035156 -0.25 0.2734375 0.115722656 0.10107422 0.18457031 0.27929688 -0.28515625 -0.44140625 0.1484375 0.049316406 0.31835938 -0.38476562 0.22265625 -0.18066406 -0.10986328 0.080566406 -0.12158203 -0.16796875 -0.32226562 0.5 -0.296875 -0.19726562 0.21679688 -0.23632812 -0.07470703 0.02331543 -0.076171875 -0.35546875 0.29101562 -0.020629883 -0.06201172 -0.036376953 0.059814453 0.12988281 0.14160156 0.0022125244 -0.15234375 -0.15429688 0.091308594 0.234375 0.008666992 -0.099121094 -0.20996094 0.16699219 0.44335938 0.0001296997 -0.27734375 -0.20605469 -0.36328125 0.07080078 -0.22460938 0.20507812 -0.24316406 0.064453125 -0.028442383 0.23144531 -0.19921875 0.125 0.1953125 -0.28515625 -0.21582031 -0.076660156 0.3984375 0.088378906 -0.23144531 0.14550781 -0.08203125 -0.21679688 -0.00970459 0.020874023 -0.0038452148 0.026123047 0.029785156 0.3828125 0.17089844 -0.09375 -0.19628906 -0.09863281 0.049072266 0.114746094 -0.087402344 -0.13085938 0.026000977 -0.20117188 0.04296875 -0.029418945 -0.096191406 -0.16699219 0.22460938 0.13867188 -0.043701172 -0.032470703 0.21777344 -0.18652344 0.07324219 0.08154297 0.20410156 -0.015625 0.008361816 -0.14746094 0.109375 -0.44921875 -0.09667969 -0.28515625 0.16796875 0.2421875 0.14648438 0.053955078 -0.015625 -0.19433594 -0.0390625 0.10595703 -0.067871094 -0.11816406 -0.13671875 0.13769531 0.140625 -0.3984375 -0.12597656 -0.34960938 0.35351562 0.38085938 0.004058838 -0.3515625 0.025146484 0.22363281 0.18066406 0.29101562 -0.18066406 -0.16113281 0.03100586 -0.31835938 0.12011719 -0.20605469 0.103515625 -0.24316406 -0.05859375 -0.028930664 0.05102539 0.1328125 -0.24902344 0.026977539 -0.33984375 -0.030517578 0.030273438 -0.14453125 0.33007812 0.08105469 -0.16210938 -0.12792969 0.20703125 0.26367188 -0.36914062 0.087890625 0.009338379 0.06689453 -0.099121094 -0.43945312 -0.40820312 0.046875 -0.040283203 -0.11425781 0.039794922 -0.24804688 0.21777344 -0.041992188 -0.010620117 0.55859375 0.09375 -0.0053100586 0.21582031 -0.44140625 0.19628906 -0.22558594 0.22070312 -0.17382812 -0.016967773 -0.034179688 0.08984375 -0.12109375 -0.23339844 0.25976562 -0.056152344 0.20898438 -0.12890625 -0.4765625 -0.068847656 -0.20117188 0.19335938 -0.21582031 0.10888672 -0.39453125 -0.122558594 0.061035156 -0.140625 0.32617188 0.19335938 0.22265625 -0.05102539 0.03466797 0.39257812 -0.12695312 -0.107421875 0.5546875 -0.36328125 -0.26171875 -0.13574219 0.021118164 -0.16796875 0.1953125 -0.052978516 0.25 0.28125 -0.04272461 0.4296875 0.14257812 -0.36132812 0.10253906 -0.18164062 -0.21289062 -0.017333984 -0.060546875 0.003036499 0.15039062 0.037841797 0.018676758 -0.010253906 0.26757812 -0.018554688 -0.04663086 0.40820312 -0.40625 -0.34960938 0.40039062 -0.26953125 -0.12109375 -0.12792969 0.056396484 0.22460938 0.10498047 0.23144531 -0.056640625 0.14257812 -0.24023438 0.14257812 -0.111816406 -0.1953125 0.07910156 0.20800781 0.06298828 -0.171875 -0.020019531 0.37304688 -0.12597656 -0.09033203 0.033447266 -0.064453125 -0.14257812 -0.5078125 0.20800781 0.011779785 0.05883789 0.030029297 -0.2578125 -0.04663086 0.30664062 -0.09716797 -0.30078125 0.053222656 -0.23828125 0.088378906 -0.34765625 0.21386719 0.08105469 -0.06738281 0.087402344 0.09765625
accident 0.11376953 -0.095703125 0.08691406 -0.375 -0.04345703 0.004180908 0.072265625 -0.40625 0.18359375 0.08886719 0.14355469 -0.043945312 -0.19824219 -0.234375 -0.17675781 0.12988281 -0.083496094 0.15917969 0.44921875 -0.1796875 0.15234375 0.06640625 -0.17089844 -0.02758789 0.088378906 -0.041503906 -0.041992188 -0.12890625 0.26953125 -0.375 -0.100097656 -0.30273438 0.07519531 0.064453125 0.063964844 0.11035156 0.2734375 -0.1328125 -0.01361084 0.13867188 -0.04663086 -0.11035156 0.15429688 0.045410156 0.00011730194 -0.29296875 -0.110839844 0.11279297 0.15429688 0.15820312 0.11816406 0.23339844 0.052734375 0.056640625 0.25195312 0.123046875 0.080078125 0.20214844 -0.203125 -0.16796875 0.06933594 0.12695312 0.076660156 -0.30273438 0.24023438 0.114746094 -0.06738281 -0.037841797 -0.18359375 -0.028686523 -0.23925781 -0.1328125 -0.07421875 -0.034179688 -0.11035156 0.07470703 0.011169434 -0.32226562 -0.11767578 0.026123047 0.42773438 -0.18945312 0.21386719 -0.19433594 -0.35546875 -0.022338867 -0.24316406 0.046142578 -0.11767578 -0.014099121 0.036621094 -0.049804688 0.24804688 0.26367188 -0.04296875 0.17871094 0.056152344 0.078125 -0.049560547 -0.12988281 0.088378906 -0.12890625 0.14453125 -0.092285156 0.1171875 -0.020629883 0.0011444092 -0.103027344 -0.09472656 0.13378906 -0.123535156 -0.14257812 0.30273438 -0.20996094 0.060058594 -0.18847656 0.068359375 -0.09423828 -0.20019531 0.359375 -0.1015625 0.2578125 0.15429688 0.34765625 -0.0625 -0.08544922 -0.002166748 -0.30859375 0.16113281 0.16699219 -0.31054688 -0.1328125 -0.16796875 -0.10986328 0.17675781 -0.04638672 -0.057128906 -0.13769531 -0.37304688 0.35351562 0.0061950684 0.095703125 -0.052978516 0.16308594 -0.06201172 -0.0043945312 -0.53515625 0.028930664 -0.31640625 -0.41601562 -0.057373047 -0.25585938 0.03930664 -0.03100586 -0.0703125 0.020019531 0.08300781 0.36328125 -0.05126953 -0.32226562 0.00021839142 0.2578125 0.18066406 0.20898438 -0.099121094 0.001953125 0.03515625 -0.055419922 0.049316406 -0.12011719 0.0022735596 0.049316406 -0.055419922 -0.15136719 -0.07861328 -0.24609375 0.19433594 0.0052490234 0.10253906 -0.044433594 0.11035156 0.15136719 -0.19726562 -0.17480469 0.22167969 0.359375 0.060302734 0.16992188 0.068359375 0.25 0.140625 0.005554199 -0.30078125 -0.06640625 0.31835938 0.2578125 0.31445312 -0.38671875 -0.017333984 -0.078125 0.08642578 -0.122558594 -0.16894531 0.09326172 -0.13183594 -0.08642578 -0.10449219 0.020141602 0.21679688 -0.107421875 0.25585938 0.018798828 0.14355469 0.103515625 -0.1640625 0.1484375 0.051757812 -0.18066406 -0.18554688 -0.111328125 -0.28710938 -0.068847656 0.13085938 -0.012084961 0.1328125 -0.21875 0.13867188 0.16894531 -0.06640625 0.025024414 0.41015625 0.049804688 -0.118652344 -0.38085938 -0.09472656 -0.033935547 0.06201172 -0.087402344 0.11669922 0.080078125 -0.09375 -0.055908203 -0.17480469 -0.51171875 -0.03881836 0.24609375 -0.265625 -0.20214844 0.08154297 -0.67578125 0.1328125 -0.20800781 0.103515625 -0.032958984 0.15625 -0.036865234 0.1796875 0.28320312 -0.064941406 -0.12792969 -0.2890625 -0.10986328 0.37695312 0.44335938 0.041015625 0.28125 -0.014892578 -0.05102539 -0.234375 -0.14648438 -0.13183594 0.12597656 -0.14648438 -0.09326172 -0.22265625 0.07714844 0.36132812 0.19628906 -0.20800781 0.1328125 -0.050048828 -0.016845703 0.0625 0.19335938 -0.115234375 -0.076171875 0.078125 0.11816406 0.015319824 0.22558594 0.16210938 -0.171875 -0.056640625 0.15332031 -0.17285156 0.032714844 -0.13476562 -0.25585938 -0.084472656 -0.08935547
accursed 0.33984375 -0.05908203 0.123046875 -0.0024414062 0.043945312 0.40039062 -0.03930664 0.1171875 -0.08691406 0.2578125 -0.20996094 -0.030761719 -0.39257812 0.22363281 0.0028533936 0.029541016 0.265625 -0.11816406 0.21191406 0.14355469 0.16601562 -0.056884766 0.12402344 -0.23925781 0.20214844 0.15527344 -0.009460449 0.103515625 0.080078125 -0.049072266 0.067871094 0.1484375 -0.041259766 0.10253906 -0.22460938 0.122558594 0.103027344 -0.31445312 0.014892578 -0.07080078 0.41601562 0.011779785 0.30859375 -0.20117188 0.1484375 0.2265625 0.12890625 0.12890625 -0.16015625 0.075683594 -0.28515625 0.18066406 0.103027344 0.11279297 0.10449219 -0.076171875 -0.039794922 -0.2578125 0.0040893555 0.075683594 0.11230469 0.16699219 0.14257812 -0.37304688 0.2578125 -0.359375 -0.12451172 0.111328125 -0.3984375 0.26367188 0.35546875 0.23046875 -0.0625 -0.10986328 -0.057373047 -0.21484375 -0.16503906 0.1484375 -0.037841797 -0.048583984 0.024047852 -0.05883789 -0.12695312 -0.01965332 -0.13378906 0.25585938 0.109375 0.27734375 0.234375 0.024047852 -0.084472656 0.25 -0.115234375 0.06689453 -0.028442383 0.004272461 0.23242188 -0.03173828 0.064453125 -0.01940918 -0.14160156 0.0028533936 0.15136719 -0.060791016 -0.203125 -0.13769531 -0.18261719 0.18945312 -0.13183594 0.09716797 -0.125 -0.111816406 0.22363281 0.11376953 0.123535156 0.10644531 -0.06542969 -0.0058898926 0.38867188 0.25390625 -0.047851562 -0.030395508 -0.23144531 -0.48242188 -0.20117188 0.064453125 0.067871094 0.013793945 0.06640625 0.18847656 -0.18457031 0.29101562 -0.29296875 -0.16992188 0.012634277 0.04736328 -0.056152344 -0.08935547 0.12402344 0.056396484 0.15136719 0.020507812 -0.10058594 -0.063964844 0.20996094 -0.13964844 -0.060058594 -0.029663086 0.05859375 -0.17871094 0.046875 0.16113281 -0.17675781 0.16601562 -0.019042969 -0.29101562 -0.21777344 0.24316406 -0.16796875 -0.14550781 0.056396484 -0.110839844 0.16601562 -0.38867188 -0.075683594 -0.14941406 0.28710938 -0.08251953 -0.390625 0.09423828 -0.1640625 0.0625 -0.17675781 -0.16503906 0.22363281 0.051513672 -0.10205078 -0.25976562 0.076171875 -0.13476562 -0.03930664 -0.084472656 -0.064453125 0.20605469 -0.21289062 0.27539062 -0.15136719 -0.035888672 0.24902344 0.17480469 -0.123046875 0.12597656 -0.02734375 0.2265625 -0.1484375 -0.013793945 -0.111328125 -0.05444336 -0.2890625 0.025268555 0.072265625 0.15234375 -0.22851562 -0.28320312 0.013793945 -0.03173828 0.021606445 0.0859375 -0.28320312 -0.2578125 -0.17675781 0.103515625 -0.09375 -0.21679688 -0.15234375 -0.008056641 -0.052734375 -0.12695312 0.051513672 -0.027954102 0.09277344 -0.04272461 0.08251953 0.025634766 0.051513672 -0.014221191 0.16113281 0.11669922 0.0546875 -0.016723633 0.056152344 0.012084961 -0.12988281 0.14746094 0.23535156 0.09667969 0.027832031 0.04663086 0.25390625 0.026245117 -0.041992188 -0.27734375 -0.0019378662 0.007171631 0.014404297 0.10986328 0.03125 -0.08984375 -0.095703125 0.12011719 0.010009766 -0.010437012 -0.049804688 0.3515625 -0.037597656 -0.38671875 0.021484375 -0.33789062 0.032470703 -0.19824219 0.091796875 0.1796875 0.10595703 0.22753906 -0.003829956 -0.08691406 -0.096191406 -0.05810547 0.07324219 0.055419922 0.0126953125 0.125 0.068359375 0.16894531 -0.15722656 -0.32421875 -0.11816406 0.14160156 -0.07373047 0.12890625 0.09082031 0.18847656 0.080078125 -0.11621094 -0.088378906 0.30078125 -0.021240234 0.026855469 -0.09423828 -0.15722656 -0.022460938 0.16894531 -0.14648438 -0.14257812 0.05053711 -0.14355469 -0.29101562 -0.33007812 -0.06298828 0.07910156
ache 0.09765625 -0.041748047 -0.23828125 0.19726562 -0.19140625 0.2734375 0.17480469 -0.08691406 0.02709961 0.27929688 -0.3125 -0.02746582 -0.15234375 0.10888672 0.041503906 0.34960938 0.08154297 0.30078125 0.04638672 -0.29296875 -0.16308594 0.17675781 0.171875 0.111816406 -0.095703125 -0.23339844 -0.061279297 -0.04248047 -0.07080078 -0.3125 -0.40234375 0.20605469 0.10986328 -0.0625 -0.29296875 -0.099609375 0.25 0.10839844 0.24707031 0.020629883 -0.0859375 -0.24414062 0.07910156 -0.25195312 0.11376953 -0.052246094 -0.022338867 0.20507812 0.071777344 0.05078125 -0.33398438 0.296875 -0.46875 0.032958984 0.3359375 -0.15625 -0.13867188 -0.05493164 0.078125 0.20117188 -0.033203125 0.11767578 -0.03955078 -0.15136719 -0.029785156 -0.0703125 -0.31640625 0.118652344 -0.28320312 -0.15722656 0.12109375 0.059814453 -0.06982422 0.08154297 -0.31835938 -0.13378906 0.20898438 -0.011657715 0.11279297 0.2578125 0.107910156 -0.16894531 0.08935547 0.10205078 -0.22460938 0.24023438 0.02355957 -0.1015625 0.08984375 0.09326172 -0.14453125 0.14941406 -0.13378906 0.095214844 -0.27148438 -0.041503906 0.24511719 0.08544922 0.03125 -0.20605469 -0.27148438 -0.0077819824 0.19628906 -0.14257812 0.20996094 -0.08886719 -0.0032958984 0.44335938 0.16113281 -0.16894531 -0.024658203 -0.25195312 0.30664062 -0.057617188 0.17773438 -0.22363281 -0.27929688 0.09765625 -0.2578125 0.022705078 -0.33007812 -0.13183594 -0.031982422 0.006225586 -0.27734375 -0.24804688 -0.037109375 -1.2099743e-05 0.03930664 0.13183594 -0.30664062 0.2578125 -0.24316406 0.05078125 -0.19726562 -0.026611328 -0.12060547 0.09375 -0.12402344 0.05493164 -0.00045204163 -0.11767578 -0.106933594 0.006591797 -0.19921875 -0.18847656 -0.08691406 -0.12402344 -0.3125 -0.36523438 0.25585938 -0.008666992 0.2734375 0.33007812 0.14648438 -0.049560547 -0.10058594 -0.20117188 -0.18359375 -0.19628906 0.28710938 -0.10449219 -0.05883789 0.20898438 0.18554688 -0.25390625 0.13671875 -0.24707031 0.13574219 -0.09472656 0.032226562 0.14355469 -0.30273438 -0.056884766 -0.1328125 -0.36132812 0.0027313232 0.15136719 0.13085938 -0.15527344 -0.049072266 0.08154297 0.1484375 0.0027770996 -0.43359375 0.11816406 0.0049438477 -0.08251953 0.20800781 0.06982422 -0.25585938 -0.19726562 0.032470703 0.12402344 -0.09765625 0.37109375 0.1484375 0.27929688 0.063964844 0.1171875 -0.23144531 0.04638672 -0.068359375 0.23242188 0.20703125 -0.13964844 -0.11669922 0.018066406 0.10449219 0.14355469 -0.079589844 0.15332031 -0.25976562 -0.09765625 -0.2734375 -0.10986328 -0.359375 0.31054688 -0.39453125 -0.38476562 -0.021728516 0.23632812 -0.115234375 0.014587402 -0.13671875 -0.05883789 -0.21484375 -0.19921875 0.078125 0.13964844 0.18359375 0.1328125 -0.118652344 0.453125 -0.0390625 0.3125 -0.43359375 -0.07714844 -0.15332031 0.020385742 0.20703125 -0.20214844 -0.036132812 -0.13574219 0.08251953 0.31835938 0.1015625 0.21777344 0.11621094 0.25390625 0.059814453 0.056396484 0.23046875 0.109375 0.12597656 -0.33398438 -0.0008430481 -0.13964844 0.08251953 0.14648438 0.10449219 0.0070495605 0.039794922 0.035888672 -0.12451172 0.091308594 -0.037841797 -0.14355469 -0.08935547 -0.19335938 -0.023925781 0.29101562 0.30273438 0.044433594 0.06225586 -0.30859375 -0.2890625 0.2421875 -0.15625 -0.015563965 0.12988281 -0.23046875 -0.02709961 -0.037597656 0.04711914 -0.031982422 -0.16503906 0.25 -0.14453125 0.40429688 0.107421875 0.02319336 -0.036865234 -0.30273438 -0.056396484 0.11328125 -0.07080078 0.08496094 -0.006439209 0.31445312
aching 0.12597656 -0.07324219 -0.12988281 0.099121094 -0.15820312 0.26953125 0.26171875 -0.359375 -0.10205078 0.25976562 -0.25195312 0.106933594 -0.16503906 -0.020751953 0.22460938 0.23242188 0.14746094 0.31640625 0.07421875 0.076660156 -0.13183594 0.28710938 0.0069885254 0.034423828 0.009033203 -0.23925781 -0.14453125 0.056396484 0.050048828 -0.25 -0.057617188 0.31054688 0.20507812 0.03515625 -0.17675781 -0.02368164 0.13183594 -0.0025482178 0.2890625 0.11816406 -0.047851562 -0.25390625 -0.0032196045 -0.22851562 0.16210938 0.01977539 -0.092285156 0.15332031 0.40820312 0.22070312 -0.31054688 0.3671875 -0.35742188 0.21972656 0.3359375 0.10253906 -0.044921875 -0.021728516 0.083984375 0.14648438 0.19238281 0.28515625 0.11328125 -0.13476562 0.15332031 -0.009887695 -0.125 0.084472656 -0.068359375 -0.005554199 0.0076904297 0.044921875 -0.080078125 0.15429688 -0.19433594 -0.1015625 -0.0030059814 -0.05102539 0.020507812 0.08984375 0.13574219 -0.06933594 0.010986328 0.004425049 -0.25195312 0.1484375 -0.006225586 0.13476562 0.076660156 0.16796875 -0.19335938 0.2734375 0.14355469 0.07714844 -0.19140625 0.17382812 0.3125 0.075683594 -0.24511719 -0.36328125 -0.265625 -0.14746094 0.2890625 -0.26367188 -0.014465332 0.115722656 -0.055419922 0.18261719 0.203125 0.022583008 0.09082031 -0.037109375 0.10253906 0.123046875 0.04711914 -0.15332031 0.014160156 0.06933594 0.08984375 0.1484375 -0.37890625 -0.1640625 0.05053711 -0.1875 -0.036865234 -0.29492188 -0.0625 -0.15039062 0.12597656 0.060302734 -0.19433594 0.31445312 -0.25976562 0.10888672 -0.20898438 -0.056640625 -0.17871094 0.19433594 -0.14746094 -0.037597656 -0.040527344 0.09326172 0.0013046265 0.07080078 0.012207031 -0.24609375 -0.09765625 -0.07128906 -0.34179688 -0.24511719 0.2890625 0.007080078 0.203125 0.13867188 0.17675781 -0.07470703 -0.014343262 -0.18945312 -0.10107422 -0.10253906 0.060058594 -0.06542969 0.017333984 -0.018554688 0.19921875 -0.15039062 0.059326172 -0.10546875 0.18066406 -0.18066406 -0.18261719 0.05029297 -0.30859375 0.072753906 0.044433594 -0.27539062 0.032226562 -0.12402344 -0.12011719 -0.17675781 -0.15039062 0.037109375 0.1796875 -0.064453125 -0.42382812 -0.021728516 -0.22753906 -0.057128906 0.25390625 -0.06982422 -0.1640625 -0.20410156 0.31835938 -0.01574707 -0.17382812 0.421875 0.076660156 0.076171875 0.08154297 0.19238281 -0.25585938 0.17382812 -0.068847656 0.38671875 0.22851562 -0.12988281 -0.103027344 -0.03857422 0.2734375 0.08496094 -0.23144531 0.22070312 -0.29492188 0.07714844 -0.2265625 -0.007446289 -0.15136719 0.22070312 -0.17089844 -0.30273438 -0.21386719 0.18164062 -0.06542969 -0.103027344 0.115234375 0.14648438 -0.21386719 -0.25 0.052734375 0.10449219 0.14746094 0.05444336 -0.14453125 0.05102539 -0.16699219 0.3359375 -0.06933594 -0.10644531 -0.03955078 0.05859375 0.12451172 -0.110839844 -0.11230469 -0.27734375 0.20898438 0.07910156 -0.021606445 0.07714844 -0.053955078 0.29296875 0.08203125 0.03466797 0.12695312 0.22265625 0.13476562 -0.30664062 0.24023438 -0.1875 -0.07519531 0.24707031 -0.02355957 0.015197754 0.14550781 0.100097656 -0.13378906 0.06225586 0.036376953 -0.0067443848 -0.026489258 0.079589844 -0.03540039 0.30078125 0.25 -0.0011825562 0.041259766 -0.20605469 -0.17480469 -0.026489258 0.037841797 -0.12451172 0.22460938 -0.18457031 -0.04711914 -0.20117188 -0.12207031 0.011474609 0.032958984 0.33789062 -0.08544922 0.029296875 -0.025268555 0.010437012 0.031982422 -0.21484375 -0.13671875 0.17675781 -0.14550781 0.091308594 0.06933594 -0.01574707
adder -0.011352539 0.08984375 0.08105469 0.03149414 0.019165039 0.27734375 -0.083496094 0.25585938 0.11035156 0.33984375 0.071777344 -0.28710938 -0.08642578 -0.296875 0.328125 -0.13769531 -0.13476562 -0.17871094 -0.0134887695 -0.29101562 -0.12890625 -0.34765625 -0.010253906 0.27734375 -0.028930664 -0.03857422 -0.515625 0.43554688 0.23925781 0.045654297 0.030883789 0.19433594 -0.26757812 0.106933594 -0.044433594 -0.09765625 0.06738281 0.0029449463 0.29101562 0.24511719 0.037597656 -0.05053711 0.27734375 -0.115722656 0.123535156 -0.12890625 0.100097656 -0.122558594 0.084472656 0.024169922 -0.09863281 -0.16894531 0.22949219 0.3203125 0.25976562 -0.09863281 -0.017578125 -0.25585938 0.28710938 0.45703125 -0.13183594 -0.087402344 -0.3125 -0.091308594 0.049560547 -0.27539062 0.099609375 0.20019531 -0.38867188 0.17871094 0.115722656 -0.39453125 -0.03149414 -0.29882812 0.22167969 -0.111328125 0.075683594 -0.31835938 0.12011719 -0.2890625 0.14160156 0.057861328 -0.18164062 0.13671875 0.107910156 0.103027344 -0.33203125 0.28125 -0.13769531 -0.12792969 0.08496094 0.28320312 -0.40625 0.3125 -0.30664062 0.004547119 -0.30664062 0.072753906 0.064453125 -0.37695312 0.09716797 -0.32421875 0.13769531 -0.1328125 0.08105469 -0.16113281 -0.41210938 0.15136719 0.07324219 -0.5546875 -0.14453125 -0.44335938 0.049560547 0.4765625 0.05126953 0.12451172 -0.07128906 -0.20898438 -0.12988281 -0.017700195 0.38867188 -0.053955078 -0.5 0.10449219 -0.075683594 0.24804688 -0.057861328 -0.26367188 -0.07080078 -0.034423828 0.27539062 -0.08105469 -0.03149414 -0.10449219 -0.15136719 0.20507812 -0.3203125 -0.14550781 0.17480469 0.6640625 -0.036132812 -0.012329102 -0.50390625 -0.0074768066 0.07519531 0.095214844 -0.22167969 0.047607422 -0.16015625 -0.050048828 0.075683594 0.07470703 -0.064941406 0.21679688 -0.020507812 0.010009766 -0.21191406 0.37109375 -0.02355957 -0.0015106201 -0.096191406 0.1875 -0.17480469 -0.16894531 -0.21972656 0.037109375 -0.0019989014 -0.08496094 -0.24707031 0.046875 -0.084472656 -0.07470703 -0.33984375 -0.22460938 -0.19335938 -0.072753906 0.30273438 -0.375 0.15429688 0.24609375 -0.19824219 -0.052734375 0.16992188 0.16210938 0.13476562 0.10107422 -0.002105713 0.22753906 0.16210938 -0.030395508 -0.18457031 -0.079589844 -0.24609375 -0.015991211 0.012634277 0.13378906 -0.2734375 -0.296875 -0.31054688 -0.20996094 0.2734375 -0.29882812 0.04345703 0.080078125 0.06738281 -0.05834961 -0.029907227 -0.12158203 0.088378906 -0.111328125 0.036865234 -0.13378906 0.13671875 0.10839844 -0.20117188 0.21191406 0.25390625 -0.24804688 0.31640625 0.0625 0.076171875 0.29882812 0.019897461 -0.171875 -0.3671875 0.13085938 0.30078125 -0.22167969 0.110839844 -0.00017261505 -0.20605469 0.03149414 0.13671875 0.05517578 0.051757812 0.19628906 0.34375 0.3671875 0.19824219 0.14355469 0.026977539 -0.38671875 -0.03515625 -0.020385742 0.43164062 -0.59375 -0.22851562 0.33398438 0.18554688 0.026123047 -0.17089844 -0.020629883 0.19042969 0.08203125 0.088378906 0.15722656 -0.19238281 0.18457031 -0.21679688 0.021606445 -0.067871094 -0.09765625 -0.3984375 -0.08984375 0.14160156 0.059814453 0.067871094 0.1796875 -0.12402344 0.017700195 -0.041503906 0.099121094 -0.10546875 0.09472656 0.41992188 0.032714844 -0.21386719 0.15234375 0.06542969 0.107910156 0.2734375 -0.1171875 0.012512207 -0.11376953 0.20703125 -0.29882812 0.080078125 -0.14746094 -0.0043029785 -0.33984375 0.234375 -0.079589844 0.0146484375 0.118652344 -0.29492188 0.07373047 -0.35742188 0.28515625 -0.19433594 0.28125
adrift 0.10449219 -0.021240234 0.06933594 -0.46289062 0.018676758 0.45898438 -0.21582031 -0.20703125 0.0703125 0.45703125 0.28125 0.014587402 -0.27148438 0.024414062 0.068847656 0.16601562 0.07519531 -0.18066406 -0.18261719 0.12988281 0.003540039 0.091308594 -0.027709961 0.07373047 0.390625 0.06689453 -0.33398438 0.20605469 0.33007812 -0.36132812 -0.32421875 0.087402344 -0.21191406 0.0138549805 0.13183594 -0.08203125 -0.21386719 0.22753906 -0.16210938 -0.08154297 0.0049743652 -0.22460938 0.16601562 0.020629883 0.28125 -0.12207031 -0.080566406 0.115722656 0.24511719 -0.21972656 -0.546875 0.36328125 0.16210938 -0.36328125 -0.09326172 -0.32617188 0.07519531 -0.21386719 0.15820312 -0.111328125 -0.19433594 0.4296875 -0.29882812 -0.703125 -0.07128906 -0.33203125 -0.22460938 -0.007507324 -0.13378906 -0.23046875 -0.14453125 -0.05859375 -0.052001953 -0.045898438 -0.29492188 -0.33203125 -0.203125 -0.41601562 0.16894531 -0.115234375 0.2734375 -0.33203125 -0.03955078 -0.0546875 0.028564453 0.12597656 0.05908203 -0.16796875 -0.029541016 0.33789062 0.11376953 -0.04711914 0.048339844 -0.096191406 -0.04272461 -0.12792969 0.390625 -0.46484375 -0.0546875 -0.04663086 0.20605469 -0.083984375 -0.059814453 0.020507812 -0.20507812 -0.2578125 0.24316406 -0.008300781 -0.048828125 0.14550781 0.037841797 0.22460938 0.30664062 -0.064453125 -0.30273438 -0.22851562 0.27148438 0.053955078 0.27929688 0.16015625 -0.43554688 0.111816406 0.21679688 0.62109375 -0.25 -0.359375 -0.09863281 -0.28710938 -0.5234375 0.20410156 0.24707031 -0.008117676 0.2265625 -0.018920898 -0.21679688 0.0010757446 -0.030151367 0.005859375 -0.05883789 -0.15820312 0.06689453 -0.3125 0.012878418 0.16015625 0.13085938 0.31445312 -0.75 -0.16601562 -0.26367188 -0.28710938 0.011352539 -0.15136719 0.014770508 0.22851562 0.020141602 0.21386719 -0.48828125 0.12451172 -0.011413574 -0.05834961 -0.16015625 0.056396484 0.2421875 0.020385742 0.123535156 -0.20703125 -0.00289917 0.3046875 -0.203125 0.25976562 -0.24902344 -0.07519531 0.15820312 -0.0032653809 0.24121094 0.05444336 -0.3828125 0.040283203 -0.328125 -0.063964844 -0.018066406 0.119140625 0.20703125 0.096191406 -0.40429688 -0.29101562 -0.23046875 0.18945312 0.14648438 -0.29101562 0.14453125 -0.41601562 -0.017700195 0.23242188 -0.087890625 0.19921875 -0.10253906 0.24902344 -0.057861328 -0.14453125 -0.036132812 0.1171875 0.23632812 -0.47460938 0.21289062 -0.15625 -0.18945312 0.06225586 -0.26953125 -0.6328125 -0.27148438 0.07128906 0.20507812 0.3359375 -0.23925781 -0.2109375 -0.057373047 -0.25390625 0.18066406 0.22753906 -0.15039062 0.45898438 0.25 0.21484375 0.092285156 -0.14648438 0.027709961 -0.40625 0.32226562 0.33984375 0.20117188 -0.31640625 0.125 -0.05859375 0.296875 0.39648438 0.30664062 0.06542969 0.34375 0.26367188 -0.0625 0.06591797 0.08496094 0.03540039 -0.5078125 0.15625 0.12695312 0.09472656 0.0703125 -0.22070312 -0.08105469 -0.19921875 -0.0061950684 0.31835938 -0.06933594 -0.40234375 0.29882812 0.056152344 0.075683594 0.087402344 -0.013427734 0.17578125 0.12988281 -0.1171875 -0.13085938 0.17578125 0.013000488 -0.42382812 -0.12402344 -0.08642578 0.22460938 -0.06347656 -0.1875 -0.14160156 -0.3203125 0.28125 -0.34570312 -0.21582031 0.08935547 0.3671875 0.13085938 -0.625 -0.1875 0.075683594 -0.33203125 0.26757812 -0.14941406 0.58984375 0.10888672 -0.11328125 0.3984375 -0.1875 -0.12597656 -0.234375 -0.008666992 -0.17382812 -0.034179688 0.044189453 0.15234375 0.029418945
adultery 0.057128906 -0.045898438 0.028808594 -0.0625 -0.18945312 0.15917969 0.061523438 0.114746094 -0.0058288574 0.2734375 -0.22363281 -0.26953125 -0.515625 0.37890625 -0.11816406 -0.046875 0.028564453 -0.29492188 -0.025146484 0.029418945 0.17382812 -0.5078125 0.0703125 -0.14355469 0.51171875 -0.29296875 -0.045654297 0.49414062 -0.16992188 0.2890625 -0.36523438 -0.15039062 -0.10449219 0.034423828 0.24511719 -0.076171875 0.17480469 -0.20117188 0.046875 0.09375 0.15625 -0.08886719 0.03491211 -0.34179688 -0.16699219 0.14746094 0.036376953 -0.19824219 0.1328125 0.045166016 0.13671875 -0.10107422 -0.35351562 0.078125 0.083496094 0.061035156 -0.3359375 -0.025512695 -0.07910156 -0.041748047 0.5234375 0.10888672 -0.0703125 0.2265625 0.25 0.12695312 0.37695312 0.010009766 0.15234375 0.114746094 0.26953125 0.029174805 -0.01953125 0.36328125 -0.125 0.026733398 0.103027344 0.17285156 0.26953125 -0.018798828 -0.32617188 -0.19140625 -0.21777344 0.12792969 0.30078125 -0.103027344 0.22363281 0.28515625 -0.00970459 -0.08496094 -0.020629883 -0.059814453 -0.13476562 0.08496094 -0.09277344 -0.057373047 0.5390625 -0.28515625 0.37304688 -0.040527344 -0.20605469 0.013427734 0.19140625 0.07763672 0.2265625 -0.13085938 -0.17675781 -0.02368164 0.25976562 -0.25390625 -0.29492188 -0.026733398 0.39648438 0.15234375 0.27734375 -0.4375 0.23632812 0.21679688 0.20996094 0.45898438 -0.016723633 0.16992188 0.21582031 0.23242188 -0.20605469 -0.46679688 0.01965332 0.045410156 0.27148438 0.13769531 0.027709961 -0.041748047 -0.096191406 0.35546875 0.071777344 0.0859375 0.21582031 -0.22949219 0.25585938 -0.11425781 -0.04296875 0.1328125 0.048583984 0.07910156 -0.30859375 0.030395508 -0.41796875 0.26953125 -0.1640625 -0.21191406 0.515625 -0.31640625 0.111328125 -0.37695312 0.021850586 -0.38476562 -0.21972656 -0.16503906 0.13378906 -0.30273438 -0.08642578 0.09326172 0.52734375 0.24121094 -0.23046875 0.20703125 0.17675781 0.0043029785 -0.22460938 -0.06542969 0.02746582 0.10498047 -0.28125 -0.26171875 -0.15527344 0.004547119 0.04638672 -0.24609375 0.296875 -0.22753906 0.052246094 -0.068359375 -0.27539062 -0.15332031 0.06738281 0.2890625 0.030151367 0.061279297 0.016845703 0.16210938 0.01965332 0.07519531 0.10205078 0.15332031 -0.030395508 0.47460938 -0.056884766 0.02355957 0.012329102 -0.11376953 -0.010620117 0.23828125 0.06298828 -0.17382812 0.32421875 0.296875 0.09423828 -0.16894531 0.07373047 0.05029297 -0.12402344 0.515625 0.36914062 -0.14355469 -0.21972656 0.060546875 -0.35351562 0.26757812 -0.19726562 0.0003528595 -0.10546875 -0.3203125 0.27734375 0.06933594 0.048339844 -0.3125 0.005645752 0.053955078 0.076660156 0.26171875 -0.3828125 -0.0095825195 -0.16210938 0.10253906 0.31445312 -0.32226562 0.013549805 0.33203125 0.04296875 -0.0859375 0.19335938 -0.23730469 0.025756836 0.103027344 -0.15820312 -0.20898438 -0.03466797 -0.096191406 -0.36132812 -0.055908203 0.038330078 0.35351562 0.27734375 -0.25390625 -0.03149414 0.29882812 -0.19726562 -0.16113281 0.10205078 0.087402344 -0.14746094 0.05444336 0.041259766 0.08935547 -0.20605469 0.30078125 -0.091308594 -0.14257812 -0.016235352 0.14257812 0.0061035156 0.328125 -0.13183594 0.009277344 0.087890625 0.16992188 -0.044189453 -0.052001953 -0.14648438 0.13574219 -0.046875 -0.020141602 0.15625 0.088378906 0.16894531 -0.27734375 -0.118652344 -0.0035247803 -0.18554688 0.55859375 0.23242188 -0.029785156 -0.20996094 -0.13476562 0.087890625 0.35546875 0.32421875 -0.23925781 -0.12158203 0.4765625
adverse -0.25976562 0.040771484 -0.123046875 0.15136719 -0.079589844 -0.03125 -0.0625 0.27539062 0.20117188 0.29492188 -0.17773438 -0.47460938 -0.033691406 0.25976562 -0.13378906 0.087890625 -0.06225586 0.11376953 0.06933594 0.15136719 -0.28710938 0.057128906 -0.22851562 -0.044433594 0.057128906 -0.034179688 0.041748047 -0.00592041 -0.12011719 -0.025634766 0.092285156 -0.2734375 0.13085938 0.0009765625 -0.14160156 0.18164062 -0.29492188 0.017822266 0.07861328 -0.19726562 -0.16113281 -0.14257812 0.13574219 0.15527344 -0.18945312 -0.25195312 0.28515625 -0.07421875 -0.23925781 -0.30078125 -0.16210938 0.049560547 -0.35742188 -0.011352539 0.19238281 0.07128906 0.083984375 -0.35742188 0.11425781 -0.083496094 -0.21191406 -0.15039062 -0.06982422 -0.15527344 0.14941406 -0.087890625 -0.034423828 0.27929688 -0.19921875 0.044677734 -0.19140625 -0.5546875 -0.015075684 -0.028442383 -0.059570312 -0.15625 0.19140625 -0.10986328 -0.106933594 0.087890625 -0.09716797 -0.20898438 -0.10644531 0.10449219 -0.20800781 -0.10205078 -0.17773438 0.21582031 -0.27539062 0.055664062 0.19921875 -0.08203125 0.27929688 0.071777344 -0.015625 -0.046875 0.234375 0.12597656 0.40820312 0.025878906 0.32226562 0.037353516 0.07421875 -0.21289062 0.109375 -0.10546875 0.15136719 0.06298828 0.05859375 -0.27539062 -0.021240234 -0.30273438 -0.25195312 -0.37304688 0.20605469 -0.22265625 0.016479492 0.07324219 0.22167969 0.21386719 -0.13964844 -0.11035156 -0.029174805 -0.010375977 0.076660156 -0.030273438 0.35546875 -0.22753906 0.04321289 0.02746582 -0.011657715 0.078125 -0.34570312 0.23535156 0.00340271 -0.020263672 0.103515625 -0.032226562 0.015380859 0.1796875 -0.104003906 -0.011657715 0.026733398 0.11669922 0.13867188 -0.40234375 -0.1875 0.16210938 -0.20019531 -0.012145996 0.080078125 -0.09814453 0.27734375 0.044189453 -0.039794922 -0.14648438 -0.083496094 0.018798828 0.17382812 0.28515625 -0.010864258 0.16699219 0.29101562 0.11767578 0.021850586 0.118652344 -0.10986328 0.115234375 0.23632812 -0.140625 0.1484375 -0.060302734 0.15917969 -0.103515625 0.13769531 -0.328125 0.42773438 -0.16210938 0.063964844 -0.0099487305 0.02355957 0.072265625 0.1953125 -0.119628906 -0.1796875 0.0037841797 0.13476562 0.06982422 -0.041015625 0.35351562 -0.35742188 -0.12695312 -0.2578125 0.16894531 0.265625 -0.14453125 0.19042969 0.12402344 0.19824219 -0.3515625 -0.103515625 0.14453125 0.0053100586 -0.34179688 -0.10644531 -0.23144531 -0.12695312 -0.02368164 -0.052734375 0.17871094 -0.014038086 -0.1953125 0.1484375 0.095703125 -0.05810547 -0.43945312 0.08300781 0.05444336 0.017211914 -0.12597656 -0.14355469 0.37695312 -0.24511719 0.022338867 -0.050048828 0.009887695 0.20117188 -0.15625 0.26757812 0.17773438 0.20410156 0.20117188 0.45117188 -0.28515625 0.23144531 -0.31835938 0.02709961 -0.2578125 0.11035156 -0.02319336 -0.09082031 -0.025268555 0.25976562 0.14257812 -0.09277344 -0.05810547 -0.42382812 -0.12451172 -0.08496094 -0.5234375 0.44921875 0.046142578 -0.09667969 -0.29882812 -0.075683594 -0.36914062 0.14160156 0.15625 0.119628906 -0.12695312 -0.26367188 0.017456055 0.08105469 0.14257812 -0.028564453 0.32226562 0.049560547 -0.080078125 -0.0049438477 -0.3671875 -0.05419922 0.34960938 -0.14746094 0.13867188 0.111816406 -0.21875 0.096191406 0.099121094 0.20410156 0.115722656 0.08300781 0.05834961 -0.030517578 0.11669922 -0.25585938 -0.06298828 -0.15820312 -0.03955078 -0.045654297 -0.13769531 0.19042969 0.20410156 0.024169922 0.26367188 0.265625 0.057861328 -0.07470703 -0.1640625 0.41796875 0.08886719
adversity 0.12695312 0.26953125 -0.39453125 0.27539062 0.3125 -0.22851562 0.04736328 -0.038330078 0.18847656 0.1484375 0.08544922 -0.19238281 -0.22949219 0.107910156 -0.25 0.24023438 -0.015991211 0.42773438 -0.1171875 -0.27148438 0.05908203 0.13867188 0.3828125 -0.42578125 0.014221191 0.033447266 0.38476562 -0.22363281 -0.040527344 -0.07470703 -0.2265625 0.06542969 0.33789062 -0.1875 0.21777344 0.3125 0.11621094 -0.21777344 -0.044433594 -0.020996094 0.20703125 -0.15234375 -0.079589844 -0.018310547 -0.04345703 0.030517578 -4.506111e-05 -0.041015625 0.103515625 -0.14355469 -0.40039062 0.24902344 -0.50390625 0.17871094 -0.12597656 -0.076171875 -0.039794922 0.052246094 -0.22753906 -0.06591797 -0.100097656 0.22753906 0.3203125 -0.04296875 0.10107422 -0.087402344 0.20410156 -0.033935547 0.044433594 0.39257812 -0.02734375 -0.27929688 -0.060058594 -0.22460938 0.107421875 -0.33007812 0.025146484 0.22558594 0.16992188 -0.053222656 -0.18261719 0.22265625 -0.5 -0.18554688 -0.15625 -0.18945312 -0.44140625 0.44335938 -0.21582031 0.076660156 -0.19140625 -0.08691406 -0.12060547 0.068359375 -0.0234375 -0.07714844 0.06933594 0.010559082 0.087402344 -0.29882812 0.099121094 -0.20507812 0.19433594 0.31054688 -0.25 -0.06298828 -0.01361084 0.00078582764 0.06933594 -0.007873535 -0.10839844 -0.15234375 0.042236328 0.1640625 0.045410156 0.07080078 0.05517578 -0.08642578 -0.006378174 0.091796875 -0.45703125 -0.083984375 0.068847656 0.20703125 -0.4140625 0.052978516 0.033203125 -0.07470703 -0.012878418 -0.023803711 -0.39257812 -0.37304688 -0.43164062 0.021728516 -0.008666992 -0.110839844 0.15332031 0.17382812 -0.3828125 0.32421875 -0.0027770996 0.22558594 -0.23535156 -0.30078125 0.10253906 -0.33007812 -0.03564453 -0.16992188 0.31445312 -0.453125 0.20214844 0.24707031 -0.12597656 0.46484375 -0.33398438 0.2109375 0.30859375 -0.18066406 0.5546875 0.021728516 0.20898438 0.20898438 0.25195312 0.123046875 0.29882812 -0.6640625 -0.1875 -0.057128906 0.04272461 0.21386719 0.35351562 0.0012664795 0.025024414 -0.2734375 0.1796875 -0.0134887695 0.20996094 0.14257812 -0.056640625 0.080078125 -0.28125 -0.21582031 -0.047607422 -0.05859375 -0.484375 -0.024658203 -0.20605469 -0.006713867 0.067871094 0.045166016 0.375 0.016357422 -0.33398438 0.09716797 -0.0021972656 -0.31835938 0.021118164 -0.16796875 -0.3671875 0.047851562 0.14453125 0.099609375 -0.037841797 -0.18261719 0.049316406 -0.13476562 0.053955078 -0.20507812 0.31835938 0.099121094 -0.25390625 0.09082031 0.059570312 -0.030029297 -0.115722656 -0.004272461 -0.046142578 0.22949219 -0.18359375 0.16113281 -0.359375 0.22558594 -0.087890625 0.08496094 -0.25195312 -0.0126953125 0.044433594 -0.24804688 0.15332031 -0.008239746 -0.47070312 0.33984375 -0.0039367676 0.14648438 0.18554688 -0.3046875 -0.31640625 -0.20800781 0.125 0.027954102 0.18945312 -0.044921875 0.030517578 -0.29101562 -0.099121094 -0.09423828 -0.048583984 -0.16699219 0.092285156 -0.13867188 0.29882812 0.15234375 -0.016723633 0.17089844 -0.10449219 -0.17675781 0.111816406 -0.31640625 0.05908203 -0.029174805 -0.002090454 0.0546875 -0.013000488 0.43554688 0.13085938 0.41796875 0.703125 -0.03930664 -0.234375 -0.0057373047 -0.11816406 0.41796875 0.13476562 -0.31054688 0.05883789 0.32226562 -0.1640625 -0.06347656 -0.103515625 -0.30273438 -0.22167969 -0.107910156 0.122558594 -0.12890625 -0.021484375 -0.16308594 -0.21679688 0.33398438 -0.028442383 0.5234375 0.0008583069 -0.103515625 -0.421875 -0.36523438 -0.38867188 0.37695312 0.14550781 -0.04663086 0.1015625 -0.053710938
afflict 0.0008544922 0.34960938 -0.09716797 0.16015625 -0.18652344 0.21679688 0.43359375 -0.0032958984 0.37304688 0.36328125 -0.13378906 -0.16015625 0.19238281 0.23535156 0.27734375 0.265625 -0.14453125 0.47070312 0.099121094 -0.16796875 -0.017211914 0.030761719 0.07421875 0.087402344 -0.01965332 0.13183594 -0.18261719 0.079589844 -0.1484375 0.06689453 -0.30664062 -0.043701172 0.0018844604 -0.09277344 -0.072265625 -0.09814453 -0.12988281 -0.083496094 0.06298828 0.10986328 0.37890625 0.27734375 -0.15136719 0.039794922 -0.09326172 0.040771484 0.095703125 0.12988281 -0.10986328 -0.05444336 -0.06640625 0.123046875 0.012634277 -0.265625 0.11230469 -0.07324219 -0.10546875 -0.14746094 0.06298828 0.072265625 0.46484375 0.27148438 -0.030273438 -0.19140625 -0.19335938 -0.015991211 -0.049560547 0.453125 -0.23144531 0.06982422 0.39257812 0.03466797 -0.052001953 0.02331543 -0.115722656 -0.26171875 -0.375 -0.14746094 -0.27734375 0.45117188 -0.36914062 -0.072753906 0.035888672 0.21582031 -0.0087890625 0.2421875 -0.084472656 -0.20800781 -0.23144531 -0.16210938 0.26171875 -0.37109375 0.2890625 0.026367188 0.111328125 0.044433594 0.359375 -0.072753906 0.0072021484 0.033447266 0.019165039 -0.017578125 -0.008544922 -0.14160156 -0.07763672 -0.20996094 -0.16503906 0.056884766 0.09716797 0.076171875 -0.16503906 -0.107910156 0.3203125 -0.08300781 0.099121094 0.022705078 -0.32226562 -0.09472656 0.18457031 0.09375 -0.39257812 0.015625 -0.54296875 -0.51953125 -0.16601562 -0.24121094 0.05029297 -0.0064086914 -0.21386719 -0.0021209717 0.3515625 0.028808594 -0.12695312 -0.05908203 -0.041259766 -0.12597656 -0.13378906 0.19628906 0.29492188 -0.08154297 -0.044921875 -0.103027344 0.095214844 0.115234375 0.05078125 -0.45507812 0.08251953 -0.18164062 0.13183594 -0.024414062 0.09863281 -0.1953125 -0.12597656 -0.1953125 -0.056152344 -0.19824219 -0.43945312 -0.15136719 -0.059814453 -0.421875 0.45507812 -0.21191406 -0.040283203 -0.25585938 0.080566406 0.14746094 0.10986328 0.12890625 -0.10595703 -0.0040893555 -0.048095703 0.084472656 -0.048828125 0.09082031 0.020629883 -0.1953125 -0.07714844 -0.13867188 -0.13769531 0.1015625 -0.18359375 -0.19921875 -0.032226562 -0.037109375 -0.27734375 0.107421875 -0.34179688 -0.016723633 0.060546875 0.14550781 0.17871094 -0.095703125 0.14941406 -0.0030059814 -0.48632812 0.27148438 -0.07373047 0.036621094 -0.32226562 -0.20019531 -0.035888672 0.17871094 -0.041992188 0.03881836 0.015380859 -0.060791016 0.008972168 -0.15332031 -0.080566406 0.07128906 -0.06933594 -0.14160156 0.19433594 -0.005645752 0.1484375 -0.21875 -0.16015625 0.06689453 -0.359375 -0.13671875 -0.12695312 0.24511719 0.22363281 0.33984375 0.27539062 0.038085938 0.33398438 -0.22265625 -0.037841797 0.15625 0.22265625 0.053466797 0.024536133 0.18554688 0.15429688 0.328125 -0.3203125 -0.16113281 0.31054688 0.28320312 0.028930664 0.20117188 0.11621094 0.03930664 -0.12695312 0.17871094 0.091796875 -0.14160156 -0.042236328 -0.033691406 0.32226562 0.118652344 -0.049560547 -0.11621094 -0.017700195 -0.28515625 -0.07324219 0.29296875 -0.14160156 -0.025756836 -0.0009841919 -0.0034179688 0.23046875 0.20019531 -0.296875 0.20800781 -0.11035156 0.14257812 -0.0065307617 -0.052246094 -0.21484375 0.3671875 -0.33398438 -0.1640625 0.0079956055 -0.38085938 -0.029541016 0.17285156 -0.17578125 -0.06347656 -0.031982422 -0.12207031 0.00592041 0.12402344 0.3984375 -0.20019531 -0.15136719 -0.041015625 -0.04345703 -0.07519531 0.17578125 0.053710938 -0.110839844 0.07373047 -0.2265625 0.1484375 -0.20605469 -0.017700195 0.51953125 0.11621094
affliction 0.33984375 -0.018676758 -0.421875 0.375 -0.23828125 0.29296875 0.12695312 -0.08691406 0.07763672 -0.059326172 -0.203125 -0.25976562 0.03881836 0.12109375 0.125 0.46484375 0.056640625 0.43554688 0.26367188 -0.038330078 0.04711914 0.03955078 0.21386719 -0.22363281 -0.0076293945 -0.111816406 0.05053711 0.017822266 -0.023925781 -0.12988281 -0.030273438 -0.053710938 0.19238281 0.08154297 -0.14746094 0.01940918 -0.06933594 -0.27929688 0.14160156 -0.044189453 0.21972656 0.08203125 -0.119140625 0.06591797 0.21386719 0.025146484 0.13085938 0.20703125 -0.2734375 -0.12792969 -0.30078125 0.17578125 -0.16699219 -0.12988281 0.3125 0.035888672 0.025634766 0.021728516 -0.125 0.14941406 0.41210938 0.12988281 -0.033447266 -0.18359375 -0.021728516 -0.095703125 0.029418945 0.2578125 0.010559082 0.26367188 0.16992188 -0.17480469 -0.1171875 0.091796875 0.07519531 -0.110839844 -0.078125 -0.14355469 -0.09375 0.45507812 -0.0390625 -0.16601562 -0.091796875 -0.29101562 -0.17675781 0.14746094 -0.12695312 0.01940918 0.052978516 -0.34960938 0.013366699 -0.123046875 -0.13574219 0.18457031 0.07324219 0.064941406 0.12988281 0.24707031 -0.07519531 -0.068847656 -0.084472656 -0.051513672 -0.020751953 -0.22265625 0.28515625 -0.1015625 -0.25976562 0.30664062 0.15722656 -0.14257812 -0.17089844 -0.20703125 0.3828125 0.10107422 0.17285156 0.107421875 -0.060791016 -0.06640625 0.010681152 0.26367188 -0.17871094 -0.171875 -0.0625 -0.27539062 -0.25 -0.23242188 0.060058594 0.047607422 0.111328125 0.12109375 0.02722168 -0.29492188 -0.20605469 0.010131836 -0.18359375 0.064453125 -0.2734375 0.171875 -0.11376953 0.03540039 0.35546875 0.16992188 -0.16796875 0.20703125 0.15234375 -0.25976562 -0.29101562 -0.33789062 -0.12988281 -0.110839844 0.3046875 0.072753906 0.036865234 -0.056396484 -0.109375 -0.22753906 -0.20019531 -0.24902344 0.0026550293 -0.34765625 0.45507812 0.12792969 0.05493164 -0.24511719 -0.32421875 -0.21289062 0.008422852 0.045166016 -0.013366699 0.03930664 0.47851562 0.31445312 -0.17578125 -0.060058594 -0.07910156 -0.16601562 0.11816406 -0.36523438 0.103515625 -0.119628906 -0.045166016 -0.20800781 -0.032958984 -0.14453125 0.043701172 0.010803223 -0.118652344 -0.04345703 0.036376953 0.20214844 -0.18554688 -0.053710938 -0.026611328 0.025512695 -0.41210938 0.23535156 0.06542969 0.19628906 -0.24707031 -0.076660156 0.07128906 -0.03112793 -0.110839844 -0.05102539 -0.12695312 0.016357422 -0.048339844 0.018432617 0.21191406 0.26953125 -0.45507812 -0.03515625 -0.05102539 0.04638672 -0.1328125 0.034179688 -0.055419922 0.056640625 -0.16699219 -0.20605469 -0.22167969 0.0625 0.359375 0.26953125 -0.009033203 0.016845703 0.010559082 -0.25 -0.23242188 0.14648438 0.41015625 0.080566406 0.012145996 0.025878906 -0.16894531 0.0072631836 -0.34375 -0.016113281 0.1484375 -0.05444336 0.045410156 -0.27148438 0.15429688 -0.22363281 0.30859375 0.25195312 0.33984375 -0.0037841797 0.015380859 -0.18359375 0.052978516 -0.20117188 0.31640625 0.004272461 0.08300781 -0.18261719 -0.08691406 0.084472656 0.10449219 0.11328125 0.06982422 0.12109375 -0.017822266 0.19042969 -0.14257812 0.10546875 0.096191406 0.008972168 0.07470703 -0.13964844 -0.10839844 0.20703125 -0.068847656 -0.18652344 0.078125 0.043701172 -0.14941406 0.24121094 -0.17480469 0.14355469 0.12695312 -0.060546875 0.18359375 0.11425781 0.030395508 -0.052246094 -0.072753906 -0.044189453 -0.10449219 0.033203125 0.17480469 -0.12792969 -0.09326172 -0.30664062 -0.20117188 0.076171875 -0.17480469 6.341934e-05 0.18164062 0.29101562
affront 0.07861328 -0.084472656 0.28125 0.07910156 -0.23144531 0.28710938 0.09033203 -0.024902344 0.16601562 0.49023438 -0.24902344 -0.2421875 0.123535156 -0.012451172 0.18945312 0.21972656 0.16210938 -0.14160156 -0.22167969 -0.04638672 0.23632812 -0.104003906 0.027954102 -0.328125 0.100097656 -0.061523438 0.11328125 0.19140625 0.00982666 0.0022735596 0.29882812 -0.04736328 -0.06542969 0.31835938 0.26953125 -0.06982422 0.546875 0.13085938 -0.296875 0.19238281 0.29492188 0.068847656 0.23144531 -0.028076172 -0.33984375 -0.25 -0.26757812 0.34960938 0.0126953125 -0.1484375 -0.021972656 0.12451172 0.018432617 -0.140625 -0.03466797 0.2109375 -0.34375 -0.061279297 0.080078125 0.16699219 0.0031280518 0.028564453 0.16210938 -0.11767578 -0.10058594 -0.21191406 -0.33789062 0.18847656 -0.07910156 0.04663086 -0.04296875 -0.18066406 0.17480469 0.115234375 0.03125 -0.33789062 -0.11816406 -0.22167969 0.33203125 0.2421875 -0.03857422 -0.026245117 -0.14257812 0.18457031 -0.13867188 -0.034423828 -0.053466797 0.16894531 0.13574219 0.14160156 0.18164062 -0.23046875 0.08203125 -0.017211914 0.10546875 -0.021850586 -0.005432129 0.34960938 0.064453125 -0.13183594 0.24902344 0.03930664 0.038330078 0.02746582 0.1328125 0.0043029785 0.18652344 -0.22070312 -0.099609375 0.103027344 -0.37890625 0.15429688 -0.037841797 0.49023438 0.23339844 -0.0044555664 0.017456055 0.328125 -0.14746094 0.25195312 -0.10644531 0.015380859 0.19238281 0.0703125 -0.34570312 -0.21484375 -0.10595703 -0.02758789 0.40820312 0.004760742 -0.111328125 -0.25976562 -0.21484375 0.40039062 -0.01361084 0.013244629 -0.048095703 0.28515625 -0.111328125 -0.45703125 -0.0058898926 0.10644531 -0.19628906 0.33789062 -0.265625 -0.21386719 -0.14746094 -0.20800781 -0.17871094 -0.024902344 0.44140625 0.34570312 -0.18261719 -0.13183594 0.1875 -0.23925781 -0.18457031 0.022460938 0.12597656 -0.26367188 0.013183594 -0.16015625 0.18652344 -0.3828125 0.11767578 -0.25976562 -0.10595703 -0.15917969 -0.16113281 0.14355469 -0.022460938 0.13867188 -0.006439209 0.25390625 -0.053955078 0.033691406 -0.0019226074 -0.17578125 0.21875 0.2109375 -0.025024414 -0.17285156 -0.036865234 -0.29492188 0.15039062 0.16503906 -0.08886719 0.31054688 -0.07421875 0.2578125 -0.15625 0.12792969 0.30078125 0.12060547 -0.26757812 -0.14648438 0.05419922 0.265625 -0.087402344 0.21582031 -0.17871094 0.18164062 0.029052734 -0.09326172 0.10058594 0.13574219 -0.044921875 0.2734375 -0.3046875 -0.04663086 -0.016479492 0.040527344 -0.020141602 0.23828125 -0.06982422 0.1875 -0.088378906 0.16601562 -0.13964844 -0.16503906 -0.032958984 0.07470703 0.0014343262 -0.09863281 0.19628906 -0.018188477 0.50390625 -0.05029297 0.04248047 0.12988281 0.11035156 0.12451172 -0.053710938 0.33398438 0.29296875 -0.16503906 0.14941406 0.03173828 0.14746094 -0.13671875 -0.17089844 -0.09277344 0.13964844 -0.08691406 -0.048828125 -0.22070312 -0.51171875 0.103515625 -0.115234375 0.092285156 -0.140625 0.10839844 -0.171875 -0.012451172 0.2578125 -0.10644531 -0.016479492 -0.13085938 -0.13574219 -0.375 -0.33398438 0.13378906 0.16210938 0.013000488 0.14550781 0.19824219 0.13085938 0.012451172 -0.15136719 -0.10888672 -0.35546875 0.071777344 0.18945312 -0.05834961 0.083984375 -0.22070312 -0.08496094 0.0625 -0.042236328 0.59375 0.16015625 -0.01965332 0.003036499 0.33203125 -0.35351562 -0.049316406 -0.25585938 0.09667969 -0.07763672 -0.2890625 -0.13964844 -0.20507812 -0.013977051 0.1328125 -0.36523438 0.12109375 -0.33398438 -0.10058594 0.00075531006 0.07080078
aftermath 0.17871094 0.16113281 -0.07861328 -0.16503906 0.060058594 0.1796875 -0.1875 -0.19433594 0.34570312 0.03930664 0.024414062 -0.28710938 -0.096191406 0.22167969 0.051757812 -0.0057373047 -0.04736328 0.20605469 0.20605469 -0.32617188 0.1015625 0.13964844 0.19824219 -0.099121094 -0.068847656 0.076171875 0.04663086 0.10107422 0.3125 0.111328125 -0.022827148 -0.03466797 -0.09326172 0.15527344 -0.063964844 0.13183594 0.09716797 -0.030639648 -0.016967773 0.15039062 -0.092285156 -0.14648438 0.10205078 -0.036865234 -0.0054626465 0.052001953 -0.09667969 -0.23144531 0.10058594 0.15136719 -0.007446289 -0.2890625 -9.6321106e-05 0.029663086 -0.004211426 0.103515625 -0.24511719 -0.045898438 -0.095214844 -0.07324219 -0.061523438 0.14257812 0.083496094 0.031982422 -0.088378906 -0.022583008 0.025390625 0.092285156 0.008544922 0.037841797 -0.096191406 -0.114746094 0.19238281 0.076171875 0.00012302399 -0.125 -0.052246094 0.18164062 -0.100097656 0.052246094 0.026123047 0.2890625 -0.064453125 -0.33984375 -0.0041503906 -0.17480469 -0.19628906 0.0625 -0.12890625 0.18359375 0.16210938 0.17578125 0.2890625 0.21484375 0.05444336 -0.0703125 -0.07470703 -0.13964844 0.21679688 0.140625 0.07324219 0.050048828 0.030029297 0.17382812 -0.14355469 -0.16015625 -0.23144531 -0.10986328 -0.15527344 -0.05444336 -0.033691406 0.2890625 0.12207031 0.059814453 0.022460938 0.17480469 0.09277344 0.06542969 0.23144531 0.36328125 -0.34179688 0.009460449 0.024169922 -0.15429688 0.006439209 0.25976562 -0.18261719 -0.13378906 0.27734375 0.04248047 -0.15332031 -0.030761719 -0.34570312 -0.06298828 -0.13867188 -0.09667969 -0.02355957 -0.08154297 -0.171875 -0.24511719 0.11230469 0.055908203 0.19335938 0.10205078 0.107421875 -0.10986328 -0.11767578 0.08984375 -0.24316406 -0.03955078 0.0625 0.064941406 -0.041015625 -0.01977539 0.100097656 -0.1953125 0.09814453 -0.13769531 0.18457031 0.19921875 0.27539062 -0.07519531 0.056884766 -0.13183594 0.026000977 0.09716797 0.08203125 -0.009155273 0.15820312 0.20996094 0.05053711 -0.020996094 -0.16113281 -0.15917969 0.049804688 -0.12792969 0.23632812 0.17285156 0.024658203 0.009094238 0.095214844 -0.0006599426 -0.111816406 -0.26171875 -0.013305664 -0.018554688 0.24511719 0.13085938 0.08984375 0.09423828 0.19335938 0.20800781 0.049316406 -0.091796875 -0.26171875 -0.035888672 0.15527344 -0.10986328 -0.2109375 0.01574707 -0.13378906 0.14257812 -0.13964844 -0.10253906 0.24804688 -0.31640625 -0.15527344 -0.13085938 0.114746094 -0.08105469 -0.234375 0.13574219 0.19921875 0.09277344 -0.07714844 -0.12988281 -0.20019531 0.22851562 -0.029296875 -0.029663086 0.03125 0.34375 -0.15722656 0.08984375 -0.049560547 -0.026977539 -0.0050964355 0.029663086 0.25195312 -0.24707031 -0.118652344 0.1796875 0.19140625 0.21875 -0.083496094 -0.1484375 0.06347656 -0.16113281 -0.04345703 -0.10058594 -0.14550781 0.14941406 -0.05883789 -0.068847656 -0.375 -0.06982422 0.12988281 0.20410156 -0.075683594 -0.064453125 -0.04711914 -0.00340271 0.055419922 0.03515625 0.13769531 -0.29882812 0.4296875 0.06542969 0.07763672 0.07763672 -0.28710938 -0.003250122 0.12792969 0.109375 0.07763672 0.29492188 -0.05029297 -0.045166016 -0.11669922 0.10888672 -0.012512207 -0.038085938 0.18847656 0.16503906 -0.15234375 0.18554688 0.12890625 0.33789062 0.038330078 -0.16894531 0.12207031 0.027954102 -0.15429688 -0.016479492 -0.16308594 -0.072265625 -0.22167969 -0.053710938 -0.12695312 0.034423828 -0.171875 -0.421875 -0.0040283203 0.08251953 -0.18261719 -0.25 -0.27929688 -0.056152344 0.15917969 0.10253906
aggravating 0.12988281 0.29492188 -0.21386719 -0.035888672 -0.024047852 0.3046875 0.24316406 -0.02758789 0.11230469 -0.08642578 0.018920898 -0.28320312 0.3515625 -0.018310547 -0.044921875 0.14550781 0.14941406 0.048828125 -0.15625 -0.104003906 0.28710938 -0.011108398 -0.1953125 -0.040771484 -0.12451172 -0.15527344 0.038085938 0.0052490234 0.026123047 0.12597656 -0.15722656 0.118652344 0.4296875 -0.08105469 -0.16503906 0.05859375 -0.030273438 -0.07324219 0.21875 0.16601562 0.006439209 0.018432617 0.16015625 -0.055419922 -0.34960938 0.20410156 0.029663086 0.19238281 0.10644531 -0.14648438 0.021728516 0.26367188 -0.2890625 -0.088378906 -0.09863281 0.016845703 -0.04711914 -0.13183594 0.17089844 -0.22753906 0.125 0.118652344 -0.0045776367 -0.1953125 -0.08691406 0.10205078 -0.12792969 0.1484375 -0.16503906 -0.16503906 0.21679688 0.13574219 -0.11035156 0.048583984 -0.13769531 -0.18652344 0.19726562 0.19921875 0.067871094 0.22460938 -0.20898438 -0.03955078 0.036376953 -0.07128906 0.19042969 -0.08154297 -0.27148438 0.30859375 -0.079589844 0.06298828 -0.10107422 -0.11669922 -0.061767578 -0.08691406 0.0546875 -0.11376953 0.045166016 -0.09277344 -0.032226562 0.032226562 -0.029907227 0.036132812 0.020874023 -0.08105469 0.03955078 -0.15136719 0.061767578 -0.09033203 -0.043945312 -0.2109375 -0.15234375 -0.21191406 -0.061035156 -0.28515625 -0.17480469 -0.39453125 0.265625 0.11328125 -0.06933594 0.083496094 -0.20898438 0.41796875 -0.15429688 -0.11767578 -0.47460938 -0.15527344 -0.04248047 0.0077819824 0.040283203 -0.047607422 -0.009765625 0.24707031 -0.14453125 0.171875 -0.12402344 -0.22167969 -0.171875 0.036865234 -0.103027344 0.028564453 0.021850586 0.14160156 0.20996094 0.0703125 -0.022216797 -0.034423828 -0.1953125 -0.052001953 -0.32226562 0.03881836 0.25195312 -0.18359375 0.12451172 0.059326172 0.34375 -0.21582031 -0.14160156 -0.018920898 -0.09765625 -0.31640625 0.06542969 0.15625 0.025878906 -0.36132812 -0.0058898926 0.072753906 0.19921875 0.059814453 0.008666992 -0.11425781 -0.28320312 0.061279297 -0.25390625 0.30078125 0.0024719238 -0.14355469 -0.0859375 -0.119628906 -0.18359375 -0.106933594 0.1484375 -0.20996094 0.17871094 0.049804688 -0.032226562 0.38085938 -0.38476562 0.19335938 -0.022583008 -0.11279297 -0.041015625 0.103515625 0.14648438 -0.09375 0.019897461 0.46679688 -0.16210938 0.16113281 0.038330078 -0.06738281 -0.014953613 0.12988281 -0.40429688 -0.016845703 0.24902344 -0.1015625 -0.09326172 -0.06640625 -0.09667969 -0.29101562 0.111328125 -0.052978516 0.09423828 0.13867188 -0.10107422 -0.03466797 -0.14355469 -0.3046875 -0.18554688 -0.14550781 0.23242188 0.17480469 -0.022460938 0.109375 0.19238281 -0.21582031 -0.033935547 -0.039794922 -0.171875 0.021240234 -0.13574219 0.19140625 -0.0025939941 -0.10205078 0.028930664 0.16113281 0.08691406 -0.13964844 0.20996094 0.044189453 -0.13183594 0.31835938 0.07373047 -0.44921875 -0.09375 -0.061035156 -0.203125 -0.056396484 0.08496094 0.016357422 0.10644531 -0.03491211 -0.08886719 -0.080566406 -0.084472656 -0.111816406 0.15332031 0.03149414 -0.099609375 0.20507812 -0.091796875 0.23144531 0.19921875 0.0234375 -0.032958984 -0.06298828 0.043701172 -0.0019683838 -0.16601562 -0.06225586 -0.015319824 0.41210938 -0.06689453 -0.036621094 0.09472656 -0.31640625 0.041503906 0.16992188 -0.10498047 0.056640625 0.12109375 -0.008117676 -0.018310547 -0.17382812 -0.057128906 0.07128906 -0.13671875 0.080078125 0.09765625 -0.17089844 -0.06225586 0.34765625 0.036865234 0.12890625 0.05444336 0.05883789 -0.31640625 -0.15332031 0.17773438 0.016723633
agony 0.27148438 0.09375 0.043701172 0.29492188 -0.103515625 0.060302734 0.16113281 -0.17382812 0.110839844 0.20214844 -0.16796875 -0.2421875 -0.017822266 0.47460938 0.13183594 0.20703125 0.17285156 0.115722656 0.024658203 -0.24609375 0.08203125 0.22949219 -0.08642578 0.01171875 0.14746094 -0.07910156 -0.068359375 -0.16796875 0.30078125 -0.44921875 -0.08203125 0.0017547607 0.11816406 -0.08154297 -0.32226562 0.12597656 0.009094238 0.07519531 0.008117676 -0.040039062 0.024169922 -0.16992188 0.25585938 -0.46289062 0.010803223 0.10986328 0.014465332 0.3515625 0.071777344 0.049072266 -0.14453125 0.2734375 -0.12695312 0.22460938 0.09082031 -0.28515625 -0.008666992 0.12695312 0.064941406 0.04272461 -0.080078125 -0.119140625 0.08496094 0.030517578 -0.26171875 0.048339844 0.013793945 0.011291504 -0.14453125 -0.07714844 0.13085938 -0.106933594 0.0009918213 0.091796875 0.13476562 -0.050048828 0.24121094 -0.22363281 0.049804688 0.041503906 -0.17285156 0.0025177002 -0.10986328 -0.05419922 0.0625 -0.006652832 0.008056641 0.20703125 0.063964844 -0.07763672 0.06201172 0.30859375 -0.052490234 0.27148438 -0.14941406 0.0859375 0.01574707 0.022583008 -0.043701172 -0.033203125 -0.18164062 0.16699219 0.036865234 -0.20898438 0.16308594 -0.006439209 0.064941406 0.092285156 0.032714844 0.05419922 0.061767578 0.234375 0.3046875 0.16894531 0.10253906 -0.07910156 -0.33984375 -0.09716797 0.14746094 0.07373047 -0.36132812 0.2421875 -0.16015625 -0.13085938 -0.4609375 -0.17871094 -0.17382812 -0.04638672 0.23828125 0.29296875 -0.22167969 0.44921875 -0.36132812 -0.41992188 -0.111328125 -0.23535156 -0.023803711 0.12109375 -0.30664062 0.107421875 0.15136719 -0.16894531 -0.21386719 0.14257812 0.1796875 -0.05029297 -0.421875 0.13378906 -0.111328125 -0.31054688 0.23339844 0.22363281 0.26171875 0.1953125 -0.052246094 -0.034179688 -0.16992188 -0.16015625 -0.13867188 -0.55078125 -0.017211914 0.06591797 0.119628906 -0.06982422 0.06298828 -0.19042969 -0.010864258 -0.011962891 0.046142578 0.030639648 0.25390625 -0.036376953 -0.45117188 -0.057128906 -0.20410156 -0.29101562 0.123535156 -0.050048828 0.044189453 -0.013183594 -0.21972656 -0.010131836 0.032958984 -0.045166016 -0.265625 0.20117188 -0.04638672 0.08935547 0.19335938 -0.01184082 0.15527344 -0.20214844 0.024291992 0.18359375 -0.048339844 0.41210938 0.06738281 0.018920898 -0.37890625 0.080078125 -0.15722656 0.23339844 -0.24414062 -0.033447266 0.20214844 -0.08886719 -0.21191406 0.203125 0.10058594 -0.072265625 -0.17285156 0.16894531 0.07373047 -0.15820312 -0.16699219 -0.25390625 -0.28125 0.19921875 -0.056396484 -0.008544922 0.00061035156 0.048583984 0.02734375 0.26171875 -0.21289062 -0.052734375 0.064941406 -0.063964844 0.08496094 0.018798828 0.07519531 -0.091796875 0.22070312 0.11425781 -0.024047852 -0.14453125 -0.09472656 0.33398438 -0.075683594 -0.24902344 -0.08935547 -0.14257812 0.008544922 -0.10546875 -0.09375 0.19628906 0.14355469 0.26757812 0.014831543 0.24902344 0.37109375 0.08203125 0.31640625 0.2421875 0.078125 -0.057128906 -0.11621094 -0.114746094 0.0859375 -0.07470703 -0.13378906 0.19824219 0.18261719 0.032470703 -0.203125 0.10205078 0.125 0.28125 0.067871094 -0.20996094 0.061767578 0.27148438 0.2578125 -0.028442383 -0.14453125 -0.036132812 -0.32617188 0.24023438 -0.14746094 -0.09667969 0.016967773 -0.14257812 0.017211914 0.0625 -0.0047912598 0.040283203 -0.08935547 0.20214844 -0.036865234 0.26171875 -0.12792969 -0.20019531 -0.15136719 -0.15332031 -0.17382812 0.19238281 -0.26171875 0.060058594 0.006378174 0.055664062
